{"learner":{"attributes":{},"feature_names":["horizon","origin_dow","origin_month","target_dow","target_month","target_dom","target_is_weekend","target_dow_sin","target_dow_cos","target_month_sin","target_month_cos","target_is_holiday","target_is_holiday_eve","target_is_post_holiday","target_is_bridge_day","lunar_ny_distance","days_to_next_holiday","days_since_prev_holiday","is_covid_period","last_value","lag2","lag7","lag14","lag28","lag56","lag358","lag364","lag371","yoy_same_dow_mean","ewma7","ewma14","ewma28","roll7","roll14","roll28","roll56","std7","std14","std28","trend_7_28","trend_14_56","delta_1_7","delta_7_14","recent_mean_84","dow_recent_mean","seasonal_baseline","seasonal_gap","dow_gap","wx_temp_mean","wx_temp_range","wx_temp_min","wx_temp_max","wx_rainfall_log","wx_humidity","wx_wind","wx_pressure_dev","wx_typhoon_signal_ord","wx_rainstorm_signal_ord","wx_is_very_cold","wx_is_very_hot","wx_is_heavy_rain","wx_is_strong_wind","wx_temp_anomaly_30d","ai_factor","ai_factor_known"],"feature_types":["int","int","int","int","int","int","int","float","float","float","float","int","int","int","int","int","int","int","int","float","float","float","float","float","float","float","float","float","float","float","float","float","float","float","float","float","float","float","float","float","float","float","float","float","float","float","float","float","float","float","float","float","float","float","float","float","int","int","int","int","int","int","float","float","int"],"gradient_booster":{"model":{"cats":{"enc":[],"feature_segments":[],"sorted_idx":[]},"gbtree_model_param":{"num_parallel_tree":"1","num_trees":"400"},"iteration_indptr":[0,1,2,3,4,5,6,7,8,9,10,11,12,13,14,15,16,17,18,19,20,21,22,23,24,25,26,27,28,29,30,31,32,33,34,35,36,37,38,39,40,41,42,43,44,45,46,47,48,49,50,51,52,53,54,55,56,57,58,59,60,61,62,63,64,65,66,67,68,69,70,71,72,73,74,75,76,77,78,79,80,81,82,83,84,85,86,87,88,89,90,91,92,93,94,95,96,97,98,99,100,101,102,103,104,105,106,107,108,109,110,111,112,113,114,115,116,117,118,119,120,121,122,123,124,125,126,127,128,129,130,131,132,133,134,135,136,137,138,139,140,141,142,143,144,145,146,147,148,149,150,151,152,153,154,155,156,157,158,159,160,161,162,163,164,165,166,167,168,169,170,171,172,173,174,175,176,177,178,179,180,181,182,183,184,185,186,187,188,189,190,191,192,193,194,195,196,197,198,199,200,201,202,203,204,205,206,207,208,209,210,211,212,213,214,215,216,217,218,219,220,221,222,223,224,225,226,227,228,229,230,231,232,233,234,235,236,237,238,239,240,241,242,243,244,245,246,247,248,249,250,251,252,253,254,255,256,257,258,259,260,261,262,263,264,265,266,267,268,269,270,271,272,273,274,275,276,277,278,279,280,281,282,283,284,285,286,287,288,289,290,291,292,293,294,295,296,297,298,299,300,301,302,303,304,305,306,307,308,309,310,311,312,313,314,315,316,317,318,319,320,321,322,323,324,325,326,327,328,329,330,331,332,333,334,335,336,337,338,339,340,341,342,343,344,345,346,347,348,349,350,351,352,353,354,355,356,357,358,359,360,361,362,363,364,365,366,367,368,369,370,371,372,373,374,375,376,377,378,379,380,381,382,383,384,385,386,387,388,389,390,391,392,393,394,395,396,397,398,399,400],"tree_info":[0,0,0,0,0,0,0,0,0,0,0,0,0,0,0,0,0,0,0,0,0,0,0,0,0,0,0,0,0,0,0,0,0,0,0,0,0,0,0,0,0,0,0,0,0,0,0,0,0,0,0,0,0,0,0,0,0,0,0,0,0,0,0,0,0,0,0,0,0,0,0,0,0,0,0,0,0,0,0,0,0,0,0,0,0,0,0,0,0,0,0,0,0,0,0,0,0,0,0,0,0,0,0,0,0,0,0,0,0,0,0,0,0,0,0,0,0,0,0,0,0,0,0,0,0,0,0,0,0,0,0,0,0,0,0,0,0,0,0,0,0,0,0,0,0,0,0,0,0,0,0,0,0,0,0,0,0,0,0,0,0,0,0,0,0,0,0,0,0,0,0,0,0,0,0,0,0,0,0,0,0,0,0,0,0,0,0,0,0,0,0,0,0,0,0,0,0,0,0,0,0,0,0,0,0,0,0,0,0,0,0,0,0,0,0,0,0,0,0,0,0,0,0,0,0,0,0,0,0,0,0,0,0,0,0,0,0,0,0,0,0,0,0,0,0,0,0,0,0,0,0,0,0,0,0,0,0,0,0,0,0,0,0,0,0,0,0,0,0,0,0,0,0,0,0,0,0,0,0,0,0,0,0,0,0,0,0,0,0,0,0,0,0,0,0,0,0,0,0,0,0,0,0,0,0,0,0,0,0,0,0,0,0,0,0,0,0,0,0,0,0,0,0,0,0,0,0,0,0,0,0,0,0,0,0,0,0,0,0,0,0,0,0,0,0,0,0,0,0,0,0,0,0,0,0,0,0,0,0,0,0,0,0,0,0,0,0,0,0,0,0,0,0,0,0,0,0,0,0,0,0,0,0,0,0,0,0,0,0,0,0,0,0,0,0,0,0,0,0,0],"trees":[{"base_weights":[-3.6029206E-3,-6.5025234E-1,4.7825836E-2,-8.24976E-1,-4.3589628E-1,-2.237579E-1,6.807994E-2,-5.1206853E-2,-9.940113E-4,-4.7740543E-1,-0E0,-5.843422E-1,-1.2735596E-1,-4.2108625E-1,7.334974E-2,-3.091897E-2,-0E0,-4.227305E-2,-0E0,-2.543615E-2,-3.2152098E-3,-4.4081703E-2,-0E0,4.6769925E-3,-1.7501827E-2],"categories":[],"categories_nodes":[],"categories_segments":[],"categories_sizes":[],"default_left":[0,0,0,0,0,0,0,0,0,0,0,0,0,0,1,0,0,0,0,0,0,0,0,0,0],"id":0,"left_children":[1,3,5,7,9,11,13,-1,-1,15,-1,17,19,21,23,-1,-1,-1,-1,-1,-1,-1,-1,-1,-1],"loss_changes":[1.9743793E2,1.1766678E1,2.9548092E1,1.0979156E0,2.9342422E0,1.0546738E1,1.2167719E1,0E0,0E0,3.421627E0,0E0,5.355259E0,5.095056E0,7.5767126E0,6.3360596E0,0E0,0E0,0E0,0E0,0E0,0E0,0E0,0E0,0E0,0E0],"parents":[2147483647,0,0,1,1,2,2,3,3,4,4,5,5,6,6,9,9,11,11,12,12,13,13,14,14],"right_children":[2,4,6,8,10,12,14,-1,-1,16,-1,18,20,22,24,-1,-1,-1,-1,-1,-1,-1,-1,-1,-1],"split_conditions":[1.8741667E2,1.7885715E2,2.1651556E2,9.3E1,4.9833332E1,-2.36E0,1.28E1,-3.5169265E0,-2.91056E0,3.1E1,-4.8509333E-1,1E0,1E1,2.3E1,5.64E1,-1.6978266E0,1.2127333E-1,-1.1520966E0,9.0955E-1,-3.5047991E0,-1.2127333E-1,-1.2127333E0,7.2764E-1,1.0308233E0,-3.0318332E0],"split_indices":[44,34,30,53,46,62,48,0,0,5,0,12,16,5,54,0,0,0,0,0,0,0,0,0,0],"split_type":[0,0,0,0,0,0,0,0,0,0,0,0,0,0,0,0,0,0,0,0,0,0,0,0,0],"sum_hessian":[5.879E3,4.35E2,5.444E3,2.28E2,2.07E2,3.66E2,5.078E3,2.19E2,9E0,1.85E2,2.2E1,6.8E1,2.98E2,4.6E1,5.032E3,1.75E2,1E1,5.8E1,1E1,5E1,2.48E2,2.8E1,1.8E1,4.99E3,4.2E1],"tree_param":{"num_deleted":"0","num_feature":"65","num_nodes":"25","size_leaf_vector":"1"}},{"base_weights":[1.7927914E-3,-6.798862E-1,4.4789057E-2,-4.6147116E-2,-3.1211442E-1,-1.4547545E-1,6.92306E-2,-0E0,-4.8760894E-1,-2.4745785E-1,-0E0,7.4855365E-2,-4.3072957E-1,-3.8295034E-2,-1.2063547E-3,-2.1442983E-2,-1.5858853E-3,-2.43313E-2,2.0051042E-3,-5.4713367E-3,5.0504976E-3,-4.004437E-2,-0E0],"categories":[],"categories_nodes":[],"categories_segments":[],"categories_sizes":[],"default_left":[0,0,0,0,0,0,1,0,0,0,0,0,0,0,0,0,0,0,0,0,0,0,0],"id":1,"left_children":[1,3,5,-1,7,9,11,-1,13,15,17,19,21,-1,-1,-1,-1,-1,-1,-1,-1,-1,-1],"loss_changes":[1.7138524E2,6.592819E0,2.5678062E1,0E0,5.1075673E0,9.133871E0,1.2958672E1,0E0,1.549695E0,7.4154415E0,3.5912013E0,6.8218822E0,5.90349E0,0E0,0E0,0E0,0E0,0E0,0E0,0E0,0E0,0E0,0E0],"parents":[2147483647,0,0,1,1,2,2,4,4,5,5,6,6,8,8,9,9,10,10,11,11,12,12],"right_children":[2,4,6,-1,8,10,12,-1,14,16,18,20,22,-1,-1,-1,-1,-1,-1,-1,-1,-1,-1],"split_conditions":[1.8641072E2,2.61E1,2.12E2,-3.1438837E0,3.2633333E0,2.0458333E2,5.64E1,1.13919504E-1,4.9E0,4.7E1,4E0,1.36E1,-5.9E0,-2.0799692E0,-6.9629556E-1,-1.3358756E0,-2.958295E-1,-8.5078233E-1,3.61951E-1,-3.050523E-1,1.1594505E0,-3.0299032E0,1.09339E0],"split_indices":[35,50,45,0,62,28,54,0,49,16,5,50,55,0,0,0,0,0,0,0,0,0,0],"split_type":[0,0,0,0,0,0,0,0,0,0,0,0,0,0,0,0,0,0,0,0,0,0,0],"sum_hessian":[5.905E3,3.44E2,5.561E3,2.73E2,7.1E1,6.18E2,4.943E3,2.2E1,4.9E1,3.61E2,2.57E2,4.896E3,4.7E1,3.2E1,1.7E1,2.34E2,1.27E2,1.8E1,2.39E2,2.2E2,4.676E3,3.2E1,1.5E1],"tree_param":{"num_deleted":"0","num_feature":"65","num_nodes":"23","size_leaf_vector":"1"}},{"base_weights":[7.2879526E-3,-5.7188886E-1,5.3292464E-2,-4.3547533E-2,-2.5257796E-1,-1.1786816E-1,7.248245E-2,-0E0,-3.4181052E-1,-2.7103382E-1,-0E0,7.5790524E-2,-4.0091106E-1,-0E0,-2.8448934E-2,-3.4340709E-3,-2.3595886E-2,6.9031515E-4,-2.9168328E-2,-1.1988333E-2,4.8396904E-3,-3.82125E-2,-0E0],"categories":[],"categories_nodes":[],"categories_segments":[],"categories_sizes":[],"default_left":[0,0,0,0,0,0,1,0,0,0,0,0,0,0,0,0,0,0,0,0,0,0,0],"id":2,"left_children":[1,3,5,-1,7,9,11,-1,13,15,17,19,21,-1,-1,-1,-1,-1,-1,-1,-1,-1,-1],"loss_changes":[1.5611404E2,1.6809402E1,1.7905487E1,0E0,2.7018938E0,9.019981E0,6.884903E0,0E0,4.000041E0,4.333357E0,2.9698153E0,5.116829E0,3.2018332E0,0E0,0E0,0E0,0E0,0E0,0E0,0E0,0E0,0E0,0E0],"parents":[2147483647,0,0,1,1,2,2,4,4,5,5,6,6,8,8,9,9,10,10,11,11,12,12],"right_children":[2,4,6,-1,8,10,12,-1,14,16,18,20,22,-1,-1,-1,-1,-1,-1,-1,-1,-1,-1],"split_conditions":[1.8741667E2,2.61E1,2.12E2,-2.8704906E0,-1.1690476E1,2.119675E1,5.93E1,-3.6420488E-1,2E0,2E2,5.107143E0,1.55E1,2.6751578E2,-1.6009964E0,-1.4081167E0,-6.9805074E-1,-1.3761458E0,5.34272E-2,-5.810752E-1,-2.8655487E-1,1.0799222E0,-2.8461797E0,1.0270909E0],"split_indices":[44,50,45,0,47,37,54,0,3,45,46,51,30,0,0,0,0,0,0,0,0,0,0],"split_type":[0,0,0,0,0,0,0,0,0,0,0,0,0,0,0,0,0,0,0,0,0,0,0],"sum_hessian":[5.91E3,4.28E2,5.482E3,2.85E2,1.43E2,5.36E2,4.946E3,4.3E1,1E2,2.22E2,3.14E2,4.92E3,2.6E1,3E1,7E1,8.9E1,1.33E2,3.04E2,1E1,5.9E1,4.861E3,1.7E1,9E0],"tree_param":{"num_deleted":"0","num_feature":"65","num_nodes":"23","size_leaf_vector":"1"}},{"base_weights":[1.7291806E-3,-4.6647298E-1,5.6272022E-2,-6.776356E-1,-2.0551416E-1,-1.9976325E-1,6.55549E-2,-7.019624E-1,-0E0,2.541585E-3,-2.743885E-1,-3.19993E-1,2.4078249E-3,6.9433644E-2,-3.5145703E-1,-4.3812886E-2,-0E0,-1.144987E-2,-3.520832E-2,-2.4562411E-2,-0E0,-6.0039097E-3,4.6141366E-3,-3.2772016E-2,-0E0],"categories":[],"categories_nodes":[],"categories_segments":[],"categories_sizes":[],"default_left":[0,0,0,0,0,0,1,0,0,0,0,0,0,0,0,0,0,0,0,0,0,0,0,0,0],"id":3,"left_children":[1,3,5,7,9,11,13,15,-1,-1,17,19,-1,21,23,-1,-1,-1,-1,-1,-1,-1,-1,-1,-1],"loss_changes":[1.4938362E2,3.0655548E1,1.2209524E1,6.1363525E0,5.5238485E0,5.8779626E0,7.5175076E0,5.19722E0,0E0,0E0,3.5139847E0,4.244689E0,0E0,5.6497364E0,3.3497114E0,0E0,0E0,0E0,0E0,0E0,0E0,0E0,0E0,0E0,0E0],"parents":[2147483647,0,0,1,1,2,2,3,3,4,4,5,5,6,6,7,7,10,10,11,11,13,13,14,14],"right_children":[2,4,6,8,10,12,14,16,-1,-1,18,20,-1,22,24,-1,-1,-1,-1,-1,-1,-1,-1,-1,-1],"split_conditions":[2.032262E2,2.6E1,1.48E1,3.09E1,1E0,2.37E2,5.64E1,9.4E1,9.285267E-2,9.575699E-1,3.2633333E0,1.43E1,2.1485685E-1,1.756093E1,-5.9E0,-2.696434E0,7.837245E-1,-6.164749E-1,-1.8684635E0,-9.98662E-1,8.325436E-1,-1.1945002E0,8.4790516E-1,-2.673597E0,9.648119E-1],"split_indices":[43,50,48,51,3,25,54,53,0,0,62,55,0,38,55,0,0,0,0,0,0,0,0,0,0],"split_type":[0,0,0,0,0,0,0,0,0,0,0,0,0,0,0,0,0,0,0,0,0,0,0,0,0],"sum_hessian":[5.891E3,6.07E2,5.284E3,3.27E2,2.8E2,1.72E2,5.112E3,3.17E2,1E1,5.2E1,2.28E2,1.22E2,5E1,5.074E3,3.8E1,3.09E2,8E0,1.89E2,3.9E1,1.01E2,2.1E1,1.75E2,4.899E3,2.6E1,1.2E1],"tree_param":{"num_deleted":"0","num_feature":"65","num_nodes":"25","size_leaf_vector":"1"}},{"base_weights":[1.5176586E-2,-4.5009556E-1,5.4093476E-2,-7.351757E-1,-2.7101952E-1,-4.5032885E-2,7.9944365E-2,-2.029562E-3,-7.8513926E-1,-3.1053562E-2,-3.5572007E-1,-1.5813404E-1,6.0150158E-3,-1.9726397E-1,8.390402E-2,-5.0474297E-2,-3.063003E-3,-1.5686803E-2,2.7248273E-3,-2.49347E-2,-0E0,-2.2904718E-2,-4.573372E-3,-2.0772116E-2,1.3566812E-3,-2.0801676E-2,-0E0,5.3931377E-3,-3.8383189E-3],"categories":[],"categories_nodes":[],"categories_segments":[],"categories_sizes":[],"default_left":[0,0,0,0,0,0,0,0,0,0,0,0,0,0,0,0,0,0,0,0,0,0,0,0,0,0,0,0,0],"id":4,"left_children":[1,3,5,7,9,11,13,-1,15,17,19,21,23,25,27,-1,-1,-1,-1,-1,-1,-1,-1,-1,-1,-1,-1,-1,-1],"loss_changes":[1.0568348E2,1.9498383E1,1.4075924E1,3.3569183E0,4.6720257E0,6.828647E0,4.485443E0,0E0,2.5512466E0,2.1519418E0,4.9053593E0,5.1751137E0,3.3468158E0,2.0689702E0,3.2766857E0,0E0,0E0,0E0,0E0,0E0,0E0,0E0,0E0,0E0,0E0,0E0,0E0,0E0,0E0],"parents":[2147483647,0,0,1,1,2,2,3,3,4,4,5,5,6,6,8,8,9,9,10,10,11,11,12,12,13,13,14,14],"right_children":[2,4,6,8,10,12,14,-1,16,18,20,22,24,26,28,-1,-1,-1,-1,-1,-1,-1,-1,-1,-1,-1,-1,-1,-1],"split_conditions":[1.8741667E2,1.69E2,2.3578572E2,8.2E0,4.8790164E-2,2.12E2,1.51E1,-1.8659283E0,2.63E1,3E0,9.749279E-1,1.7368027E1,1.7E0,2.3075E2,4.314818E0,-3.272699E0,-7.2410554E-1,-7.7446836E-1,1.1971708E-1,-1.7551657E0,7.251492E-2,-1.8919482E0,-2.7870235E-1,-1.1218773E0,5.347529E-2,-1.0427682E0,9.6381545E-2,1.2662086E0,-1.523078E0],"split_indices":[44,45,34,54,52,45,51,0,50,3,7,37,49,26,52,0,0,0,0,0,0,0,0,0,0,0,0,0,0],"split_type":[0,0,0,0,0,0,0,0,0,0,0,0,0,0,0,0,0,0,0,0,0,0,0,0,0,0,0,0,0],"sum_hessian":[5.894E3,4.47E2,5.447E3,1.63E2,2.84E2,1.103E3,4.344E3,1.5E1,1.48E2,8.4E1,2E2,3.59E2,7.44E2,4.9E1,4.295E3,1.35E2,1.3E1,2.9E1,5.5E1,1.78E2,2.2E1,8.6E1,2.73E2,2.3E1,7.21E2,3.2E1,1.7E1,4.173E3,1.22E2],"tree_param":{"num_deleted":"0","num_feature":"65","num_nodes":"29","size_leaf_vector":"1"}},{"base_weights":[1.2575296E-2,-4.321991E-1,5.1175434E-2,-7.291394E-1,-2.5683492E-1,-1.219094E-1,6.518735E-2,-7.7354324E-1,-0E0,-3.1048995E-1,-0E0,-3.8102195E-1,-4.861311E-2,-1.4918012E-2,7.902412E-2,-2.5152718E-3,-5.0066564E-2,-0E0,-2.2582773E-2,-4.2481154E-2,3.443827E-4,-2.9548354E-2,-0E0,-1.6246337E-2,1.0312017E-3,5.01833E-3,-1.2593386E-2],"categories":[],"categories_nodes":[],"categories_segments":[],"categories_sizes":[],"default_left":[0,0,0,0,0,0,0,0,0,0,0,0,0,0,0,0,0,0,0,0,0,0,0,0,0,0,0],"id":5,"left_children":[1,3,5,7,9,11,13,15,-1,17,-1,19,21,23,25,-1,-1,-1,-1,-1,-1,-1,-1,-1,-1,-1,-1],"loss_changes":[1.0051274E2,2.0933731E1,1.3077815E1,3.275032E0,4.712452E0,6.177388E0,5.798847E0,3.2132645E0,0E0,5.308321E0,0E0,1.1629157E1,7.47803E0,6.530645E0,4.338976E0,0E0,0E0,0E0,0E0,0E0,0E0,0E0,0E0,0E0,0E0,0E0,0E0],"parents":[2147483647,0,0,1,1,2,2,3,3,4,4,5,5,6,6,7,7,9,9,11,11,12,12,13,13,14,14],"right_children":[2,4,6,8,10,12,14,16,-1,18,-1,20,22,24,26,-1,-1,-1,-1,-1,-1,-1,-1,-1,-1,-1,-1],"split_conditions":[1.9898215E2,1.69E2,2.1814285E2,2.63E1,1E0,9E0,-7.818315E-1,8.2E0,-6.801982E-1,1.16E1,2.4150947E-1,2.0166667E2,-8.2E0,2.30125E2,8E0,-1.7527851E0,-3.183399E0,4.570511E-2,-1.6382272E0,-3.1151977E0,9.704958E-2,-1.0577655E0,1.601409E-2,-9.8427534E-1,1.5860686E-1,1.1894301E0,-2.009908E0],"split_indices":[35,45,33,50,13,16,7,54,0,54,0,28,55,35,56,0,0,0,0,0,0,0,0,0,0,0,0],"split_type":[0,0,0,0,0,0,0,0,0,0,0,0,0,0,0,0,0,0,0,0,0,0,0,0,0,0,0],"sum_hessian":[5.913E3,4.64E2,5.449E3,1.63E2,3.01E2,3.91E2,5.058E3,1.5E2,1.3E1,2.54E2,4.7E1,7.5E1,3.16E2,7.14E2,4.344E3,1.4E1,1.36E2,4E1,2.14E2,4.4E1,3.1E1,3.2E1,2.84E2,8.8E1,6.26E2,4.3E3,4.4E1],"tree_param":{"num_deleted":"0","num_feature":"65","num_nodes":"27","size_leaf_vector":"1"}},{"base_weights":[1.1649989E-2,-4.5925468E-1,5.0910965E-2,-7.361647E-1,-2.8199404E-1,-1.0384481E-1,6.804516E-2,-5.1838987E-2,-3.7147096E-1,-4.9535027E-1,-1.575225E-1,-3.621014E-1,-4.2478338E-2,-2.2959684E-1,7.182489E-2,-4.372802E-2,-0E0,-0E0,-3.382918E-2,-0E0,-1.58229E-2,-3.2843683E-2,-0E0,2.103429E-3,-9.470589E-3,-0E0,-2.8261386E-2,1.1272214E-3,5.255292E-3],"categories":[],"categories_nodes":[],"categories_segments":[],"categories_sizes":[],"default_left":[0,0,0,0,0,0,0,0,0,0,0,0,0,0,0,0,0,0,0,0,0,0,0,0,0,0,0,0,0],"id":6,"left_children":[1,3,5,7,9,11,13,-1,15,17,19,21,23,25,27,-1,-1,-1,-1,-1,-1,-1,-1,-1,-1,-1,-1,-1,-1],"loss_changes":[1.077266E2,1.8459251E1,1.4346533E1,2.8046036E0,5.4263153E0,7.128901E0,5.118515E0,0E0,8.297245E0,3.4351273E0,3.8009396E0,4.6052227E0,4.208115E0,3.8847022E0,3.5367718E0,0E0,0E0,0E0,0E0,0E0,0E0,0E0,0E0,0E0,0E0,0E0,0E0,0E0,0E0],"parents":[2147483647,0,0,1,1,2,2,3,3,4,4,5,5,6,6,8,8,9,9,10,10,11,11,12,12,13,13,14,14],"right_children":[2,4,6,8,10,12,14,-1,16,18,20,22,24,26,28,-1,-1,-1,-1,-1,-1,-1,-1,-1,-1,-1,-1,-1,-1],"split_conditions":[1.8741667E2,1.69E2,2.12E2,2.94E1,3.5E-1,1.726586E1,1.51E1,-2.9903686E0,1.56E2,1.76E2,4.8790164E-2,2.04E2,1.0535715E0,3.9E1,2.3458333E2,-1.6465017E0,2.6793438E-1,4.0994516E-1,-2.0001144E0,4.2934008E-2,-1.2963437E0,-2.4396672E0,-5.4008234E-1,1.3639623E-1,-4.9253136E-1,2.7843404E-1,-1.0516607E0,5.4795444E-2,1.3598542E0],"split_indices":[44,45,45,51,62,37,51,0,45,45,52,28,40,17,44,0,0,0,0,0,0,0,0,0,0,0,0,0,0],"split_type":[0,0,0,0,0,0,0,0,0,0,0,0,0,0,0,0,0,0,0,0,0,0,0,0,0,0,0,0,0],"sum_hessian":[5.885E3,4.45E2,5.44E3,1.64E2,2.81E2,5.24E2,4.916E3,1.15E2,4.9E1,9.2E1,1.89E2,8.9E1,4.35E2,5E1,4.866E3,2.7E1,2.2E1,9E0,8.3E1,6.6E1,1.23E2,5.4E1,3.5E1,2.45E2,1.9E2,2.2E1,2.8E1,1.105E3,3.761E3],"tree_param":{"num_deleted":"0","num_feature":"65","num_nodes":"29","size_leaf_vector":"1"}},{"base_weights":[2.0120692E-2,-4.6492398E-1,5.1368326E-2,-7.2271854E-1,-2.3571058E-1,-8.116839E-2,6.826765E-2,-7.776901E-1,-0E0,-3.3802485E-1,-1.6176929E-4,-3.7051212E-2,-2.8647235E-1,-1.5583885E-1,7.2275154E-2,-3.063003E-3,-5.000061E-2,-2.3481974E-2,-0E0,-7.225122E-3,3.3771915E-3,-2.956698E-2,-0E0,-0E0,-1.80569E-2,7.7989476E-4,5.12785E-3],"categories":[],"categories_nodes":[],"categories_segments":[],"categories_sizes":[],"default_left":[0,0,0,0,0,0,0,0,0,0,0,0,0,0,0,0,0,0,0,0,0,0,0,0,0,0,0],"id":7,"left_children":[1,3,5,7,9,11,13,15,-1,17,-1,19,21,23,25,-1,-1,-1,-1,-1,-1,-1,-1,-1,-1,-1,-1],"loss_changes":[8.902153E1,1.771553E1,1.25125265E1,7.1209183E0,3.7195768E0,4.597933E0,4.263689E0,2.4481277E0,0E0,2.644598E0,0E0,4.1670017E0,4.350689E0,2.477783E0,3.3006382E0,0E0,0E0,0E0,0E0,0E0,0E0,0E0,0E0,0E0,0E0,0E0,0E0],"parents":[2147483647,0,0,1,1,2,2,3,3,4,4,5,5,6,6,7,7,9,9,11,11,12,12,13,13,14,14],"right_children":[2,4,6,8,10,12,14,16,-1,18,-1,20,22,24,26,-1,-1,-1,-1,-1,-1,-1,-1,-1,-1,-1,-1],"split_conditions":[1.8641072E2,1.69E2,2.12E2,2.78E1,1.9366666E0,3.15E1,-6.4533334E0,8.2E0,3.5920672E-2,1E0,-9.250654E-1,8E0,2.1266667E2,2.4E1,2.295E2,-1.5466634E0,-2.7180874E0,-1.8788337E0,7.83272E-1,-6.555915E-1,1.300474E-1,-7.9766136E-1,-7.925198E-1,6.43133E-1,-6.1511666E-1,4.5434937E-2,1.2365667E0],"split_indices":[35,45,45,48,62,54,62,54,0,12,0,4,44,17,44,0,0,0,0,0,0,0,0,0,0,0,0],"split_type":[0,0,0,0,0,0,0,0,0,0,0,0,0,0,0,0,0,0,0,0,0,0,0,0,0,0,0],"sum_hessian":[5.946E3,3.52E2,5.594E3,1.57E2,1.95E2,6.12E2,4.982E3,1.47E2,1E1,1.26E2,6.9E1,5.18E2,9.4E1,7.3E1,4.909E3,1.3E1,1.34E2,1.13E2,1.3E1,2.91E2,2.27E2,4.9E1,4.5E1,2.7E1,4.6E1,8.83E2,4.026E3],"tree_param":{"num_deleted":"0","num_feature":"65","num_nodes":"27","size_leaf_vector":"1"}},{"base_weights":[1.751592E-2,-5.04018E-1,4.463607E-2,-7.133672E-1,-2.4624462E-1,-9.586217E-2,6.408355E-2,-2.5152718E-3,-4.606957E-2,-5.3692293E-1,-6.2233448E-2,-1.6230331E-1,-0E0,1.9769777E-2,8.356811E-2,-1.2063547E-3,-4.4081703E-2,-1.6396148E-2,-0E0,-0E0,-1.1686625E-2,-2.0710625E-2,1.5511271E-3,5.091043E-3,-5.0022197E-4,-5.8795535E-3,5.3033773E-3],"categories":[],"categories_nodes":[],"categories_segments":[],"categories_sizes":[],"default_left":[0,0,0,0,0,0,0,0,0,0,0,0,0,0,0,0,0,0,0,0,0,0,0,0,0,0,0],"id":8,"left_children":[1,3,5,7,9,11,13,-1,-1,15,17,19,21,23,25,-1,-1,-1,-1,-1,-1,-1,-1,-1,-1,-1,-1],"loss_changes":[8.277714E1,1.231852E1,1.5379825E1,2.3132706E0,5.638479E0,4.417651E0,4.0023937E0,0E0,0E0,2.472556E0,1.875307E0,2.407692E0,2.1124475E0,3.0505972E0,2.3978882E0,0E0,0E0,0E0,0E0,0E0,0E0,0E0,0E0,0E0,0E0,0E0,0E0],"parents":[2147483647,0,0,1,1,2,2,3,3,4,4,5,5,6,6,9,9,10,10,11,11,12,12,13,13,14,14],"right_children":[2,4,6,8,10,12,14,-1,-1,16,18,20,22,24,26,-1,-1,-1,-1,-1,-1,-1,-1,-1,-1,-1,-1],"split_conditions":[1.8778572E2,2.49E1,2.12E2,1.6141072E2,-8.309524E0,2.0483333E2,2.4125E2,-1.3036836E0,-2.4623163E0,9.1E0,-6.9E0,1.18E1,4E0,1.82E1,1.57E1,-1.452879E0,-1.1889462E0,-1.103812E0,2.378705E-2,9.0636715E-2,-7.460706E-1,-8.346447E-1,1.5306874E-1,4.460953E-1,-3.899803E-2,-4.9501795E-1,1.384326E0],"split_indices":[34,48,45,35,46,27,44,0,0,54,55,54,5,54,51,0,0,0,0,0,0,0,0,0,0,0,0],"split_type":[0,0,0,0,0,0,0,0,0,0,0,0,0,0,0,0,0,0,0,0,0,0,0,0,0,0,0],"sum_hessian":[5.94E3,2.86E2,5.654E3,1.49E2,1.37E2,6.68E2,4.986E3,1.4E1,1.35E2,4.5E1,9.2E1,3.99E2,2.69E2,1.57E3,3.416E3,1.7E1,2.8E1,2.8E1,6.4E1,5.2E1,3.47E2,1.4E1,2.55E2,5.07E2,1.063E3,5.5E1,3.361E3],"tree_param":{"num_deleted":"0","num_feature":"65","num_nodes":"27","size_leaf_vector":"1"}},{"base_weights":[2.378677E-2,-4.1122535E-1,5.2475423E-2,-7.622883E-1,-2.0703822E-1,-2.1529859E-2,7.4764736E-2,-4.9777612E-2,-0E0,-2.9301903E-1,-0E0,1.9327048E-2,-1.3048397E-1,7.8023E-2,-1.4882775E-1,-0E0,-2.0074021E-2,-1.4318717E-2,2.2643248E-3,-1.4624954E-2,-2.5923843E-3,-2.9427882E-3,4.9494896E-3,-0E0,-2.203984E-2],"categories":[],"categories_nodes":[],"categories_segments":[],"categories_sizes":[],"default_left":[0,0,0,0,0,0,0,0,0,0,0,0,0,0,0,0,0,0,0,0,0,0,0,0,0],"id":9,"left_children":[1,3,5,7,9,11,13,-1,-1,15,-1,17,19,21,23,-1,-1,-1,-1,-1,-1,-1,-1,-1,-1],"loss_changes":[7.256631E1,2.2470016E1,9.29366E0,6.272766E0,3.521161E0,5.910764E0,2.9478931E0,0E0,0E0,2.2317743E0,0E0,3.5627646E0,2.6592093E0,2.0396538E0,2.4224784E0,0E0,0E0,0E0,0E0,0E0,0E0,0E0,0E0,0E0,0E0],"parents":[2147483647,0,0,1,1,2,2,3,3,4,4,5,5,6,6,9,9,11,11,12,12,13,13,14,14],"right_children":[2,4,6,8,10,12,14,-1,-1,16,-1,18,20,22,24,-1,-1,-1,-1,-1,-1,-1,-1,-1,-1],"split_conditions":[1.8641072E2,-8.309524E0,2.3753572E2,3.08E1,2.22E0,1E0,8E0,-2.49492E0,1.2184051E-1,1.65E2,-8.020415E-1,-8.2E0,1.8516667E2,1.45E1,2.33E2,2.2344597E-2,-1.2474753E0,-9.58227E-1,8.7651886E-2,-9.7473884E-1,-2.1997464E-1,-2.5545472E-1,1.0578386E0,1.2938307E-1,-2.2704146E0],"split_indices":[35,46,34,51,62,6,56,0,0,45,0,55,26,48,28,0,0,0,0,0,0,0,0,0,0],"split_type":[0,0,0,0,0,0,0,0,0,0,0,0,0,0,0,0,0,0,0,0,0,0,0,0,0],"sum_hessian":[5.891E3,3.56E2,5.535E3,1.23E2,2.33E2,1.251E3,4.284E3,1.15E2,8E0,1.56E2,7.7E1,8.92E2,3.59E2,4.237E3,4.7E1,1.4E1,1.42E2,4.6E1,8.46E2,1.42E2,2.17E2,9.4E1,4.143E3,2.3E1,2.4E1],"tree_param":{"num_deleted":"0","num_feature":"65","num_nodes":"25","size_leaf_vector":"1"}},{"base_weights":[2.2793679E-2,-4.1571423E-1,5.1242255E-2,-2.2389145E-1,-7.4954116E-1,-2.4315123E-2,7.380105E-2,-5.481976E-1,-1.3814247E-1,-4.832191E-2,-3.6854453E-3,-1.3004251E-1,1.4473705E-2,-6.739927E-2,7.815989E-2,-0E0,-4.294393E-2,-0E0,-1.920026E-2,-1.5583954E-2,-5.550954E-4,2.5358417E-3,-1.0581126E-2,-2.5407908E-2,9.2476624E-4,5.0013536E-3,-3.1154149E-3],"categories":[],"categories_nodes":[],"categories_segments":[],"categories_sizes":[],"default_left":[0,0,0,0,0,0,0,0,0,0,0,0,0,0,0,0,0,0,0,0,0,0,0,0,0,0,0],"id":10,"left_children":[1,3,5,7,9,11,13,15,17,-1,-1,19,21,23,25,-1,-1,-1,-1,-1,-1,-1,-1,-1,-1,-1,-1],"loss_changes":[7.2220146E1,1.9240559E1,9.558601E0,4.2720194E0,1.3454514E0,5.4332895E0,2.6805649E0,1.6548386E0,5.275094E0,0E0,0E0,4.6476483E0,4.2362514E0,4.378457E0,2.438345E0,0E0,0E0,0E0,0E0,0E0,0E0,0E0,0E0,0E0,0E0,0E0,0E0],"parents":[2147483647,0,0,1,1,2,2,3,3,4,4,5,5,6,6,7,7,8,8,11,11,12,12,13,13,14,14],"right_children":[2,4,6,8,10,12,14,16,18,-1,-1,20,22,24,26,-1,-1,-1,-1,-1,-1,-1,-1,-1,-1,-1,-1],"split_conditions":[1.8641072E2,-2E-1,2.3753572E2,-1.2273809E1,1.7857143E1,4E0,1.49E1,9.1E0,9.1629076E-1,-2.586183E0,-9.670797E-1,2.119675E1,7.1E0,2.5439285E2,4.314818E0,-1.2134975E0,-1.130903E0,2.0990042E-2,-1.3637041E0,-9.3923545E-1,-1.8265663E-1,8.067926E-2,-9.156344E-1,-2.1967912E0,5.1069293E-2,1.005586E0,-1.5081983E0],"split_indices":[35,55,34,46,39,49,48,54,52,0,0,37,49,34,52,0,0,0,0,0,0,0,0,0,0,0,0],"split_type":[0,0,0,0,0,0,0,0,0,0,0,0,0,0,0,0,0,0,0,0,0,0,0,0,0,0,0],"sum_hessian":[5.867E3,3.49E2,5.518E3,2.3E2,1.19E2,1.239E3,4.279E3,3.8E1,1.92E2,1.07E2,1.2E1,3.51E2,8.88E2,1.07E2,4.172E3,1.3E1,2.5E1,1.05E2,8.7E1,1.58E2,1.93E2,7.91E2,9.7E1,2.5E1,8.2E1,4.06E3,1.12E2],"tree_param":{"num_deleted":"0","num_feature":"65","num_nodes":"27","size_leaf_vector":"1"}},{"base_weights":[2.242938E-2,-3.7862542E-1,4.822561E-2,-6.561171E-1,-1.757097E-1,-1.9754782E-2,7.7446885E-2,-4.7079366E-2,-9.846657E-3,-3.3833718E-1,-5.230469E-2,-1.2557769E-1,7.795491E-3,-6.567054E-2,8.139536E-2,-0E0,-3.1773552E-2,-1.3955056E-2,3.48505E-3,-2.0583201E-2,-2.0370523E-3,-2.3347134E-2,1.2145697E-3,-3.5266906E-2,9.1058924E-4,-1.0457891E-2,5.0578737E-3],"categories":[],"categories_nodes":[],"categories_segments":[],"categories_sizes":[],"default_left":[0,0,0,0,0,0,0,0,0,0,0,0,0,0,0,0,0,0,0,0,0,0,0,0,0,0,0],"id":11,"left_children":[1,3,5,7,9,11,13,-1,-1,15,17,19,21,23,25,-1,-1,-1,-1,-1,-1,-1,-1,-1,-1,-1,-1],"loss_changes":[6.0061626E1,1.6962002E1,1.119019E1,5.288246E0,3.0644426E0,5.125567E0,2.2693062E0,0E0,0E0,6.3245277E0,3.1469517E0,5.9797616E0,5.118709E0,5.2791367E0,1.7385826E0,0E0,0E0,0E0,0E0,0E0,0E0,0E0,0E0,0E0,0E0,0E0,0E0],"parents":[2147483647,0,0,1,1,2,2,3,3,4,4,5,5,6,6,9,9,10,10,11,11,12,12,13,13,14,14],"right_children":[2,4,6,8,10,12,14,-1,-1,16,18,20,22,24,26,-1,-1,-1,-1,-1,-1,-1,-1,-1,-1,-1,-1],"split_conditions":[1.8641072E2,2.47E1,2.3458333E2,1.76E2,-2.5119047E0,1.96556E1,-1.3E1,-2.2838376E0,-1.30088E0,3.5E0,-6.1E0,3.9E0,-6.713333E0,1.4E1,1.2E0,6.3981414E-2,-1.1399149E0,-8.969945E-1,1.971691E-2,-1.1935807E0,-1.2887605E-1,-7.358941E-1,5.6277033E-2,-2.7053192E0,2.129898E-1,-9.1947967E-1,1.0515552E0],"split_indices":[35,48,44,21,47,38,55,0,0,49,55,49,62,16,49,0,0,0,0,0,0,0,0,0,0,0,0],"split_type":[0,0,0,0,0,0,0,0,0,0,0,0,0,0,0,0,0,0,0,0,0,0,0,0,0,0,0],"sum_hessian":[5.891E3,3.47E2,5.544E3,1.38E2,2.09E2,1.637E3,3.907E3,1.05E2,3.3E1,7.8E1,1.31E2,3.58E2,1.279E3,8.4E1,3.823E3,2.4E1,5.4E1,5.9E1,7.2E1,9.6E1,2.62E2,2.9E1,1.25E3,1.4E1,7E1,1.7E1,3.806E3],"tree_param":{"num_deleted":"0","num_feature":"65","num_nodes":"27","size_leaf_vector":"1"}},{"base_weights":[2.6857382E-2,-4.4145676E-1,4.423521E-2,-6.739244E-1,-1.9506349E-1,-6.391912E-2,6.454287E-2,-0E0,-7.61213E-1,-2.733724E-1,-0E0,-9.830352E-2,2.8276737E-3,-1.8899935E-1,7.0188954E-2,-4.971265E-2,-4.3665073E-4,-0E0,-2.5979111E-2,-1.3966075E-3,-1.0523284E-2,-1.7911188E-2,-0E0,-0E0,4.7995746E-3],"categories":[],"categories_nodes":[],"categories_segments":[],"categories_sizes":[],"default_left":[0,0,0,0,0,0,0,0,0,0,0,0,0,0,0,0,0,0,0,0,0,0,0,0,0],"id":12,"left_children":[1,3,5,7,9,11,13,-1,15,17,-1,19,-1,21,23,-1,-1,-1,-1,-1,-1,-1,-1,-1,-1],"loss_changes":[4.698293E1,8.902283E0,1.2544494E1,6.56514E0,2.3038769E0,3.5101442E0,6.600622E0,0E0,1.4982452E0,3.373804E0,0E0,3.3405275E0,0E0,2.4350667E0,2.868761E0,0E0,0E0,0E0,0E0,0E0,0E0,0E0,0E0,0E0,0E0],"parents":[2147483647,0,0,1,1,2,2,3,3,4,4,5,5,6,6,8,8,9,9,11,11,13,13,14,14],"right_children":[2,4,6,8,10,12,14,-1,16,18,-1,20,-1,22,24,-1,-1,-1,-1,-1,-1,-1,-1,-1,-1],"split_conditions":[1.766825E2,2.13E1,2.1766667E2,5.4E1,3.04E1,4.1E1,-6.4533334E0,7.394905E-2,1.8071428E2,5E0,1.4114568E-1,1.6E1,5.9438385E-2,4.05E1,-7.818315E-1,-2.290881E0,-9.8741835E-1,-8.2415664E-1,-1.1387843E0,-2.744194E-1,-5.1662374E-1,-4.9239165E-1,4.2028196E-2,1.674503E-2,9.2959255E-1],"split_indices":[31,50,44,53,51,17,62,0,32,17,0,17,0,54,7,0,0,0,0,0,0,0,0,0,0],"split_type":[0,0,0,0,0,0,0,0,0,0,0,0,0,0,0,0,0,0,0,0,0,0,0,0,0],"sum_hessian":[5.906E3,2.03E2,5.703E3,9.6E1,1.07E2,8.78E2,4.825E3,1E1,8.6E1,8.4E1,2.3E1,6.9E2,1.88E2,9.2E1,4.733E3,7.6E1,1E1,3.3E1,5.1E1,3.66E2,3.24E2,6.4E1,2.8E1,5.54E2,4.179E3],"tree_param":{"num_deleted":"0","num_feature":"65","num_nodes":"25","size_leaf_vector":"1"}},{"base_weights":[2.4249475E-2,-4.7063076E-1,4.2518865E-2,-6.861635E-1,-1.678717E-1,-3.2078978E-2,7.32654E-2,-0E0,-7.4568605E-1,-0E0,-4.2654014E-1,-1.05154395E-1,9.867564E-3,-2.6629323E-3,4.897129E-3,-4.7553826E-2,-0E0,-4.037824E-2,-0E0,-1.0512741E-2,9.056466E-4,-1.4342648E-2,1.4248762E-3,-1.3964033E-2,2.4665368E-3],"categories":[],"categories_nodes":[],"categories_segments":[],"categories_sizes":[],"default_left":[0,0,0,0,0,0,0,0,0,0,0,0,0,0,0,0,0,0,0,0,0,0,0,0,0],"id":13,"left_children":[1,3,5,7,9,11,13,-1,15,-1,17,19,21,23,-1,-1,-1,-1,-1,-1,-1,-1,-1,-1,-1],"loss_changes":[5.2419018E1,1.0629471E1,1.32608795E1,5.238785E0,4.3664722E0,5.3243203E0,2.5521374E0,0E0,1.312542E0,0E0,3.015139E0,5.593398E0,2.8299458E0,3.8780808E0,0E0,0E0,0E0,0E0,0E0,0E0,0E0,0E0,0E0,0E0,0E0],"parents":[2147483647,0,0,1,1,2,2,3,3,4,4,5,5,6,6,8,8,10,10,11,11,12,12,13,13],"right_children":[2,4,6,8,10,12,14,-1,16,-1,18,20,22,24,-1,-1,-1,-1,-1,-1,-1,-1,-1,-1,-1],"split_conditions":[1.766825E2,2.45E1,2.3208333E2,5.4E1,4.8790164E-2,4.3E0,2.4E0,6.9465324E-2,1.77E2,-3.5021123E-2,2.42E1,2.3984335E2,1.7308333E2,-9.083333E0,8.73225E-1,-2.1519697E0,-9.27545E-1,-1.249731E0,-7.7418244E-1,-7.0029724E-1,1.573004E-2,-1.5917865E0,3.9634503E-2,-8.647405E-1,4.918587E-1],"split_indices":[31,48,44,53,52,49,49,0,21,0,50,30,44,47,0,0,0,0,0,0,0,0,0,0,0],"split_type":[0,0,0,0,0,0,0,0,0,0,0,0,0,0,0,0,0,0,0,0,0,0,0,0,0],"sum_hessian":[5.927E3,2.03E2,5.724E3,1.11E2,9.2E1,1.643E3,4.081E3,8E0,1.03E2,5.6E1,3.6E1,6.23E2,1.02E3,3.32E2,3.749E3,9.5E1,8E0,2E1,1.6E1,4.12E2,2.11E2,4E1,9.8E2,6.2E1,2.7E2],"tree_param":{"num_deleted":"0","num_feature":"65","num_nodes":"25","size_leaf_vector":"1"}},{"base_weights":[2.5177613E-2,-5.966036E-1,3.851272E-2,-0E0,-7.144666E-1,-9.058321E-2,6.0525477E-2,-0E0,-4.7680695E-2,-4.5340574E-1,-5.985929E-2,-1.7500278E-1,6.482392E-2,-0E0,-3.300963E-2,8.793445E-5,-8.217656E-3,-2.1689663E-2,3.443827E-4,4.1979123E-3,-3.5933098E-3],"categories":[],"categories_nodes":[],"categories_segments":[],"categories_sizes":[],"default_left":[0,0,0,0,0,0,0,0,0,0,0,0,1,0,0,0,0,0,0,0,0],"id":14,"left_children":[1,3,5,-1,7,9,11,-1,-1,13,15,17,19,-1,-1,-1,-1,-1,-1,-1,-1],"loss_changes":[4.7437878E1,7.7713547E0,1.6388508E1,0E0,5.695114E0,7.6386776E0,4.741022E0,0E0,0E0,2.7728453E0,3.970178E0,3.5930078E0,2.7163124E0,0E0,0E0,0E0,0E0,0E0,0E0,0E0,0E0],"parents":[2147483647,0,0,1,1,2,2,4,4,5,5,6,6,9,9,10,10,11,11,12,12],"right_children":[2,4,6,-1,8,10,12,-1,-1,14,16,18,20,-1,-1,-1,-1,-1,-1,-1,-1],"split_conditions":[1.615E2,1E1,2.12E2,-9.2596376E-1,5.4E1,1.6283333E2,-6.4533334E0,6.525362E-2,-2.021482E0,1.5825E2,1.99E2,2.5067211E1,4.51E1,2.7114034E-1,-1.1739517E0,3.6276154E-2,-4.4348288E-1,-4.9235925E-1,5.2728343E-1,5.973631E-1,-1.0860429E0],"split_indices":[33,54,45,0,53,44,62,0,0,25,45,38,54,0,0,0,0,0,0,0,0],"split_type":[0,0,0,0,0,0,0,0,0,0,0,0,0,0,0,0,0,0,0,0,0],"sum_hessian":[5.907E3,1.17E2,5.79E3,2.1E1,9.6E1,8.23E2,4.967E3,8E0,8.8E1,5.4E1,7.69E2,7.5E1,4.892E3,8E0,4.6E1,4.05E2,3.64E2,4.4E1,3.1E1,4.748E3,1.44E2],"tree_param":{"num_deleted":"0","num_feature":"65","num_nodes":"21","size_leaf_vector":"1"}},{"base_weights":[2.1058558E-2,-1.8931107E-1,5.25926E-2,-5.358793E-1,-1.11121304E-1,-4.658302E-3,7.18198E-2,-0E0,-6.395129E-1,-1.5562354E-1,5.4192095E-4,-7.798719E-2,4.0532712E-2,7.425906E-2,-2.560745E-1,-0E0,-4.540971E-2,-2.6152954E-2,-4.711925E-3,1.2790167E-3,-9.7568035E-3,-1.9557339E-3,4.8718033E-3,-0E0,4.9518878E-3,-0E0,-2.9168328E-2],"categories":[],"categories_nodes":[],"categories_segments":[],"categories_sizes":[],"default_left":[0,0,0,0,0,0,0,0,0,0,0,0,0,0,0,0,0,0,0,0,0,0,0,0,0,0,0],"id":15,"left_children":[1,3,5,7,9,11,13,-1,15,17,-1,19,21,23,25,-1,-1,-1,-1,-1,-1,-1,-1,-1,-1,-1,-1],"loss_changes":[3.8971684E1,1.8599047E1,5.8890867E0,6.344208E0,3.8052783E0,4.3082123E0,2.6487827E0,0E0,8.648632E0,8.711842E0,0E0,4.5864916E0,2.3480768E0,2.2463913E0,1.5751324E0,0E0,0E0,0E0,0E0,0E0,0E0,0E0,0E0,0E0,0E0,0E0,0E0],"parents":[2147483647,0,0,1,1,2,2,3,3,4,4,5,5,6,6,8,8,9,9,11,11,12,12,13,13,14,14],"right_children":[2,4,6,8,10,12,14,-1,16,18,-1,20,22,24,26,-1,-1,-1,-1,-1,-1,-1,-1,-1,-1,-1,-1],"split_conditions":[2.1471428E2,1.62E2,2.3458333E2,1E1,4.8E1,-5.4E-1,9.4E0,-8.9898974E-1,5.4E1,2.18E1,1.1128905E-1,7E1,4.2E0,2.5E0,5E0,6.129729E-2,-1.4744492E0,-1.0955079E0,-2.4360421E-1,5.9635743E-2,-7.582004E-1,-1.785745E-1,3.7214717E-1,-2.5656037E-2,8.6306584E-1,1.7542396E0,-1.4953892E0],"split_indices":[32,45,44,54,16,62,49,0,53,48,0,53,49,49,2,0,0,0,0,0,0,0,0,0,0,0,0],"split_type":[0,0,0,0,0,0,0,0,0,0,0,0,0,0,0,0,0,0,0,0,0,0,0,0,0,0,0],"sum_hessian":[5.928E3,7.59E2,5.169E3,1.3E2,6.29E2,1.262E3,3.907E3,2.4E1,1.06E2,4.76E2,1.53E2,5.05E2,7.57E2,3.889E3,1.8E1,1.4E1,9.2E1,9.4E1,3.82E2,2.15E2,2.9E2,2.42E2,5.15E2,3.37E2,3.552E3,8E0,1E1],"tree_param":{"num_deleted":"0","num_feature":"65","num_nodes":"27","size_leaf_vector":"1"}},{"base_weights":[2.5267947E-2,-4.5892584E-1,3.9455142E-2,-6.818488E-1,-7.0371985E-2,-7.113258E-2,6.1059244E-2,-0E0,-4.6753123E-2,1.7529888E-3,-3.6051172E-1,-1.0472622E-1,2.5281857E-3,-1.3048603E-1,6.540455E-2,-3.5266906E-2,-0E0,-1.6733406E-3,-1.1317778E-2,-2.1748642E-2,-0E0,4.116527E-3,-8.657429E-3],"categories":[],"categories_nodes":[],"categories_segments":[],"categories_sizes":[],"default_left":[0,0,0,0,0,0,0,0,0,0,0,0,0,0,0,0,0,0,0,0,0,0,0],"id":16,"left_children":[1,3,5,7,9,11,13,-1,-1,-1,15,17,-1,19,21,-1,-1,-1,-1,-1,-1,-1,-1],"loss_changes":[3.919692E1,1.1686996E1,1.364261E1,6.71019E0,2.9125764E0,3.657991E0,3.8341064E0,0E0,0E0,0E0,2.4311166E0,3.942021E0,0E0,3.0101023E0,2.2469158E0,0E0,0E0,0E0,0E0,0E0,0E0,0E0,0E0],"parents":[2147483647,0,0,1,1,2,2,3,3,4,4,5,5,6,6,10,10,11,11,13,13,14,14],"right_children":[2,4,6,8,10,12,14,-1,-1,-1,16,18,-1,20,22,-1,-1,-1,-1,-1,-1,-1,-1],"split_conditions":[1.7049237E2,2.2E1,2.1766667E2,5.4E1,8E1,4.1E1,-6.4533334E0,5.758059E-2,-1.8094996E0,1.1646855E-1,-1.2273809E1,1.6E1,4.530818E-2,3.7E0,4.683057E0,-8.736515E-1,2.2329146E-1,-1.19596794E-1,-4.6693176E-1,-5.2598125E-1,-3.4579972E-3,6.1044604E-1,-2.4452913E0],"split_indices":[31,50,44,53,53,17,62,0,0,0,46,17,0,49,52,0,0,0,0,0,0,0,0],"split_type":[0,0,0,0,0,0,0,0,0,0,0,0,0,0,0,0,0,0,0,0,0,0,0],"sum_hessian":[5.874E3,1.59E2,5.715E3,9.5E1,6.4E1,9.11E2,4.804E3,1E1,8.5E1,4.2E1,2.2E1,7.22E2,1.89E2,9E1,4.714E3,1.4E1,8E0,3.92E2,3.3E2,3.3E1,5.7E1,4.674E3,4E1],"tree_param":{"num_deleted":"0","num_feature":"65","num_nodes":"23","size_leaf_vector":"1"}},{"base_weights":[2.4507048E-2,-4.238708E-1,3.8230866E-2,-6.784788E-1,-8.022809E-2,-2.8556006E-2,6.960333E-2,-4.5746222E-2,-2.5152718E-3,-1.9798448E-2,2.1073201E-3,-1.330076E-1,-0E0,7.411271E-2,-2.048199E-1,-1.7668197E-2,-1.49173E-3,-6.1541786E-3,1.6675335E-3,-0E0,4.928442E-3,-0E0,-2.7374359E-2],"categories":[],"categories_nodes":[],"categories_segments":[],"categories_sizes":[],"default_left":[0,0,0,0,0,0,0,0,0,0,0,0,0,0,0,0,0,0,0,0,0,0,0],"id":17,"left_children":[1,3,5,7,9,11,13,-1,-1,-1,-1,15,17,19,21,-1,-1,-1,-1,-1,-1,-1,-1],"loss_changes":[3.512626E1,1.24051285E1,1.21047325E1,2.036312E0,3.1347482E0,5.6206055E0,4.5119495E0,0E0,0E0,0E0,0E0,5.9405217E0,3.7790146E0,2.0956516E0,3.7942228E0,0E0,0E0,0E0,0E0,0E0,0E0,0E0,0E0],"parents":[2147483647,0,0,1,1,2,2,3,3,4,4,5,5,6,6,11,11,12,12,13,13,14,14],"right_children":[2,4,6,8,10,12,14,-1,-1,-1,-1,16,18,20,22,-1,-1,-1,-1,-1,-1,-1,-1],"split_conditions":[1.7049237E2,2.39E1,2.33E2,1E0,-1.2440476E1,1.810728E1,8E0,-1.4572313E0,-1.699778E0,-7.6232916E-1,1.0940617E-1,4.3E0,2.0910715E2,-7.818315E-1,2.1533333E2,-8.933897E-1,-5.357243E-2,-4.9195775E-1,6.1119273E-2,-1.2487067E-2,8.6290854E-1,6.726232E-2,-2.0277457E0],"split_indices":[31,48,45,12,46,37,56,0,0,0,0,49,35,7,25,0,0,0,0,0,0,0,0],"split_type":[0,0,0,0,0,0,0,0,0,0,0,0,0,0,0,0,0,0,0,0,0,0,0],"sum_hessian":[5.881E3,1.66E2,5.715E3,8.9E1,7.7E1,1.797E3,3.918E3,7.5E1,1.4E1,3.1E1,4.6E1,3.98E2,1.399E3,3.867E3,5.1E1,1.49E2,2.49E2,2.82E2,1.117E3,3.35E2,3.532E3,2.4E1,2.7E1],"tree_param":{"num_deleted":"0","num_feature":"65","num_nodes":"23","size_leaf_vector":"1"}},{"base_weights":[2.6865466E-2,-2.0214301E-1,5.0325647E-2,-4.589531E-1,-1.14975885E-1,-1.0266134E-1,5.5515055E-2,-0E0,-5.278002E-1,-4.0051544E-1,-6.688517E-2,-2.6283845E-2,-8.804931E-5,6.8797097E-3,7.257969E-2,-0E0,-3.527751E-2,-0E0,-3.8295034E-2,-1.0919488E-2,-0E0,1.2293436E-3,-8.047903E-3,-1.5527504E-2,4.551983E-3],"categories":[],"categories_nodes":[],"categories_segments":[],"categories_sizes":[],"default_left":[0,0,0,0,0,0,0,0,0,0,0,0,0,0,0,0,0,0,0,0,0,0,0,0,0],"id":18,"left_children":[1,3,5,7,9,11,13,-1,15,17,19,-1,-1,21,23,-1,-1,-1,-1,-1,-1,-1,-1,-1,-1],"loss_changes":[3.1480682E1,1.0292988E1,4.164097E0,4.772751E0,4.276886E0,4.078794E0,4.1178265E0,0E0,3.762226E0,5.6984262E0,3.143771E0,0E0,0E0,2.3140929E0,2.6637402E0,0E0,0E0,0E0,0E0,0E0,0E0,0E0,0E0,0E0,0E0],"parents":[2147483647,0,0,1,1,2,2,3,3,4,4,5,5,6,6,8,8,9,9,10,10,13,13,14,14],"right_children":[2,4,6,8,10,12,14,-1,16,18,20,-1,-1,22,24,-1,-1,-1,-1,-1,-1,-1,-1,-1,-1],"split_conditions":[2.0634158E2,1.62E2,-5.2E0,5.4E1,2E0,2.7E0,2.33E2,1.5715793E-1,1.5825E2,7.6E1,-1.9761904E0,-1.3565621E0,-3.3520594E-2,7.1E0,-1.63E1,8.641021E-2,-1.1869597E0,5.4146923E-2,-2.5066364E0,-1.0079023E0,2.2702944E-2,2.3426209E-2,-9.146305E-1,-2.4641094E0,7.6365316E-1],"split_indices":[29,45,62,53,16,49,45,0,25,53,47,0,0,49,55,0,0,0,0,0,0,0,0,0,0],"split_type":[0,0,0,0,0,0,0,0,0,0,0,0,0,0,0,0,0,0,0,0,0,0,0,0,0],"sum_hessian":[5.934E3,5.38E2,5.396E3,1.25E2,4.13E2,1.57E2,5.239E3,1.4E1,1.11E2,4.8E1,3.65E2,2.8E1,1.29E2,1.406E3,3.833E3,9E0,1.02E2,1.6E1,3.2E1,1.45E2,2.2E2,1.304E3,1.02E2,1.8E1,3.815E3],"tree_param":{"num_deleted":"0","num_feature":"65","num_nodes":"25","size_leaf_vector":"1"}},{"base_weights":[2.8415436E-2,-1.6088997E-1,4.749011E-2,-3.6602008E-1,-8.380572E-2,-6.6076405E-3,6.870206E-2,-5.0953525E-1,3.443827E-4,-0E0,-1.6977783E-1,-6.720054E-2,1.8368803E-2,-2.0767806E-1,7.0891306E-2,-0E0,-3.6867287E-2,2.948496E-3,-6.7520556E-3,-1.673372E-2,-0E0,-1.4647261E-2,-7.571997E-4,2.5035723E-3,-7.6842858E-3,-2.699004E-2,-0E0,4.4304784E-3,-8.957944E-3],"categories":[],"categories_nodes":[],"categories_segments":[],"categories_sizes":[],"default_left":[0,0,0,0,0,0,0,0,0,0,0,0,0,0,1,0,0,0,0,0,0,0,0,0,0,0,0,0,0],"id":19,"left_children":[1,3,5,7,9,11,13,15,-1,17,19,21,23,25,27,-1,-1,-1,-1,-1,-1,-1,-1,-1,-1,-1,-1,-1,-1],"loss_changes":[2.0834925E1,6.874364E0,6.3046007E0,8.496811E0,2.6156104E0,2.3649693E0,1.9839268E0,5.901741E0,0E0,1.2312008E0,3.1996808E0,3.6666234E0,3.1130495E0,1.4194679E0,1.6437244E0,0E0,0E0,0E0,0E0,0E0,0E0,0E0,0E0,0E0,0E0,0E0,0E0,0E0,0E0],"parents":[2147483647,0,0,1,1,2,2,3,3,4,4,5,5,6,6,7,7,9,9,10,10,11,11,12,12,13,13,14,14],"right_children":[2,4,6,8,10,12,14,16,-1,18,20,22,24,26,28,-1,-1,-1,-1,-1,-1,-1,-1,-1,-1,-1,-1,-1,-1],"split_conditions":[2.0634158E2,-1.947619E1,2.3458333E2,1.3E1,8.1E1,4.1E0,1.2E0,5.4E1,2.4303705E-1,1.770119E2,1.5E1,2.0854593E1,7.1E0,2.4982751E2,5.93E1,1.4762792E-1,-1.5247351E0,2.952355E-2,-3.4767175E-1,-9.641457E-1,-4.065551E-1,-7.4259746E-1,-3.1487837E-2,7.413428E-2,-9.281464E-1,-8.8911414E-1,4.2852173E0,6.823799E-1,-2.314694E0],"split_indices":[29,46,44,16,53,49,49,53,0,43,5,38,49,29,54,0,0,0,0,0,0,0,0,0,0,0,0,0,0],"split_type":[0,0,0,0,0,0,0,0,0,0,0,0,0,0,0,0,0,0,0,0,0,0,0,0,0,0,0,0,0],"sum_hessian":[5.853E3,5.2E2,5.333E3,1.29E2,3.91E2,1.464E3,3.869E3,9.8E1,3.1E1,2.07E2,1.84E2,4.6E2,1.004E3,1.8E1,3.851E3,1.4E1,8.4E1,1.37E2,7E1,1.1E2,7.4E1,9.5E1,3.65E2,8.86E2,1.18E2,9E0,9E0,3.828E3,2.3E1],"tree_param":{"num_deleted":"0","num_feature":"65","num_nodes":"29","size_leaf_vector":"1"}},{"base_weights":[2.2677772E-2,-3.961049E-1,3.198443E-2,-5.8512586E-1,-1.0043974E-1,-1.6836263E-2,6.597371E-2,-3.952997E-2,-0E0,-0E0,-3.1027747E-2,-0E0,-1.3984966E-1,-2.3547839E-1,7.245511E-2,-8.641332E-3,7.7462225E-4,-2.9682296E-3,-3.051751E-2,-0E0,-3.0250058E-2,4.5332224E-3,-2.440317E-2],"categories":[],"categories_nodes":[],"categories_segments":[],"categories_sizes":[],"default_left":[0,0,0,0,0,0,0,0,0,0,0,0,0,0,0,0,0,0,0,0,0,0,0],"id":20,"left_children":[1,3,5,7,9,11,13,-1,-1,-1,-1,15,17,19,21,-1,-1,-1,-1,-1,-1,-1,-1],"loss_changes":[2.1968317E1,4.6486835E0,9.738207E0,1.3404427E0,3.0057642E0,4.7477484E0,6.2995615E0,0E0,0E0,0E0,0E0,3.8562815E0,7.467807E0,5.34546E0,2.8302708E0,0E0,0E0,0E0,0E0,0E0,0E0,0E0,0E0],"parents":[2147483647,0,0,1,1,2,2,3,3,4,4,5,5,6,6,11,11,12,12,13,13,14,14],"right_children":[2,4,6,8,10,12,14,-1,-1,-1,-1,16,18,20,22,-1,-1,-1,-1,-1,-1,-1,-1],"split_conditions":[1.615E2,3.4047618E0,2.4125E2,2.54E1,1.84E2,8.9E1,1.57E1,-1.7341073E0,-5.516756E-1,2.325781E-2,-1.4322803E0,-3.3033333E0,2.36E2,3.9E1,3.57E1,-5.41173E-1,3.0344244E-2,-1.4265013E-1,-1.9773442E0,1.2283329E-1,-1.3228196E0,7.972441E-1,-9.05701E-2],"split_indices":[33,47,44,48,25,53,51,0,0,0,0,62,27,17,51,0,0,0,0,0,0,0,0],"split_type":[0,0,0,0,0,0,0,0,0,0,0,0,0,0,0,0,0,0,0,0,0,0,0],"sum_hessian":[5.897E3,1.19E2,5.778E3,6.5E1,5.4E1,2.337E3,3.441E3,5.5E1,1E1,4.3E1,1.1E1,2.063E3,2.74E2,6.1E1,3.38E3,1.72E2,1.891E3,2.28E2,4.6E1,2.8E1,3.3E1,3.372E3,8E0],"tree_param":{"num_deleted":"0","num_feature":"65","num_nodes":"23","size_leaf_vector":"1"}},{"base_weights":[2.7386881E-2,-3.339159E-1,3.5421897E-2,-6.0176674E-2,-5.709113E-1,-0E0,7.775895E-2,-0E0,-2.9168328E-2,-0E0,-3.954868E-2,-6.172452E-2,1.8869242E-2,-0E0,5.22327E-3,-7.2912592E-3,1.5769884E-3,-1.0637464E-3,3.6800862E-3,9.296751E-4,-2.9168328E-2],"categories":[],"categories_nodes":[],"categories_segments":[],"categories_sizes":[],"default_left":[0,0,0,0,0,0,0,0,0,0,0,0,0,0,0,0,0,0,0,0,0],"id":21,"left_children":[1,3,5,7,9,11,13,-1,-1,-1,-1,15,17,19,-1,-1,-1,-1,-1,-1,-1],"loss_changes":[1.6281677E1,5.9007883E0,8.564936E0,2.6959114E0,2.0058098E0,3.6344204E0,1.9459171E0,0E0,0E0,0E0,0E0,4.0080757E0,3.8480647E0,2.98053E0,0E0,0E0,0E0,0E0,0E0,0E0,0E0],"parents":[2147483647,0,0,1,1,2,2,3,3,4,4,5,5,6,6,11,11,12,12,13,13],"right_children":[2,4,6,8,10,12,14,-1,-1,-1,-1,16,18,20,-1,-1,-1,-1,-1,-1,-1],"split_conditions":[1.6579308E2,1.62E1,2.52E2,4.8790164E-2,1E0,-7.818315E-1,2E0,2.5198042E-2,-6.118626E-1,-6.002841E-1,-1.6289572E0,8.2666665E-1,2.41E2,3.06E1,9.3081206E-1,-5.183891E-1,6.962589E-2,-5.8556158E-2,5.6699204E-1,5.6699204E-1,-8.507786E-2],"split_indices":[29,54,45,52,3,7,16,0,0,0,0,62,34,48,0,0,0,0,0,0,0],"split_type":[0,0,0,0,0,0,0,0,0,0,0,0,0,0,0,0,0,0,0,0,0],"sum_hessian":[5.894E3,1.18E2,5.776E3,6.2E1,5.6E1,3.163E3,2.613E3,5.2E1,1E1,9E0,4.7E1,7.23E2,2.44E3,2.22E2,2.391E3,4.53E2,2.7E2,1.268E3,1.172E3,2.12E2,1E1],"tree_param":{"num_deleted":"0","num_feature":"65","num_nodes":"21","size_leaf_vector":"1"}},{"base_weights":[2.3146734E-2,-3.5049102E-1,3.1385664E-2,-5.951288E-2,-5.550525E-1,2.8386803E-5,6.887056E-2,-2.6463273E-1,6.651261E-4,-1.2180247E-1,-4.625254E-2,1.2788302E-2,-9.032879E-2,-3.635995E-2,7.447602E-2,-0E0,-2.6060835E-2,-2.21515E-2,-0E0,-6.685004E-4,3.663408E-3,-3.4124717E-2,-3.1629154E-3,4.7192075E-3,-1.7071554E-2],"categories":[],"categories_nodes":[],"categories_segments":[],"categories_sizes":[],"default_left":[0,0,0,0,0,0,0,0,0,0,0,0,0,0,0,0,0,0,0,0,0,0,0,0,0],"id":22,"left_children":[1,3,5,7,9,11,13,15,-1,17,-1,19,21,-1,23,-1,-1,-1,-1,-1,-1,-1,-1,-1,-1],"loss_changes":[1.7373266E1,5.3065844E0,6.637803E0,1.5936904E0,2.9990807E0,3.481564E0,8.362977E0,1.465421E0,0E0,1.398121E0,0E0,3.3728552E0,4.798793E0,0E0,2.5594044E0,0E0,0E0,0E0,0E0,0E0,0E0,0E0,0E0,0E0,0E0],"parents":[2147483647,0,0,1,1,2,2,3,3,4,4,5,5,6,6,7,7,9,9,11,11,12,12,14,14],"right_children":[2,4,6,8,10,12,14,16,-1,18,-1,20,22,-1,24,-1,-1,-1,-1,-1,-1,-1,-1,-1,-1],"split_conditions":[1.615E2,1.62E1,2.52E2,6.3E0,2E0,2.766319E0,1.28E1,-2.2252093E-1,2.3670468E-2,1.51E2,-1.530183E0,2.3316667E2,2.08E1,-1.2769886E0,3.56E1,2.818019E-1,-4.811222E-1,-8.1860703E-1,2.539882E-2,-2.6267624E-2,3.409967E-1,-1.19291E0,-1.2834859E-1,8.6967945E-1,-7.991871E-2],"split_indices":[33,54,45,49,16,52,48,8,0,45,0,27,48,0,51,0,0,0,0,0,0,0,0,0,0],"split_type":[0,0,0,0,0,0,0,0,0,0,0,0,0,0,0,0,0,0,0,0,0,0,0,0,0],"sum_hessian":[5.933E3,1.18E2,5.815E3,5.6E1,6.2E1,3.21E3,2.605E3,2.3E1,3.3E1,2.6E1,3.6E1,2.843E3,3.67E2,1.5E1,2.59E3,8E0,1.5E1,1.1E1,1.5E1,1.856E3,9.87E2,1.9E1,3.48E2,2.576E3,1.4E1],"tree_param":{"num_deleted":"0","num_feature":"65","num_nodes":"25","size_leaf_vector":"1"}},{"base_weights":[2.6319375E-2,-2.8419048E-1,3.3299122E-2,-8.139578E-2,-3.8410783E-2,1.4138098E-3,7.109388E-2,1.5155011E-3,-3.5345036E-1,-2.3040311E-2,5.194217E-3,7.4426696E-2,-1.8548647E-2,-0E0,-3.235139E-2,-2.7767525E-3,1.3863884E-3,4.7355113E-3,-1.1320778E-2],"categories":[],"categories_nodes":[],"categories_segments":[],"categories_sizes":[],"default_left":[0,0,0,0,0,0,0,0,0,0,0,0,0,0,0,0,0,0,0],"id":23,"left_children":[1,3,5,7,-1,9,11,-1,13,-1,15,17,-1,-1,-1,-1,-1,-1,-1],"loss_changes":[1.2066452E1,6.3298254E0,6.7478533E0,3.4293852E0,0E0,3.4951997E0,2.6549091E0,0E0,2.4954631E0,0E0,2.7791255E0,2.2026234E0,0E0,0E0,0E0,0E0,0E0,0E0,0E0],"parents":[2147483647,0,0,1,1,2,2,3,3,5,5,6,6,8,8,10,10,11,11],"right_children":[2,4,6,8,-1,10,12,-1,14,-1,16,18,-1,-1,-1,-1,-1,-1,-1],"split_conditions":[1.602202E2,1.1E1,2.52E2,4.8790164E-2,-1.4373978E0,1.2E0,3.56E1,1.8181007E-3,7.3E1,-7.04546E-1,-5.9E0,8E0,-7.5072296E-2,9.829865E-2,-5.610469E-1,-2.2120595E-1,2.9332403E-2,8.183526E-1,-1.6042957E0],"split_indices":[30,17,45,52,0,49,51,0,53,0,55,56,0,0,0,0,0,0,0],"split_type":[0,0,0,0,0,0,0,0,0,0,0,0,0,0,0,0,0,0,0],"sum_hessian":[5.89E3,1.18E2,5.772E3,8.2E1,3.6E1,3.174E3,2.598E3,5.3E1,2.9E1,2.1E1,3.153E3,2.585E3,1.3E1,9E0,2E1,7.68E2,2.385E3,2.562E3,2.3E1],"tree_param":{"num_deleted":"0","num_feature":"65","num_nodes":"19","size_leaf_vector":"1"}},{"base_weights":[2.7026623E-2,-3.023836E-1,3.4496948E-2,-9.095192E-2,-4.034708E-2,8.645907E-3,7.342868E-2,3.230086E-4,-3.265095E-1,-2.607247E-1,1.3635155E-2,-6.4272314E-2,8.141473E-2,-0E0,-3.0727943E-2,-2.880496E-2,-0E0,1.5644319E-3,-4.17541E-3,-0E0,-2.9168328E-2,-5.862073E-3,5.2833306E-3],"categories":[],"categories_nodes":[],"categories_segments":[],"categories_sizes":[],"default_left":[0,0,0,0,0,0,0,0,0,0,0,0,0,0,0,0,0,0,0,0,0,0,0],"id":24,"left_children":[1,3,5,7,-1,9,11,-1,13,15,17,19,21,-1,-1,-1,-1,-1,-1,-1,-1,-1,-1],"loss_changes":[1.37885895E1,7.0533113E0,5.585429E0,2.8816545E0,0E0,4.0304093E0,2.5542183E0,0E0,2.4878688E0,3.9486365E0,3.3674545E0,2.4935849E0,2.1952457E0,0E0,0E0,0E0,0E0,0E0,0E0,0E0,0E0,0E0,0E0],"parents":[2147483647,0,0,1,1,2,2,3,3,5,5,6,6,8,8,9,9,10,10,11,11,12,12],"right_children":[2,4,6,8,-1,10,12,-1,14,16,18,20,22,-1,-1,-1,-1,-1,-1,-1,-1,-1,-1],"split_conditions":[1.615E2,1.1E1,2.58E2,4.8790164E-2,-1.350239E0,1.4E0,1.59E1,1.7079969E-3,7.3E1,2.4125E2,2.6532419E0,9.749279E-1,-1.3E1,1.01162456E-1,-4.1792816E-1,-7.9665786E-1,2.3679037E0,4.4885345E-2,-2.4212475E-1,-1.0937009E-1,-2.298395E0,-1.4229367E0,1.0145603E0],"split_indices":[33,17,45,52,0,49,48,0,53,44,52,7,55,0,0,0,0,0,0,0,0,0,0],"split_type":[0,0,0,0,0,0,0,0,0,0,0,0,0,0,0,0,0,0,0,0,0,0,0],"sum_hessian":[5.906E3,1.2E2,5.786E3,8.3E1,3.7E1,3.524E3,2.262E3,5.2E1,3.1E1,5.1E1,3.473E3,1.03E2,2.159E3,1E1,2.1E1,3.1E1,2E1,3.059E3,4.14E2,9.3E1,1E1,5E1,2.109E3],"tree_param":{"num_deleted":"0","num_feature":"65","num_nodes":"23","size_leaf_vector":"1"}},{"base_weights":[3.0198844E-2,-2.6233062E-1,3.6751576E-2,-3.7051193E-2,-7.720953E-2,-8.650692E-3,5.9234615E-2,1.5509069E-3,-2.291164E-1,-3.6176354E-2,4.105394E-2,6.361605E-2,-1.9924353E-1,-2.7860621E-2,-0E0,2.8736895E-4,-6.1142202E-3,-6.296026E-4,4.5685396E-3,-2.7695692E-3,4.255248E-3,-0E0,-3.5266906E-2],"categories":[],"categories_nodes":[],"categories_segments":[],"categories_sizes":[],"default_left":[0,0,0,0,0,0,0,0,0,0,0,0,0,0,0,0,0,0,0,0,0,0,0],"id":25,"left_children":[1,3,5,-1,7,9,11,-1,13,15,17,19,21,-1,-1,-1,-1,-1,-1,-1,-1,-1,-1],"loss_changes":[1.0661121E1,5.596957E0,6.0421495E0,0E0,1.9608119E0,2.550487E0,4.061289E0,0E0,2.9681492E0,3.5708923E0,1.3033534E0,2.842002E0,3.466495E0,0E0,0E0,0E0,0E0,0E0,0E0,0E0,0E0,0E0,0E0],"parents":[2147483647,0,0,1,1,2,2,4,4,5,5,6,6,8,8,9,9,10,10,11,11,12,12],"right_children":[2,4,6,-1,8,10,12,-1,14,16,18,20,22,-1,-1,-1,-1,-1,-1,-1,-1,-1,-1],"split_conditions":[1.615E2,1.92E1,2.33E2,-1.2683654E0,7.3E1,2.4802074E1,8E0,1.6043698E-3,-1.2011905E1,5E0,4.3E0,1.87E1,4.3388373E-1,-3.925867E-1,1.3880483E-3,5.9594843E-3,-4.936309E-1,-1.19055524E-1,1.1614472E-1,-1.01332605E-1,6.1415905E-1,-1.4207342E0,-1.0924805E0],"split_indices":[33,50,45,0,53,36,56,0,46,3,49,51,7,0,0,0,0,0,0,0,0,0,0],"split_type":[0,0,0,0,0,0,0,0,0,0,0,0,0,0,0,0,0,0,0,0,0,0,0],"sum_hessian":[5.888E3,1.17E2,5.771E3,3.3E1,8.4E1,1.869E3,3.902E3,4E1,4.4E1,1.241E3,6.28E2,3.85E3,5.2E1,2.3E1,2.1E1,7.34E2,5.07E2,2.18E2,4.1E2,1.92E2,3.658E3,3.8E1,1.4E1],"tree_param":{"num_deleted":"0","num_feature":"65","num_nodes":"23","size_leaf_vector":"1"}},{"base_weights":[2.7328212E-2,-9.175499E-2,4.2019576E-2,-5.805544E-2,-3.117423E-2,7.8647316E-2,1.6602524E-2,9.586964E-4,-1.6427258E-1,-0E0,5.120218E-3,-1.2290973E-2,6.4220935E-2,-6.529271E-3,-3.5853032E-2,3.5846585E-3,-1.1299712E-2,2.677445E-4,-5.3933244E-3,4.3534026E-3,-1.1320778E-2],"categories":[],"categories_nodes":[],"categories_segments":[],"categories_sizes":[],"default_left":[0,0,1,0,0,0,0,0,0,0,0,0,0,0,0,0,0,0,0,0,0],"id":26,"left_children":[1,3,5,7,-1,9,11,-1,13,15,-1,17,19,-1,-1,-1,-1,-1,-1,-1,-1],"loss_changes":[1.0197517E1,7.1899285E0,4.6355944E0,5.073002E0,0E0,1.2004442E0,4.5114236E0,0E0,4.048146E0,1.6487728E0,0E0,2.7257771E0,2.0478764E0,0E0,0E0,0E0,0E0,0E0,0E0,0E0,0E0],"parents":[2147483647,0,0,1,1,2,2,3,3,5,5,6,6,8,8,9,9,11,11,12,12],"right_children":[2,4,6,8,-1,10,12,-1,14,16,-1,18,20,-1,-1,-1,-1,-1,-1,-1,-1],"split_conditions":[2.0955035E2,5.2E1,1.81E1,8.1E1,-1.1914555E0,4.9E0,2.6E2,1.3289903E-2,3.2633333E0,3.34E1,5.219874E-1,1.7404661E0,8E0,-6.1240757E-1,-8.9053476E-1,1.0566015E0,-1.2064832E0,6.576621E-3,-5.4677016E-1,6.4649165E-1,-1.3345859E0],"split_indices":[29,17,54,53,0,54,45,0,62,51,0,52,56,0,0,0,0,0,0,0,0],"split_type":[0,0,0,0,0,0,0,0,0,0,0,0,0,0,0,0,0,0,0,0,0],"sum_hessian":[5.903E3,6.25E2,5.278E3,5.88E2,3.7E1,2.113E3,3.165E3,3.32E2,2.56E2,1.12E2,2.001E3,1.933E3,1.232E3,2.35E2,2.1E1,7.5E1,3.7E1,1.558E3,3.75E2,1.209E3,2.3E1],"tree_param":{"num_deleted":"0","num_feature":"65","num_nodes":"21","size_leaf_vector":"1"}},{"base_weights":[2.4970312E-2,-2.752917E-2,5.2283667E-2,-1.0214648E-1,4.8721273E-4,-2.291164E-1,5.6383144E-2,-2.079506E-1,1.07654196E-4,1.6766803E-2,-1.4952148E-1,-2.8862484E-2,-0E0,-1.0278837E-1,6.0487136E-2,-1.9645028E-2,-1.6453397E-3,-2.4362657E-2,1.440554E-3,-1.7675092E-2,-0E0,8.12375E-4,-1.5192323E-2,-7.839153E-4,4.152391E-3],"categories":[],"categories_nodes":[],"categories_segments":[],"categories_sizes":[],"default_left":[0,0,0,0,0,0,0,0,0,0,0,0,0,0,0,0,0,0,0,0,0,0,0,0,0],"id":27,"left_children":[1,3,5,7,9,11,13,15,-1,17,19,-1,-1,21,23,-1,-1,-1,-1,-1,-1,-1,-1,-1,-1],"loss_changes":[8.545622E0,4.4489727E0,4.057103E0,6.875351E0,3.0850048E0,3.5913596E0,2.4271994E0,5.1792145E0,0E0,2.7283566E0,2.349416E0,0E0,0E0,2.0835326E0,2.3941336E0,0E0,0E0,0E0,0E0,0E0,0E0,0E0,0E0,0E0,0E0],"parents":[2147483647,0,0,1,1,2,2,3,3,4,4,5,5,6,6,7,7,9,9,10,10,13,13,14,14],"right_children":[2,4,6,8,10,12,14,16,-1,18,20,-1,-1,22,24,-1,-1,-1,-1,-1,-1,-1,-1,-1,-1],"split_conditions":[2.33E2,1.8344685E1,-6.713333E0,2.71E1,3.4965076E0,2.4412895E1,-1.3E1,1.97E2,7.013335E-4,1.4E0,3.9871304E0,-9.23077E-2,6.682746E-2,2.5364285E2,-7.818315E-1,-8.060444E-1,-6.2663496E-2,-7.5691557E-1,5.4561526E-2,-5.4369557E-1,-1.7692572E-1,9.08745E-2,-2.22527E0,-3.55404E-2,5.5981493E-1],"split_indices":[45,37,62,51,52,38,55,28,0,49,52,0,0,33,7,0,0,0,0,0,0,0,0,0,0],"split_type":[0,0,0,0,0,0,0,0,0,0,0,0,0,0,0,0,0,0,0,0,0,0,0,0,0],"sum_hessian":[5.904E3,1.984E3,3.92E3,5.68E2,1.416E3,4.4E1,3.876E3,2.94E2,2.74E2,1.297E3,1.19E2,2.4E1,2E1,7.8E1,3.798E3,1.68E2,1.26E2,1.2E1,1.285E3,5.7E1,6.2E1,3.4E1,4.4E1,3.37E2,3.461E3],"tree_param":{"num_deleted":"0","num_feature":"65","num_nodes":"25","size_leaf_vector":"1"}},{"base_weights":[2.879241E-2,-3.941374E-4,7.365086E-2,-2.163969E-1,3.175121E-3,-1.00373775E-1,7.9885945E-2,-4.1475248E-1,-0E0,7.514985E-3,-2.5822368E-1,-2.546602E-1,-0E0,5.046464E-3,-1.363998E-1,-0E0,-3.4949124E-2,1.7954869E-3,-1.4832058E-3,-3.1136699E-2,-0E0,-0E0,-2.81654E-2,-0E0,-2.440317E-2],"categories":[],"categories_nodes":[],"categories_segments":[],"categories_sizes":[],"default_left":[0,0,0,0,0,0,0,0,0,0,0,0,0,0,0,0,0,0,0,0,0,0,0,0,0],"id":28,"left_children":[1,3,5,7,9,11,13,15,-1,17,19,21,-1,-1,23,-1,-1,-1,-1,-1,-1,-1,-1,-1,-1],"loss_changes":[7.9203596E0,3.3433146E0,2.5221272E0,2.825716E0,3.202934E0,1.7708735E0,1.5332718E0,2.3905067E0,0E0,2.4322572E0,3.9856088E0,2.6628523E0,0E0,0E0,1.3053465E0,0E0,0E0,0E0,0E0,0E0,0E0,0E0,0E0,0E0,0E0],"parents":[2147483647,0,0,1,1,2,2,3,3,4,4,5,5,6,6,7,7,9,9,10,10,11,11,14,14],"right_children":[2,4,6,8,10,12,14,16,-1,18,20,22,-1,-1,24,-1,-1,-1,-1,-1,-1,-1,-1,-1,-1],"split_conditions":[2.56E2,1.51E2,1.51E1,2.2E1,4.7004805E0,6.234898E-1,8E0,5.5E1,-4.3750253E-2,5E0,3.9E0,9E0,4.9125174E-1,7.2892976E-1,1.8E1,5.464018E-3,-1.0799724E0,9.7570956E-2,-5.2810043E-2,-2.0903375E0,7.341232E-1,1.0516949E-1,-1.3095479E0,6.810041E-1,-1.1187288E0],"split_indices":[45,20,48,48,52,8,56,53,0,3,49,5,0,0,5,0,0,0,0,0,0,0,0,0,0],"split_type":[0,0,0,0,0,0,0,0,0,0,0,0,0,0,0,0,0,0,0,0,0,0,0,0,0],"sum_hessian":[5.884E3,3.527E3,2.357E3,6.8E1,3.459E3,6.4E1,2.293E3,3.3E1,3.5E1,3.416E3,4.3E1,3.5E1,2.9E1,2.273E3,2E1,1E1,2.3E1,2.074E3,1.342E3,2.4E1,1.9E1,1.4E1,2.1E1,1.2E1,8E0],"tree_param":{"num_deleted":"0","num_feature":"65","num_nodes":"25","size_leaf_vector":"1"}},{"base_weights":[2.3604134E-2,-2.8733069E-3,7.140901E-2,-0E0,-3.0685332E-1,-4.5780963E-3,8.039954E-2,-4.714002E-2,1.8883852E-2,-3.1983916E-2,-0E0,3.94012E-3,-9.085825E-2,5.259406E-3,-0E0,-2.1902457E-2,-1.1363821E-3,2.1254625E-3,-3.458543E-3,1.9377479E-3,-1.3635588E-2,-8.694981E-3,3.7624442E-3],"categories":[],"categories_nodes":[],"categories_segments":[],"categories_sizes":[],"default_left":[0,0,0,0,0,0,1,0,0,0,0,0,0,0,0,0,0,0,0,0,0,0,0],"id":29,"left_children":[1,3,5,7,9,11,13,15,17,-1,-1,-1,19,-1,21,-1,-1,-1,-1,-1,-1,-1,-1],"loss_changes":[7.6585474E0,3.9860673E0,1.6832714E0,3.2450085E0,3.6793137E0,1.2592485E0,1.1223993E0,8.051702E0,3.243028E0,0E0,0E0,0E0,2.3358655E0,0E0,1.281589E0,0E0,0E0,0E0,0E0,0E0,0E0,0E0,0E0],"parents":[2147483647,0,0,1,1,2,2,3,3,4,4,5,5,6,6,7,7,8,8,12,12,14,14],"right_children":[2,4,6,8,10,12,14,16,18,-1,-1,-1,20,-1,22,-1,-1,-1,-1,-1,-1,-1,-1],"split_conditions":[2.6E2,4.7004805E0,2E0,1.94E1,3.9E0,2.03E1,3.85E1,2.0341667E2,3.02E1,-1.9635867E0,6.896088E-1,5.248815E-1,2.2166667E2,6.8473005E-1,2.592143E2,-8.826625E-1,-4.960778E-2,8.561561E-2,-9.978643E-2,7.212669E-1,-1.2301408E0,-6.7194915E-1,6.3971055E-1],"split_indices":[45,52,16,50,49,54,54,44,48,0,0,0,26,0,35,0,0,0,0,0,0,0,0],"split_type":[0,0,0,0,0,0,0,0,0,0,0,0,0,0,0,0,0,0,0,0,0,0,0],"sum_hessian":[5.89E3,3.753E3,2.137E3,3.713E3,4E1,1.92E2,1.945E3,1.026E3,2.687E3,2.5E1,1.5E1,8.8E1,1.04E2,1.82E3,1.25E2,7.4E1,9.52E2,2.248E3,4.39E2,4.4E1,6E1,4.4E1,8.1E1],"tree_param":{"num_deleted":"0","num_feature":"65","num_nodes":"23","size_leaf_vector":"1"}},{"base_weights":[2.7171215E-2,-7.449701E-2,3.842203E-2,-0E0,-2.5335443E-1,1.6188249E-2,7.043283E-2,2.1443565E-3,-1.1059042E-1,-4.4151377E-2,-4.903971E-1,-1.8407328E-1,2.166672E-2,7.43691E-2,-1.4773147E-1,-1.6658768E-2,7.1444374E-4,-2.3215905E-2,3.2182808E-3,-3.6054086E-2,-0E0,-0E0,-2.5951764E-2,2.1747511E-3,-1.9362412E-3,-3.6218E-5,4.946603E-3,-0E0,-2.699004E-2],"categories":[],"categories_nodes":[],"categories_segments":[],"categories_sizes":[],"default_left":[0,0,0,0,0,0,0,0,0,0,0,0,0,0,0,0,0,0,0,0,0,0,0,0,0,0,0,0,0],"id":30,"left_children":[1,3,5,7,9,11,13,-1,15,17,19,21,23,25,27,-1,-1,-1,-1,-1,-1,-1,-1,-1,-1,-1,-1,-1,-1],"loss_changes":[6.659023E0,6.927719E0,3.5496192E0,1.7855929E0,6.156355E0,3.0618112E0,1.6507254E0,0E0,3.0967274E0,4.065007E0,4.0008545E0,4.2874937E0,2.406128E0,1.377924E0,1.7505757E0,0E0,0E0,0E0,0E0,0E0,0E0,0E0,0E0,0E0,0E0,0E0,0E0,0E0,0E0],"parents":[2147483647,0,0,1,1,2,2,3,3,4,4,5,5,6,6,8,8,9,9,10,10,11,11,12,12,13,13,14,14],"right_children":[2,4,6,8,10,12,14,-1,16,18,20,22,24,26,28,-1,-1,-1,-1,-1,-1,-1,-1,-1,-1,-1,-1,-1,-1],"split_conditions":[2.0695415E2,1.9E1,2.6E2,5E0,-4.1E0,-6.4533334E0,8E0,4.8736203E-2,2.77E1,-7.3E0,1.4966667E0,1.34E1,1.7404661E0,2E0,1.8E1,-9.710107E-1,2.7281689E-2,-8.4791976E-1,2.5336736E-1,-1.5774206E0,1.0240866E-1,8.9024015E-2,-4.6234486E-1,1.1615952E-1,-9.373535E-2,-7.717999E-2,6.535309E-1,6.009207E-1,-1.0101478E0],"split_indices":[29,17,45,3,55,62,56,0,54,55,62,48,52,4,5,0,0,0,0,0,0,0,0,0,0,0,0,0,0],"split_type":[0,0,0,0,0,0,0,0,0,0,0,0,0,0,0,0,0,0,0,0,0,0,0,0,0,0,0,0,0],"sum_hessian":[5.904E3,5.61E2,5.343E3,4.07E2,1.54E2,3.209E3,2.134E3,2.94E2,1.13E2,9E1,6.4E1,6.9E1,3.14E3,2.111E3,2.3E1,5.7E1,5.6E1,2.5E1,6.5E1,5.4E1,1E1,3.5E1,3.4E1,2.526E3,6.14E2,1.5E2,1.961E3,1.4E1,9E0],"tree_param":{"num_deleted":"0","num_feature":"65","num_nodes":"29","size_leaf_vector":"1"}},{"base_weights":[2.2978477E-2,-1.0674485E-2,5.617313E-2,-3.4894595E-1,-5.10702E-3,5.933021E-2,-2.9168328E-2,-0E0,-3.4949124E-2,-9.0674614E-4,-2.5727326E-2,7.67878E-2,9.061965E-3,-3.4328483E-3,1.3345738E-3,-1.0668764E-2,4.918731E-3,-5.227135E-3,2.165887E-3],"categories":[],"categories_nodes":[],"categories_segments":[],"categories_sizes":[],"default_left":[0,0,0,0,0,0,0,0,0,0,0,0,0,0,0,0,0,0,0],"id":31,"left_children":[1,3,5,7,9,11,-1,-1,-1,13,-1,15,17,-1,-1,-1,-1,-1,-1],"loss_changes":[6.779186E0,4.45084E0,4.002928E0,3.817493E0,3.8270185E0,2.4062662E0,0E0,0E0,0E0,3.7520082E0,0E0,2.1749706E0,1.960676E0,0E0,0E0,0E0,0E0,0E0,0E0],"parents":[2147483647,0,0,1,1,2,2,3,3,4,4,5,5,9,9,11,11,12,12],"right_children":[2,4,6,8,10,12,-1,-1,-1,14,-1,16,18,-1,-1,-1,-1,-1,-1],"split_conditions":[2.485E2,1.4E0,3.57E1,1.7441667E2,4.7004805E0,1.1939225E0,-8.805159E-2,1.999365E-1,-7.2118735E-1,1.94E1,-1.0823889E0,1.43E1,8E0,-1.8724865E-1,4.760926E-2,-1.1951768E0,7.8971726E-1,-1.5515663E-1,3.506057E-1],"split_indices":[44,49,51,25,52,52,0,0,0,50,0,51,5,0,0,0,0,0,0],"split_type":[0,0,0,0,0,0,0,0,0,0,0,0,0,0,0,0,0,0,0],"sum_hessian":[5.946E3,2.91E3,3.036E3,3.6E1,2.874E3,3.026E3,1E1,1.3E1,2.3E1,2.855E3,1.9E1,2.202E3,8.24E2,8.68E2,1.987E3,2.4E1,2.178E3,1.55E2,6.69E2],"tree_param":{"num_deleted":"0","num_feature":"65","num_nodes":"19","size_leaf_vector":"1"}},{"base_weights":[2.4311358E-2,-1.8295666E-2,4.6525277E-2,-9.700197E-2,3.620575E-3,6.586002E-2,-4.3240036E-3,-2.4377696E-1,-0E0,2.159505E-2,-7.941311E-2,-2.5108607E-2,7.4666806E-2,-1.993605E-1,5.6224004E-3,-0E0,-2.367945E-2,2.3719792E-3,-2.5215899E-3,-0E0,-8.147686E-3,-0E0,-2.9168328E-2,-4.4628703E-3,4.7976077E-3,-2.5951764E-2,-0E0,8.516649E-4,-2.699004E-2],"categories":[],"categories_nodes":[],"categories_segments":[],"categories_sizes":[],"default_left":[0,0,0,0,0,0,0,0,0,0,0,0,0,0,0,0,0,0,0,0,0,0,0,0,0,0,0,0,0],"id":32,"left_children":[1,3,5,7,9,11,13,15,-1,17,19,21,23,25,27,-1,-1,-1,-1,-1,-1,-1,-1,-1,-1,-1,-1,-1,-1],"loss_changes":[5.651193E0,3.675301E0,4.0255356E0,5.9451294E0,2.0999835E0,2.452961E0,2.581447E0,5.395295E0,0E0,1.4116533E0,1.4309012E0,2.7871723E0,1.7825775E0,4.1456456E0,2.4706726E0,0E0,0E0,0E0,0E0,0E0,0E0,0E0,0E0,0E0,0E0,0E0,0E0,0E0,0E0],"parents":[2147483647,0,0,1,1,2,2,3,3,4,4,5,5,6,6,7,7,9,9,10,10,11,11,12,12,13,13,14,14],"right_children":[2,4,6,8,10,12,14,16,-1,18,20,22,24,26,28,-1,-1,-1,-1,-1,-1,-1,-1,-1,-1,-1,-1,-1,-1],"split_conditions":[2.33E2,1.753317E1,1.1631508E0,1.96E1,9.773809E0,1.48E1,1.2809339E0,1.57E1,-3.286543E-2,2.28E2,2.52E1,4.7000363E-1,2.1333333E2,2.6010715E2,3.08E1,-7.1515757E-1,-5.765674E-1,8.6179465E-2,-8.795989E-2,2.5352374E-2,-5.2231026E-1,1.9217305E-2,-1.1227055E0,-3.1535932E-1,6.820929E-1,-3.0022487E-1,9.1063625E-1,5.384261E-2,-8.271202E-2],"split_indices":[45,37,52,50,46,50,52,50,0,45,50,52,44,34,48,0,0,0,0,0,0,0,0,0,0,0,0,0,0],"split_type":[0,0,0,0,0,0,0,0,0,0,0,0,0,0,0,0,0,0,0,0,0,0,0,0,0,0,0,0,0],"sum_hessian":[5.879E3,1.97E3,3.909E3,4.56E2,1.514E3,2.873E3,1.036E3,1.7E2,2.86E2,1.275E3,2.39E2,2.24E2,2.649E3,6.2E1,9.74E2,7E1,1E2,1.035E3,2.4E2,7.8E1,1.61E2,2.14E2,1E1,5.7E1,2.592E3,3.4E1,2.8E1,9.65E2,9E0],"tree_param":{"num_deleted":"0","num_feature":"65","num_nodes":"29","size_leaf_vector":"1"}},{"base_weights":[2.7260527E-2,4.688845E-2,-2.0282684E-2,1.8624807E-2,7.2341725E-2,-1.6615108E-1,-2.4178096E-3,5.0783582E-2,-2.4438519E-2,8.392088E-2,-0E0,2.3370613E-3,-2.769883E-1,2.5322473E-2,-6.1399415E-2,-1.0216432E-3,3.8791886E-3,-1.1321466E-4,-1.9498438E-2,-0E0,5.623616E-3,3.4676215E-3,-1.2453562E-2,-2.968883E-2,-0E0,4.7022835E-3,-3.3224365E-4,-0E0,-1.5070004E-2],"categories":[],"categories_nodes":[],"categories_segments":[],"categories_sizes":[],"default_left":[0,0,0,0,0,0,0,0,0,0,0,0,0,0,0,0,0,0,0,0,0,0,0,0,0,0,0,0,0],"id":33,"left_children":[1,3,5,7,9,11,13,15,17,19,21,-1,23,25,27,-1,-1,-1,-1,-1,-1,-1,-1,-1,-1,-1,-1,-1,-1],"loss_changes":[5.611467E0,2.7818308E0,3.9143276E0,2.9419835E0,1.8308496E0,4.5032E0,2.6069553E0,1.2307088E0,4.735746E0,1.2131672E0,3.5891335E0,0E0,5.7547846E0,1.830138E0,5.359051E0,0E0,0E0,0E0,0E0,0E0,0E0,0E0,0E0,0E0,0E0,0E0,0E0,0E0,0E0],"parents":[2147483647,0,0,1,1,2,2,3,3,4,4,5,5,6,6,7,7,8,8,9,9,10,10,12,12,13,13,14,14],"right_children":[2,4,6,8,10,12,14,16,18,20,22,-1,24,26,28,-1,-1,-1,-1,-1,-1,-1,-1,-1,-1,-1,-1,-1,-1],"split_conditions":[5E0,2.3316667E2,2.0871428E2,2.5E1,2.3513753E0,4.8790164E-2,3.2E1,1.756093E1,2.4508333E2,2E0,5.966667E-1,5.6654423E-2,2.77E1,1.84E1,3.4E0,-1.5060166E-2,2.865521E-1,-1.0016762E-2,-1.3171432E0,6.0996585E-2,7.127214E-1,5.706255E-1,-7.365649E-1,-1.5230651E0,-4.6517748E-1,2.413471E-1,-3.6955096E-2,-6.571067E-3,-7.302173E-1],"split_indices":[3,27,32,17,52,52,16,38,28,16,62,0,54,54,55,0,0,0,0,0,0,0,0,0,0,0,0,0,0],"split_type":[0,0,0,0,0,0,0,0,0,0,0,0,0,0,0,0,0,0,0,0,0,0,0,0,0,0,0,0,0],"sum_hessian":[5.925E3,4.237E3,1.688E3,2.064E3,2.173E3,1.64E2,1.524E3,1.22E3,8.44E2,1.874E3,2.99E2,4.9E1,1.15E2,1.004E3,5.2E2,1.63E2,1.057E3,7.96E2,4.8E1,1.99E2,1.675E3,2.35E2,6.4E1,5.9E1,5.6E1,4.06E2,5.98E2,4.04E2,1.16E2],"tree_param":{"num_deleted":"0","num_feature":"65","num_nodes":"29","size_leaf_vector":"1"}},{"base_weights":[2.5885733E-2,-2.3240007E-2,5.1313598E-2,-3.88651E-2,3.5149904E-3,7.101573E-2,-0E0,2.3856002E-3,-5.5484477E-2,-2.778164E-2,7.7214085E-2,1.4134114E-2,-1.7073166E-1,-1.0831748E-2,-2.4228632E-3,7.1386877E-4,-2.5877118E-2,-3.9589084E-3,4.946323E-3,2.0124093E-3,-1.1405358E-2,-0E0,-2.5020381E-2],"categories":[],"categories_nodes":[],"categories_segments":[],"categories_sizes":[],"default_left":[0,0,0,1,0,0,0,0,0,0,0,0,0,0,0,0,0,0,0,0,0,0,0],"id":34,"left_children":[1,3,5,7,-1,9,11,-1,13,15,17,19,21,-1,-1,-1,-1,-1,-1,-1,-1,-1,-1],"loss_changes":[7.4532266E0,2.456049E0,4.1331425E0,2.2463264E0,0E0,1.9068279E0,2.9237144E0,0E0,2.0674648E0,3.4876707E0,1.7565346E0,3.2985E0,4.3633614E0,0E0,0E0,0E0,0E0,0E0,0E0,0E0,0E0,0E0,0E0],"parents":[2147483647,0,0,1,1,2,2,3,3,5,5,6,6,8,8,9,9,10,10,11,11,12,12],"right_children":[2,4,6,8,-1,10,12,-1,14,16,18,20,22,-1,-1,-1,-1,-1,-1,-1,-1,-1,-1],"split_conditions":[2.33E2,2.7649395E1,1.1631508E0,1.13E1,2.99165E-1,1.86E1,2.79E1,8.145091E-2,1.38E1,7.818315E-1,2.1333333E2,3.3E0,1.8E1,-4.0925345E-1,-9.253254E-2,6.2023602E-2,-2.18016E0,-2.3851909E-1,5.884179E-1,1.200002E-1,-2.2965989E-1,2.4789086E-1,-1.2372763E0],"split_indices":[45,37,52,54,0,51,50,0,54,7,44,55,17,0,0,0,0,0,0,0,0,0,0],"split_type":[0,0,0,0,0,0,0,0,0,0,0,0,0,0,0,0,0,0,0,0,0,0,0],"sum_hessian":[5.896E3,1.972E3,3.924E3,1.685E3,2.87E2,2.867E3,1.057E3,2.64E2,1.421E3,1.41E2,2.726E3,9.66E2,9.1E1,1.35E2,1.286E3,1.24E2,1.7E1,6E1,2.666E3,8.98E2,6.8E1,5.2E1,3.9E1],"tree_param":{"num_deleted":"0","num_feature":"65","num_nodes":"23","size_leaf_vector":"1"}},{"base_weights":[2.5231395E-2,-1.4801355E-2,5.4832183E-2,-5.6037935E-3,-2.0768932E-1,-7.4803354E-3,6.205416E-2,-5.4464786E-4,-2.5727326E-2,-3.166921E-2,-4.037824E-2,4.86534E-3,-1.1252557E-1,-0E0,7.189799E-2,-1.21798925E-2,2.4697918E-4,1.8209807E-4,-1.9194756E-2,-1.4962576E-2,-0E0,1.8274036E-3,-1.1286343E-2,-2.6040082E-4,4.6705576E-3],"categories":[],"categories_nodes":[],"categories_segments":[],"categories_sizes":[],"default_left":[0,0,0,0,0,0,0,0,0,0,0,0,0,0,0,0,0,0,0,0,0,0,0,0,0],"id":35,"left_children":[1,3,5,7,9,11,13,15,-1,17,-1,-1,19,21,23,-1,-1,-1,-1,-1,-1,-1,-1,-1,-1],"loss_changes":[7.1582947E0,3.7862823E0,1.7159977E0,3.825359E0,5.872385E0,3.0634444E0,1.9184752E0,2.7675653E0,0E0,1.6915902E0,0E0,0E0,3.108091E0,2.4419174E0,1.2713938E0,0E0,0E0,0E0,0E0,0E0,0E0,0E0,0E0,0E0,0E0],"parents":[2147483647,0,0,1,1,2,2,3,3,4,4,5,5,6,6,7,7,9,9,12,12,13,13,14,14],"right_children":[2,4,6,8,10,12,14,16,-1,18,-1,-1,20,22,24,-1,-1,-1,-1,-1,-1,-1,-1,-1,-1],"split_conditions":[2.4125E2,2.3983333E2,2E0,4.7004805E0,1.8718022E0,1.5E1,2.0483333E2,-5.2E0,-1.0268993E0,2.8E1,-9.6192515E-1,3.085619E-1,2.4E1,3.0922394E1,-1.1452381E1,-8.057761E-1,3.1726551E-3,1.17737055E-2,-9.428865E-2,-9.037106E-1,6.7130756E-1,3.4000796E-1,-4.4764438E-1,-3.174043E-2,5.287481E-1],"split_indices":[44,44,16,52,52,17,26,62,0,16,0,0,5,38,47,0,0,0,0,0,0,0,0,0,0],"split_type":[0,0,0,0,0,0,0,0,0,0,0,0,0,0,0,0,0,0,0,0,0,0,0,0,0],"sum_hessian":[5.938E3,2.483E3,3.455E3,2.387E3,9.6E1,3.17E2,3.138E3,2.368E3,1.9E1,7.6E1,2E1,1.58E2,1.59E2,4.3E2,2.708E3,6.5E1,2.303E3,6.1E1,1.5E1,8.2E1,7.7E1,3.72E2,5.8E1,1.35E2,2.573E3],"tree_param":{"num_deleted":"0","num_feature":"65","num_nodes":"25","size_leaf_vector":"1"}},{"base_weights":[2.3447424E-2,-4.9169984E-2,3.5967477E-2,-3.090076E-1,-2.7110392E-2,3.9191954E-2,-2.505468E-1,-0E0,-3.3410914E-2,-1.2608068E-1,-0E0,-0E0,5.609347E-2,-0E0,-2.7374359E-2,-1.5303622E-2,-0E0,-4.4119023E-3,2.2174995E-3,1.4052817E-3,-3.227147E-3,-1.0078735E-2,3.6165984E-3],"categories":[],"categories_nodes":[],"categories_segments":[],"categories_sizes":[],"default_left":[0,0,1,0,0,0,0,0,0,0,0,0,0,0,0,0,0,0,0,0,0,0,0],"id":36,"left_children":[1,3,5,7,9,11,13,-1,-1,15,17,19,21,-1,-1,-1,-1,-1,-1,-1,-1,-1,-1],"loss_changes":[5.32467E0,3.7784705E0,4.088541E0,2.8753653E0,2.1225135E0,3.2682853E0,3.1162472E0,0E0,0E0,3.332697E0,1.635366E0,1.8636575E0,2.4698591E0,0E0,0E0,0E0,0E0,0E0,0E0,0E0,0E0,0E0,0E0],"parents":[2147483647,0,0,1,1,2,2,3,3,4,4,5,5,6,6,9,9,10,10,11,11,12,12],"right_children":[2,4,6,8,10,12,14,-1,-1,16,18,20,22,-1,-1,-1,-1,-1,-1,-1,-1,-1,-1],"split_conditions":[-7.818315E-1,1.8641072E2,5.64E1,7.9E1,2.0854593E1,2.4075E2,2.2175E2,-7.2056746E-1,-7.025752E-1,8E1,1.1E1,8.1E1,1.51E1,3.5932258E-1,-1.9373006E0,-6.3545597E-1,1.8616167E-1,-3.4461752E-1,1.6037314E-1,3.4896713E-2,-2.6872775E-1,-1.0072888E0,4.1000715E-1],"split_indices":[7,35,54,53,38,34,25,0,0,53,5,53,51,0,0,0,0,0,0,0,0,0,0],"split_type":[0,0,0,0,0,0,0,0,0,0,0,0,0,0,0,0,0,0,0,0,0,0,0],"sum_hessian":[5.891E3,8.31E2,5.06E3,5.2E1,7.79E2,5.016E3,4.4E1,2.8E1,2.4E1,1.67E2,6.12E2,1.53E3,3.486E3,1.7E1,2.7E1,9.2E1,7.5E1,2.02E2,4.1E2,1.08E3,4.5E2,4E1,3.446E3],"tree_param":{"num_deleted":"0","num_feature":"65","num_nodes":"23","size_leaf_vector":"1"}},{"base_weights":[2.486369E-2,4.4319104E-2,-2.24678E-2,-1.3440531E-3,5.868565E-2,-9.952379E-2,-0E0,-8.5887074E-2,2.9327096E-2,6.1181962E-2,-1.4773147E-1,-1.3763058E-1,6.688857E-5,2.576252E-3,-2.966904E-2,-0E0,-1.897907E-2,-1.9194756E-2,2.5914314E-3,-0E0,4.065786E-3,-0E0,-2.699004E-2,8.12375E-4,-1.0276806E-2,-8.038503E-4,-2.0351227E-2],"categories":[],"categories_nodes":[],"categories_segments":[],"categories_sizes":[],"default_left":[0,0,0,0,0,0,1,0,0,0,0,0,0,0,0,0,0,0,0,0,0,0,0,0,0,0,0],"id":37,"left_children":[1,3,5,7,9,11,13,15,17,19,21,23,-1,-1,25,-1,-1,-1,-1,-1,-1,-1,-1,-1,-1,-1,-1],"loss_changes":[5.473155E0,2.926014E0,2.7993488E0,2.662258E0,1.4457722E0,1.807365E0,1.6351392E0,4.6489573E0,2.4012554E0,1.3256588E0,1.7505757E0,1.8438425E0,0E0,0E0,2.8983784E0,0E0,0E0,0E0,0E0,0E0,0E0,0E0,0E0,0E0,0E0,0E0,0E0],"parents":[2147483647,0,0,1,1,2,2,3,3,4,4,5,5,6,6,7,7,8,8,9,9,10,10,11,11,14,14],"right_children":[2,4,6,8,10,12,14,16,18,20,22,24,-1,-1,26,-1,-1,-1,-1,-1,-1,-1,-1,-1,-1,-1,-1],"split_conditions":[5E0,8E0,2.25E2,3.8E0,4.8243055E0,2.75E1,1.82E1,2.3190475E1,1.47E2,2E0,1.1E1,1.6E2,8.941632E-2,1.5064885E-1,7.3E0,-1.6595513E-1,-7.5811374E-1,-5.3207654E-1,1.3024448E-1,-7.985925E-2,2.8034002E-1,9.447462E-1,-1.8198291E0,9.352255E-2,-5.4937744E-1,-2.5791124E-2,-1.9904068E0],"split_indices":[3,5,23,49,52,50,54,46,45,2,5,28,0,0,49,0,0,0,0,0,0,0,0,0,0,0,0],"split_type":[0,0,0,0,0,0,0,0,0,0,0,0,0,0,0,0,0,0,0,0,0,0,0,0,0,0,0],"sum_hessian":[5.869E3,4.203E3,1.666E3,9.58E2,3.245E3,3.65E2,1.301E3,2.79E2,6.79E2,3.222E3,2.3E1,2.85E2,8E1,5.22E2,7.79E2,2.13E2,6.6E1,1.5E1,6.64E2,2.45E2,2.977E3,1.4E1,9E0,3.4E1,2.51E2,7.51E2,2.8E1],"tree_param":{"num_deleted":"0","num_feature":"65","num_nodes":"27","size_leaf_vector":"1"}},{"base_weights":[2.3512313E-2,-1.3721395E-2,4.3062683E-2,-7.443881E-2,2.750734E-3,2.93227E-2,5.811887E-3,-2.0876114E-1,-2.6389307E-4,-5.3725246E-2,1.6779202E-3,3.227512E-2,-2.9168328E-2,-0E0,-2.6097627E-2,4.1883364E-3,-6.0682218E-3,2.1798653E-3,-1.08727E-2],"categories":[],"categories_nodes":[],"categories_segments":[],"categories_sizes":[],"default_left":[0,0,0,0,0,0,0,0,0,0,0,1,0,0,0,0,0,0,0],"id":38,"left_children":[1,3,5,7,9,11,-1,13,-1,15,-1,17,-1,-1,-1,-1,-1,-1,-1],"loss_changes":[4.380752E0,2.1910229E0,2.4712162E0,3.7144535E0,2.072632E0,3.4939144E0,0E0,6.0875053E0,0E0,2.565467E0,0E0,2.047358E0,0E0,0E0,0E0,0E0,0E0,0E0,0E0],"parents":[2147483647,0,0,1,1,2,2,3,3,4,4,5,5,7,7,9,9,11,11],"right_children":[2,4,6,8,10,12,-1,14,-1,16,-1,18,-1,-1,-1,-1,-1,-1,-1],"split_conditions":[2.33E2,1.753317E1,1E0,1.82E1,-5.9E0,3.57E1,1.3760784E0,1.57E1,-1.6374009E-2,-9.4E0,5.397132E-2,5.64E1,-4.625285E-3,-6.3293684E-1,-5.1310366E-1,3.9239016E-1,-3.036006E-1,1.57264E-1,-1.709481E0],"split_indices":[45,37,13,50,55,51,0,50,0,55,0,54,0,0,0,0,0,0,0],"split_type":[0,0,0,0,0,0,0,0,0,0,0,0,0,0,0,0,0,0,0],"sum_hessian":[5.896E3,1.979E3,3.917E3,4.58E2,1.521E3,3.155E3,7.62E2,1.41E2,3.17E2,4.29E2,1.092E3,3.145E3,1E1,7.7E1,6.4E1,1E2,3.29E2,3.107E3,3.8E1],"tree_param":{"num_deleted":"0","num_feature":"65","num_nodes":"19","size_leaf_vector":"1"}},{"base_weights":[2.0744102E-2,-7.588816E-3,4.9179085E-2,-5.2796457E-2,1.765847E-2,5.238073E-2,-2.9168328E-2,-1.7500108E-1,-2.1905301E-2,3.3102601E-3,-8.442071E-3,-1.1316671E-2,6.0574073E-2,-2.2560844E-2,-2.521184E-3,-1.7414948E-2,-3.587318E-4,-6.1825784E-3,1.8140278E-3,-8.1840325E-3,2.3475364E-3,1.7710475E-3,4.9821897E-3],"categories":[],"categories_nodes":[],"categories_segments":[],"categories_sizes":[],"default_left":[0,0,0,0,0,0,0,0,0,0,0,0,0,0,0,0,0,0,0,0,0,0,0],"id":39,"left_children":[1,3,5,7,9,11,-1,13,15,-1,17,19,21,-1,-1,-1,-1,-1,-1,-1,-1,-1,-1],"loss_changes":[4.84037E0,3.3971603E0,3.8698692E0,3.4777017E0,1.881871E0,1.6923466E0,0E0,3.9527187E0,2.8785157E0,0E0,3.8682876E0,2.1477535E0,1.4762468E0,0E0,0E0,0E0,0E0,0E0,0E0,0E0,0E0,0E0,0E0],"parents":[2147483647,0,0,1,1,2,2,3,3,4,4,5,5,7,7,8,8,10,10,11,11,12,12],"right_children":[2,4,6,8,10,12,-1,14,16,-1,18,20,22,-1,-1,-1,-1,-1,-1,-1,-1,-1,-1],"split_conditions":[2.485E2,4.3E0,3.57E1,1.7442684E1,5.6E0,1.98E2,-4.344937E-3,-8.309524E0,1.4E0,1.2453851E-1,1E1,-1.4E1,-3.6E0,-4.638767E-1,-5.2320033E-1,-5.165466E-1,-1.3793499E-2,-3.8498667E-1,8.4579155E-2,-9.415356E-2,5.4137355E-1,2.8235984E-1,6.253952E-1],"split_indices":[44,49,51,37,49,25,0,46,49,0,16,15,55,0,0,0,0,0,0,0,0,0,0],"split_type":[0,0,0,0,0,0,0,0,0,0,0,0,0,0,0,0,0,0,0,0,0,0,0],"sum_hessian":[5.854E3,2.882E3,2.972E3,1.073E3,1.809E3,2.962E3,1E1,1.95E2,8.78E2,7.94E2,1.015E3,2.97E2,2.665E3,6.8E1,1.27E2,3.7E1,8.41E2,3.16E2,6.99E2,1.01E2,1.96E2,1.144E3,1.521E3],"tree_param":{"num_deleted":"0","num_feature":"65","num_nodes":"23","size_leaf_vector":"1"}},{"base_weights":[1.973559E-2,3.880168E-2,-2.6122926E-2,-7.470245E-2,4.5045067E-2,-5.8476057E-2,2.4599817E-2,-2.4586947E-1,2.6178062E-3,5.1040865E-2,-4.4026826E-2,-1.421264E-1,-1.2441089E-2,3.2228222E-3,-5.9786208E-2,3.443827E-4,-2.5805693E-2,3.4161792E-3,-3.1868026E-3,-1.5129271E-2,-0E0,-1.0917025E-2,-0E0,-1.27973035E-2,2.515709E-4,2.8899456E-3,-1.1052364E-2],"categories":[],"categories_nodes":[],"categories_segments":[],"categories_sizes":[],"default_left":[0,0,0,0,0,0,0,0,0,1,0,0,0,0,0,0,0,0,0,0,0,0,0,0,0,0,0],"id":40,"left_children":[1,3,5,7,9,11,13,15,-1,17,19,21,23,-1,25,-1,-1,-1,-1,-1,-1,-1,-1,-1,-1,-1,-1],"loss_changes":[5.2049007E0,2.9122477E0,2.8784552E0,4.585782E0,2.175786E0,3.6609337E0,1.4965117E0,5.3263197E0,0E0,2.105856E0,2.6562095E0,2.4439998E0,2.9588983E0,0E0,2.1737776E0,0E0,0E0,0E0,0E0,0E0,0E0,0E0,0E0,0E0,0E0,0E0,0E0],"parents":[2147483647,0,0,1,1,2,2,3,3,4,4,5,5,6,6,7,7,9,9,10,10,11,11,12,12,14,14],"right_children":[2,4,6,8,10,12,14,16,-1,18,20,22,24,-1,26,-1,-1,-1,-1,-1,-1,-1,-1,-1,-1,-1,-1],"split_conditions":[5E0,1.86E1,2.6E1,1.8571428E0,1E0,2.0617393E1,3.38E1,2.5E1,1.4604817E-1,4.25E1,-4.4E0,2.6010715E2,-5.8E0,1.3102141E-1,-1.4E1,2.1344762E-1,-1.2320099E0,2.6999396E-1,-2.277679E-1,-6.771532E-1,2.1975616E-2,-6.3690484E-1,2.6523823E-1,-6.800677E-1,1.5143437E-2,3.613468E-1,-3.7236422E-1],"split_indices":[3,51,50,47,11,37,51,17,0,54,55,34,55,0,15,0,0,0,0,0,0,0,0,0,0,0,0],"split_type":[0,0,0,0,0,0,0,0,0,0,0,0,0,0,0,0,0,0,0,0,0,0,0,0,0,0,0],"sum_hessian":[5.905E3,4.216E3,1.689E3,1.94E2,4.022E3,1.066E3,6.23E2,8.8E1,1.06E2,3.8E3,2.22E2,3.54E2,7.12E2,4.92E2,1.31E2,3.1E1,5.7E1,3.643E3,1.57E2,4.7E1,1.75E2,2.95E2,5.9E1,6.6E1,6.46E2,5.8E1,7.3E1],"tree_param":{"num_deleted":"0","num_feature":"65","num_nodes":"27","size_leaf_vector":"1"}},{"base_weights":[1.8028997E-2,-4.711107E-2,3.245838E-2,-1.1538258E-1,-1.1509922E-2,1.9980052E-2,5.811227E-3,-2.0589082E-1,1.7778439E-3,3.3360783E-3,-5.8583207E-2,3.616204E-2,-3.5742093E-2,6.651261E-4,-1.5872562E-2,2.108637E-3,-8.264582E-3,3.3812462E-3,-1.6341994E-4,-5.668872E-3,1.6592751E-3],"categories":[],"categories_nodes":[],"categories_segments":[],"categories_sizes":[],"default_left":[0,0,0,0,0,0,0,0,0,0,0,0,0,0,0,0,0,0,0,0,0],"id":41,"left_children":[1,3,5,7,9,11,-1,13,-1,-1,15,17,19,-1,-1,-1,-1,-1,-1,-1,-1],"loss_changes":[5.5133057E0,2.1445806E0,3.5123835E0,4.8079033E0,2.247643E0,3.7139328E0,0E0,3.3260918E0,0E0,0E0,3.5267878E0,2.6145177E0,3.4303377E0,0E0,0E0,0E0,0E0,0E0,0E0,0E0,0E0],"parents":[2147483647,0,0,1,1,2,2,3,3,4,4,5,5,7,7,10,10,11,11,12,12],"right_children":[2,4,6,8,10,12,-1,14,-1,-1,16,18,20,-1,-1,-1,-1,-1,-1,-1,-1],"split_conditions":[2.2171428E2,1.7391667E2,1E0,-2.607143E0,2.02E2,1.7404661E0,1.3572366E0,1.6E2,1.4452967E-1,9.6186966E-2,5.2E-1,4.1E0,-4.9E0,1.4477336E-1,-5.384354E-1,5.955043E-2,-1.1607995E-1,2.9749447E-1,-6.8958295E-3,-3.0808342E-1,2.8349418E-2],"split_indices":[34,26,13,47,45,52,0,28,0,0,62,55,55,0,0,0,0,0,0,0,0],"split_type":[0,0,0,0,0,0,0,0,0,0,0,0,0,0,0,0,0,0,0,0,0],"sum_hessian":[5.904E3,1.033E3,4.871E3,3.24E2,7.09E2,4.111E3,7.6E2,2.11E2,1.13E2,2.68E2,4.41E2,3.227E3,8.84E2,3.3E1,1.78E2,1.84E2,2.57E2,2.194E3,1.033E3,4.85E2,3.99E2],"tree_param":{"num_deleted":"0","num_feature":"65","num_nodes":"21","size_leaf_vector":"1"}},{"base_weights":[2.2703975E-2,-2.0771319E-2,4.1087955E-2,4.8551196E-4,-7.898345E-2,4.38898E-2,-1.6621518E-1,3.0833254E-2,-1.1459506E-1,1.253426E-2,-1.6860172E-1,3.3731904E-2,5.7626856E-3,-0E0,-2.5727326E-2,-9.221244E-4,3.7995388E-3,-0E0,-1.7009832E-2,-1.3622065E-2,3.1348942E-3,-2.6827285E-3,-2.5816483E-2,-2.2568589E-4,2.7798866E-3],"categories":[],"categories_nodes":[],"categories_segments":[],"categories_sizes":[],"default_left":[0,0,0,0,0,0,0,0,0,0,0,0,0,0,0,0,0,0,0,0,0,0,0,0,0],"id":42,"left_children":[1,3,5,7,9,11,13,15,17,19,21,23,-1,-1,-1,-1,-1,-1,-1,-1,-1,-1,-1,-1,-1],"loss_changes":[4.778267E0,2.3427467E0,2.100573E0,4.018369E0,4.5084505E0,1.775939E0,2.7210345E0,1.5849189E0,3.8167362E0,1.6705697E0,7.0784826E0,1.7193336E0,0E0,0E0,0E0,0E0,0E0,0E0,0E0,0E0,0E0,0E0,0E0,0E0,0E0],"parents":[2147483647,0,0,1,1,2,2,3,3,4,4,5,5,6,6,7,7,8,8,9,9,10,10,11,11],"right_children":[2,4,6,8,10,12,14,16,18,20,22,24,-1,-1,-1,-1,-1,-1,-1,-1,-1,-1,-1,-1,-1],"split_conditions":[2.3998634E2,5E0,4.683057E0,5.3E1,-1.1857142E1,1E0,2.4E2,4.3E0,5.9E0,1.56E2,4.7000363E-1,8E0,1.4679428E0,8.0547154E-1,-1.5904523E0,-4.546547E-2,1.3555907E-1,-7.328584E-2,-2.6503575E-1,-6.7469853E-1,1.4647748E-1,-7.515205E-2,-1.4375209E0,-2.7072583E-3,1.7085676E-1],"split_indices":[31,3,52,17,47,13,25,49,49,26,52,5,0,0,0,0,0,0,0,0,0,0,0,0,0],"split_type":[0,0,0,0,0,0,0,0,0,0,0,0,0,0,0,0,0,0,0,0,0,0,0,0,0],"sum_hessian":[5.899E3,1.706E3,4.193E3,1.215E3,4.91E2,4.153E3,4E1,9.83E2,2.32E2,2.28E2,2.63E2,3.516E3,6.37E2,2.1E1,1.9E1,3.65E2,6.18E2,1.47E2,8.5E1,2E1,2.08E2,1.87E2,7.6E1,8.01E2,2.715E3],"tree_param":{"num_deleted":"0","num_feature":"65","num_nodes":"25","size_leaf_vector":"1"}},{"base_weights":[2.0324325E-2,-5.3273693E-2,2.9614447E-2,5.444641E-5,-1.8803373E-1,4.408421E-2,-4.618717E-3,-3.9118595E-2,-9.0716384E-2,-1.6182883E-3,5.8496892E-2,-0E0,-2.9168328E-2,-1.4318717E-2,-4.8601683E-4,-5.3923586E-3,1.7835413E-3,-3.5463297E-3,3.7839373E-3,5.1507045E-4,-8.257515E-3],"categories":[],"categories_nodes":[],"categories_segments":[],"categories_sizes":[],"default_left":[0,0,0,0,0,0,0,0,0,0,0,0,0,0,0,0,0,0,0,0,0],"id":43,"left_children":[1,3,5,-1,7,9,11,-1,13,15,17,19,-1,-1,-1,-1,-1,-1,-1,-1,-1],"loss_changes":[3.978756E0,5.134136E0,2.734562E0,0E0,6.4074874E0,2.6533723E0,2.8977797E0,0E0,1.3252358E0,2.5092666E0,1.3553915E0,1.857382E0,0E0,0E0,0E0,0E0,0E0,0E0,0E0,0E0,0E0],"parents":[2147483647,0,0,1,1,2,2,4,4,5,5,6,6,8,8,9,9,10,10,11,11],"right_children":[2,4,6,-1,8,10,12,-1,14,16,18,20,-1,-1,-1,-1,-1,-1,-1,-1,-1],"split_conditions":[2.0955035E2,1.9E1,5E0,9.443584E-3,2.25E1,8E0,4.60417E0,-1.6761484E0,4.3E0,3.8E0,-1.3E1,7.1E0,-8.4369403E-1,-6.262973E-1,-5.7875738E-3,-3.4445837E-1,2.1970706E-1,-1.5837832E-1,3.0208507E-1,1.1458201E-2,-1.4044056E0],"split_indices":[29,17,3,0,51,5,52,0,49,49,55,49,0,0,0,0,0,0,0,0,0],"split_type":[0,0,0,0,0,0,0,0,0,0,0,0,0,0,0,0,0,0,0,0,0],"sum_hessian":[5.911E3,6.26E2,5.285E3,4.33E2,1.93E2,3.774E3,1.511E3,2.6E1,1.67E2,8.57E2,2.917E3,1.501E3,1E1,4.6E1,1.21E2,2.48E2,6.09E2,6.9E1,2.848E3,1.409E3,9.2E1],"tree_param":{"num_deleted":"0","num_feature":"65","num_nodes":"21","size_leaf_vector":"1"}},{"base_weights":[1.7630698E-2,-2.8716117E-2,3.3784065E-2,1.1872017E-3,-6.2939666E-2,4.7838077E-2,-1.6056314E-2,2.8851185E-2,-6.620909E-2,-2.748249E-1,-2.8308818E-2,6.453796E-2,2.7921307E-3,-3.5031176E-1,-1.8652823E-3,2.8557125E-3,-5.639838E-3,1.4163445E-4,-1.4272771E-2,-3.96396E-2,-2.7111745E-3,-0E0,-7.6653264E-3,-2.805997E-3,4.3149646E-3,1.3032943E-3,-5.247082E-3,-3.5128657E-2,-0E0,-1.1004973E-2,4.7149378E-4],"categories":[],"categories_nodes":[],"categories_segments":[],"categories_sizes":[],"default_left":[0,0,0,0,0,0,0,0,0,0,0,0,0,0,0,0,0,0,0,0,0,0,0,0,0,0,0,0,0,0,0],"id":44,"left_children":[1,3,5,7,9,11,13,15,17,19,21,23,25,27,29,-1,-1,-1,-1,-1,-1,-1,-1,-1,-1,-1,-1,-1,-1,-1,-1],"loss_changes":[4.454363E0,1.7012726E0,3.206389E0,1.295992E0,4.5176573E0,2.4453602E0,3.4026058E0,1.1335073E0,2.8670702E0,5.8825765E0,1.5514433E0,1.9267178E0,1.4857061E0,2.959104E0,2.0791893E0,0E0,0E0,0E0,0E0,0E0,0E0,0E0,0E0,0E0,0E0,0E0,0E0,0E0,0E0,0E0,0E0],"parents":[2147483647,0,0,1,1,2,2,3,3,4,4,5,5,6,6,7,7,8,8,9,9,10,10,11,11,12,12,13,13,14,14],"right_children":[2,4,6,8,10,12,14,16,18,20,22,24,26,28,30,-1,-1,-1,-1,-1,-1,-1,-1,-1,-1,-1,-1,-1,-1,-1,-1],"split_conditions":[2.25E2,1.9E1,1.7404661E0,1E0,2.0222276E2,1E0,7.5E1,3.45E1,-4.8690476E0,2.25E1,3.34E1,1.86E1,1.225E1,4.59E1,2.33E1,7.994776E-2,-3.769549E-1,9.934158E-2,-6.614176E-1,-1.5458486E0,-4.731688E-3,-6.596602E-3,-8.884545E-2,-2.3667516E-1,5.539333E-1,4.4690117E-2,-1.11589745E-1,-1.4764199E0,2.4335718E-2,-6.155173E-1,2.506481E-2],"split_indices":[19,17,52,6,29,6,53,54,46,51,51,51,39,54,51,0,0,0,0,0,0,0,0,0,0,0,0,0,0,0,0],"split_type":[0,0,0,0,0,0,0,0,0,0,0,0,0,0,0,0,0,0,0,0,0,0,0,0,0,0,0,0,0,0,0],"sum_hessian":[5.924E3,1.484E3,4.44E3,7.48E2,7.36E2,3.509E3,9.31E2,5.62E2,1.86E2,8.9E1,6.47E2,2.512E3,9.97E2,2.7E1,9.04E2,5.11E2,5.1E1,1.22E2,6.4E1,2.7E1,6.2E1,5.2E2,1.27E2,1.16E2,2.396E3,8.53E2,1.44E2,1.7E1,1E1,5.9E1,8.45E2],"tree_param":{"num_deleted":"0","num_feature":"65","num_nodes":"31","size_leaf_vector":"1"}},{"base_weights":[1.674539E-2,4.5193345E-3,4.857449E-3,-6.866115E-2,1.4104542E-2,-0E0,-2.0811881E-1,-2.2414114E-2,3.260073E-2,-3.2344647E-2,-2.9888332E-3,-3.9711026E-3,1.4654783E-3,2.1404196E-3,-1.7071554E-2],"categories":[],"categories_nodes":[],"categories_segments":[],"categories_sizes":[],"default_left":[0,0,0,0,0,0,0,0,1,0,0,0,0,0,0],"id":45,"left_children":[1,3,-1,5,7,-1,9,11,13,-1,-1,-1,-1,-1,-1],"loss_changes":[4.3138566E0,3.3347647E0,0E0,5.228219E0,3.0290222E0,0E0,7.517542E0,3.0152164E0,1.8528988E0,0E0,0E0,0E0,0E0,0E0,0E0],"parents":[2147483647,0,0,1,1,3,3,4,4,6,6,7,7,8,8],"right_children":[2,4,-1,6,8,-1,10,12,14,-1,-1,-1,-1,-1,-1],"split_conditions":[1E0,2.0955035E2,8.543667E-1,1.9E1,1.1E1,1.9568945E-3,2.86E1,2.1607144E0,5.93E1,-1.3601608E0,-3.1825554E-2,-1.4528891E-1,9.9348806E-2,1.01150244E-1,-1.4859295E0],"split_indices":[13,29,0,17,5,0,51,40,54,0,0,0,0,0,0],"split_type":[0,0,0,0,0,0,0,0,0,0,0,0,0,0,0],"sum_hessian":[5.885E3,4.974E3,9.11E2,5.39E2,4.435E3,3.62E2,1.77E2,1.438E3,2.997E3,5E1,1.27E2,7.79E2,6.59E2,2.983E3,1.4E1],"tree_param":{"num_deleted":"0","num_feature":"65","num_nodes":"15","size_leaf_vector":"1"}},{"base_weights":[2.220143E-2,3.751269E-2,-1.43506E-2,-8.1239045E-3,5.2132633E-2,-4.460728E-2,4.0322494E-2,3.5247006E-2,-7.15311E-2,5.8028188E-2,-2.97938E-2,-2.4181847E-1,-2.3698628E-2,3.970897E-3,-2.6668916E-3,3.1061857E-3,-1.2025667E-2,-9.1482E-3,-0E0,-1.0872749E-3,3.8208861E-3,1.7083695E-3,-1.5564779E-2,-2.0938477E-2,-0E0,-9.729678E-3,1.6255539E-4],"categories":[],"categories_nodes":[],"categories_segments":[],"categories_sizes":[],"default_left":[0,0,0,0,0,0,0,0,0,0,0,0,0,0,0,0,0,0,0,0,0,0,0,0,0,0,0],"id":46,"left_children":[1,3,5,7,9,11,13,15,17,19,21,23,25,-1,-1,-1,-1,-1,-1,-1,-1,-1,-1,-1,-1,-1,-1],"loss_changes":[3.393545E0,2.9605312E0,2.8288796E0,2.8173566E0,1.6626053E0,3.870475E0,1.2850964E0,1.6842499E0,2.8343902E0,1.2994289E0,3.1522171E0,3.128738E0,4.2036185E0,0E0,0E0,0E0,0E0,0E0,0E0,0E0,0E0,0E0,0E0,0E0,0E0,0E0,0E0],"parents":[2147483647,0,0,1,1,2,2,3,3,4,4,5,5,6,6,7,7,8,8,9,9,10,10,11,11,12,12],"right_children":[2,4,6,8,10,12,14,16,18,20,22,24,26,-1,-1,-1,-1,-1,-1,-1,-1,-1,-1,-1,-1,-1,-1],"split_conditions":[5E0,8E0,2.85E1,2.5E1,3.42E1,-5.8E0,3.05E1,9.3E0,2.3316667E2,1.59E1,2.8E1,7.642857E0,1.7780098E1,1.7402342E-1,-1.8994987E-1,4.1442797E-1,-1.3899356E-1,-2.1232307E-1,3.1670112E-2,-8.078474E-2,2.3721403E-1,8.21578E-2,-3.5893282E-1,-8.065196E-1,6.374351E-1,-4.299452E-1,6.982341E-3],"split_indices":[3,5,48,17,51,55,48,55,27,48,17,39,37,0,0,0,0,0,0,0,0,0,0,0,0,0,0],"split_type":[0,0,0,0,0,0,0,0,0,0,0,0,0,0,0,0,0,0,0,0,0,0,0,0,0,0,0],"sum_hessian":[5.938E3,4.241E3,1.697E3,9.81E2,3.26E3,1.127E3,5.7E2,5.56E2,4.25E2,3.075E3,1.85E2,9.2E1,1.035E3,4.66E2,1.04E2,5.34E2,2.2E1,2.18E2,2.07E2,1.53E2,2.922E3,1.39E2,4.6E1,7E1,2.2E1,1.83E2,8.52E2],"tree_param":{"num_deleted":"0","num_feature":"65","num_nodes":"27","size_leaf_vector":"1"}},{"base_weights":[2.3030028E-2,1.1676991E-2,4.987827E-3,-1.7585177E-2,3.4374885E-2,-5.6988794E-2,2.323125E-3,7.515095E-2,1.8068727E-2,-3.2772016E-2,-2.0705415E-3,-2.3148465E-3,1.8554613E-3,5.3032804E-3,-4.3935156E-3,-1.8516729E-3,2.173605E-3],"categories":[],"categories_nodes":[],"categories_segments":[],"categories_sizes":[],"default_left":[0,0,0,0,0,0,0,0,0,0,0,0,0,0,0,0,0],"id":47,"left_children":[1,3,-1,5,7,9,11,13,15,-1,-1,-1,-1,-1,-1,-1,-1],"loss_changes":[3.7093682E0,3.3831272E0,0E0,1.8362739E0,1.6419113E0,6.7461514E0,1.5541452E0,1.4625497E0,1.8447717E0,0E0,0E0,0E0,0E0,0E0,0E0,0E0,0E0],"parents":[2147483647,0,0,1,1,3,3,4,4,5,5,6,6,7,7,8,8],"right_children":[2,4,-1,6,8,10,12,14,16,-1,-1,-1,-1,-1,-1,-1,-1],"split_conditions":[1E0,2.4796428E2,7.915631E-1,1.2E1,2.5282143E2,1.87E1,2.185E2,1E0,2.572857E2,-1.7428532E0,-9.4191305E-2,-3.304853E-2,8.383436E-2,4.5739806E-1,-2.0578234E0,-7.697089E-2,1.7968479E-1],"split_indices":[13,34,0,5,43,51,34,11,35,0,0,0,0,0,0,0,0],"split_type":[0,0,0,0,0,0,0,0,0,0,0,0,0,0,0,0,0],"sum_hessian":[5.924E3,5.015E3,9.09E2,2.135E3,2.88E3,7.64E2,1.371E3,7.69E2,2.111E3,2.6E1,7.38E2,5.21E2,8.5E2,7.29E2,4E1,5.21E2,1.59E3],"tree_param":{"num_deleted":"0","num_feature":"65","num_nodes":"17","size_leaf_vector":"1"}},{"base_weights":[2.0898506E-2,9.450219E-3,4.8102876E-3,-1.5408138E-2,2.900104E-2,-4.9062287E-3,-1.4253002E-1,4.8445094E-2,-1.4213242E-2,-1.4447896E-2,-8.959452E-6,6.6993217E-4,-2.2850836E-2,-4.2687476E-4,3.7164034E-3,-2.1756439E-4,-2.9168328E-2],"categories":[],"categories_nodes":[],"categories_segments":[],"categories_sizes":[],"default_left":[0,0,0,0,0,0,0,0,0,0,0,0,0,0,0,0,0],"id":48,"left_children":[1,3,-1,5,7,9,11,13,15,-1,-1,-1,-1,-1,-1,-1,-1],"loss_changes":[3.6989715E0,2.4676557E0,0E0,2.419096E0,2.5059502E0,1.5224867E0,6.173037E0,1.5990438E0,2.7703688E0,0E0,0E0,0E0,0E0,0E0,0E0,0E0,0E0],"parents":[2147483647,0,0,1,1,3,3,4,4,5,5,6,6,7,7,8,8],"right_children":[2,4,-1,6,8,10,12,14,16,-1,-1,-1,-1,-1,-1,-1,-1],"split_conditions":[1E0,2.4796428E2,7.5992703E-1,2.4759547E2,1.1939225E0,1.4E0,4.8790164E-2,2.0266667E2,3.1E1,-5.393625E-1,-1.4313483E-3,1.0898936E-1,-1.21915E0,-5.2190498E-2,2.95613E-1,-3.5501537E-3,-8.590558E-1],"split_indices":[13,34,0,31,52,49,52,26,5,0,0,0,0,0,0,0,0],"split_type":[0,0,0,0,0,0,0,0,0,0,0,0,0,0,0,0,0],"sum_hessian":[5.916E3,4.991E3,9.25E2,2.132E3,2.859E3,1.993E3,1.39E2,2.018E3,8.41E2,2.5E1,1.968E3,7.8E1,6.1E1,3.37E2,1.681E3,8.31E2,1E1],"tree_param":{"num_deleted":"0","num_feature":"65","num_nodes":"17","size_leaf_vector":"1"}},{"base_weights":[2.2184424E-2,3.76749E-2,-1.5254066E-2,-8.344191E-3,5.239536E-2,1.9098703E-2,-6.725622E-2,-8.197912E-2,2.6479937E-2,5.7364494E-2,-1.50336325E-2,4.254836E-3,-1.740195E-2,-1.16835624E-1,1.4891807E-3,3.8161718E-3,-8.4981015E-3,-2.3997389E-3,4.160011E-3,-1.2277993E-3,3.7809815E-3,3.94012E-3,-7.1967184E-3,-4.2435974E-3,2.9361334E-3,-2.2161411E-2,-3.9552324E-3],"categories":[],"categories_nodes":[],"categories_segments":[],"categories_sizes":[],"default_left":[0,0,0,0,0,0,0,0,0,0,0,0,0,0,0,0,0,0,0,0,0,0,0,0,0,0,0],"id":49,"left_children":[1,3,5,7,9,11,13,15,17,19,21,-1,23,25,-1,-1,-1,-1,-1,-1,-1,-1,-1,-1,-1,-1,-1],"loss_changes":[3.496318E0,3.0006642E0,3.1405087E0,2.684467E0,1.2176237E0,1.9810791E0,3.4701276E0,3.1365523E0,1.8771843E0,1.3174486E0,1.716553E0,0E0,1.9395952E0,4.800106E0,0E0,0E0,0E0,0E0,0E0,0E0,0E0,0E0,0E0,0E0,0E0,0E0,0E0],"parents":[2147483647,0,0,1,1,2,2,3,3,4,4,5,5,6,6,7,7,8,8,9,9,10,10,12,12,13,13],"right_children":[2,4,6,8,10,12,14,16,18,20,22,-1,24,26,-1,-1,-1,-1,-1,-1,-1,-1,-1,-1,-1,-1,-1],"split_conditions":[5E0,8E0,-1.2702381E1,-4.4E0,3.42E1,2.2891667E2,2.61E1,-9.3E0,2.35E1,1.59E1,2E1,1.311984E-1,6E0,-4.6E0,4.2085204E-2,3.8894495E-1,-2.4780941E-1,-7.214343E-2,3.7522343E-1,-1.677167E-1,2.1465617E-1,1.3535088E-1,-1.8080619E-1,-2.898465E-1,1.3513623E-1,-4.88835E-1,-1.3808683E-1],"split_indices":[3,5,47,55,51,44,50,55,51,48,17,0,3,55,0,0,0,0,0,0,0,0,0,0,0,0,0],"split_type":[0,0,0,0,0,0,0,0,0,0,0,0,0,0,0,0,0,0,0,0,0,0,0,0,0,0,0],"sum_hessian":[5.911E3,4.236E3,1.675E3,9.79E2,3.257E3,9.76E2,6.99E2,3.4E2,6.39E2,3.074E3,1.83E2,4.39E2,5.37E2,4.74E2,2.25E2,8.3E1,2.57E2,2.22E2,4.17E2,1.5E2,2.924E3,8.8E1,9.5E1,3.23E2,2.14E2,6.9E1,4.05E2],"tree_param":{"num_deleted":"0","num_feature":"65","num_nodes":"27","size_leaf_vector":"1"}},{"base_weights":[2.4949363E-2,1.5102603E-2,4.6412237E-3,-9.181017E-3,3.4283694E-2,-5.2137066E-2,9.70025E-3,3.7322063E-2,-2.2465064E-1,-3.2216467E-2,-1.5740438E-3,3.1147716E-3,-6.2024145E-4,-1.8483982E-3,2.6524186E-3,-0E0,-2.9168328E-2],"categories":[],"categories_nodes":[],"categories_segments":[],"categories_sizes":[],"default_left":[0,0,0,0,1,0,0,0,0,0,0,0,0,0,0,0,0],"id":50,"left_children":[1,3,-1,5,7,9,11,13,15,-1,-1,-1,-1,-1,-1,-1,-1],"loss_changes":[2.7437246E0,2.4175372E0,0E0,1.8731694E0,1.7421746E0,7.194021E0,1.327349E0,1.2866695E0,1.7863319E0,0E0,0E0,0E0,0E0,0E0,0E0,0E0,0E0],"parents":[2147483647,0,0,1,1,3,3,4,4,5,5,6,6,7,7,8,8],"right_children":[2,4,-1,6,8,10,12,14,16,-1,-1,-1,-1,-1,-1,-1,-1],"split_conditions":[1E0,2.4796428E2,6.7734E-1,1.1E1,5.93E1,1.87E1,7.3E1,1.92E2,9E0,-1.5669707E0,-4.6344448E-2,1.0663693E-1,-2.053945E-2,-9.360489E-2,1.6308133E-1,2.4737366E-1,-1.4339079E0],"split_indices":[13,34,0,5,54,51,53,25,5,0,0,0,0,0,0,0,0],"split_type":[0,0,0,0,0,0,0,0,0,0,0,0,0,0,0,0,0],"sum_hessian":[5.929E3,5.029E3,9E2,2.153E3,2.876E3,7.03E2,1.45E3,2.856E3,2E1,2.8E1,6.75E2,5.15E2,9.35E2,2.07E2,2.649E3,1E1,1E1],"tree_param":{"num_deleted":"0","num_feature":"65","num_nodes":"17","size_leaf_vector":"1"}},{"base_weights":[2.6018057E-2,1.6104946E-2,7.674761E-2,2.318794E-3,-2.7141564E-3,-1.3168798E-3,5.3332173E-3,-1.8227196E-1,1.4927946E-3,-0E0,-2.1107376E-2,9.564488E-4,-4.7380985E-3],"categories":[],"categories_nodes":[],"categories_segments":[],"categories_sizes":[],"default_left":[0,0,0,0,0,0,0,0,0,0,0,0,0],"id":51,"left_children":[1,3,5,-1,7,-1,-1,9,11,-1,-1,-1,-1],"loss_changes":[2.6778967E0,2.170113E0,1.2025867E0,0E0,2.5001593E0,0E0,0E0,3.261578E0,2.7099648E0,0E0,0E0,0E0,0E0],"parents":[2147483647,0,0,1,1,2,2,4,4,7,7,8,8],"right_children":[2,4,6,-1,8,-1,-1,10,12,-1,-1,-1,-1],"split_conditions":[1E0,1.9E1,2E0,6.508977E-2,2.0371428E2,-2.0086636E-1,7.677221E-1,7.7E1,4.9E1,7.192582E-2,-5.571752E-1,2.3270765E-2,-2.9910856E-1],"split_indices":[13,17,4,0,32,0,0,53,16,0,0,0,0],"split_type":[0,0,0,0,0,0,0,0,0,0,0,0,0],"sum_hessian":[5.866E3,4.958E3,9.08E2,2.348E3,2.61E3,6.6E1,8.42E2,7.3E1,2.537E3,2.8E1,4.5E1,2.184E3,3.53E2],"tree_param":{"num_deleted":"0","num_feature":"65","num_nodes":"13","size_leaf_vector":"1"}},{"base_weights":[2.3172831E-2,1.3202165E-2,7.463497E-2,6.0346997E-3,5.0463392E-3,-4.7494844E-2,5.204892E-3,1.0856248E-2,-1.4351676E-1,-2.1090426E-2,1.3289462E-3,-1.5107213E-3,1.4818924E-3,-2.1549605E-2,2.8899456E-3],"categories":[],"categories_nodes":[],"categories_segments":[],"categories_sizes":[],"default_left":[0,0,0,0,0,0,0,0,0,0,0,0,0,0,0],"id":52,"left_children":[1,3,5,7,-1,9,-1,11,13,-1,-1,-1,-1,-1,-1],"loss_changes":[2.7818887E0,2.2552307E0,1.3724117E0,2.9270093E0,0E0,2.1494548E0,0E0,2.170405E0,5.9896946E0,0E0,0E0,0E0,0E0,0E0,0E0],"parents":[2147483647,0,0,1,1,2,2,3,3,5,5,7,7,8,8],"right_children":[2,4,6,8,-1,10,-1,12,14,-1,-1,-1,-1,-1,-1],"split_conditions":[1E0,2.85E2,1.7637743E1,2.7633334E2,6.355739E-1,2.12E1,7.2124934E-1,1.94E1,-3.8E0,-2.8346595E-1,1.7462648E-1,-4.0058352E-2,3.4162715E-2,-8.33818E-1,8.926623E-1],"split_indices":[13,25,38,28,0,51,0,50,55,0,0,0,0,0,0],"split_type":[0,0,0,0,0,0,0,0,0,0,0,0,0,0,0],"sum_hessian":[5.922E3,5.011E3,9.11E2,4.586E3,4.25E2,5.4E1,8.57E2,4.464E3,1.22E2,1.6E1,3.8E1,1.169E3,3.295E3,6.4E1,5.8E1],"tree_param":{"num_deleted":"0","num_feature":"65","num_nodes":"15","size_leaf_vector":"1"}},{"base_weights":[2.160406E-2,1.0879807E-2,7.69501E-2,-4.197223E-2,1.9705184E-2,-2.7594712E-2,5.279078E-3,3.0846078E-2,-1.1590475E-1,4.9621724E-2,4.0056687E-3,-1.9194756E-2,1.5509069E-3,4.045452E-3,-7.11313E-3,-2.0073436E-3,-2.3073481E-2,9.757674E-4,5.203332E-3,-1.4104425E-4,4.855177E-3],"categories":[],"categories_nodes":[],"categories_segments":[],"categories_sizes":[],"default_left":[0,0,0,0,0,0,0,0,0,0,0,0,0,0,0,0,0,0,0,0,0],"id":53,"left_children":[1,3,5,7,9,11,-1,13,15,17,19,-1,-1,-1,-1,-1,-1,-1,-1,-1,-1],"loss_changes":[3.2641857E0,2.277866E0,1.1504207E0,3.8729298E0,1.8859373E0,1.753911E0,0E0,1.5777744E0,6.512137E0,1.4383497E0,1.6323197E0,0E0,0E0,0E0,0E0,0E0,0E0,0E0,0E0,0E0,0E0],"parents":[2147483647,0,0,1,1,2,2,3,3,4,4,5,5,7,7,8,8,9,9,10,10],"right_children":[2,4,6,8,10,12,-1,14,16,18,20,-1,-1,-1,-1,-1,-1,-1,-1,-1,-1],"split_conditions":[1E0,-2.3866668E0,1.7637743E1,7.1E1,-2.2252093E-1,2.12E1,7.4151397E-1,1E0,4.7E0,2.56E2,2.85E2,-2.6700175E-1,1.6403802E-1,2.0709565E-1,-1.7216034E-1,-9.647555E-2,-1.3224708E0,2.0603199E-2,6.649317E-1,-4.52906E-3,5.813148E-1],"split_indices":[13,62,38,53,8,51,0,12,49,45,25,0,0,0,0,0,0,0,0,0,0],"split_type":[0,0,0,0,0,0,0,0,0,0,0,0,0,0,0,0,0,0,0,0,0],"sum_hessian":[5.931E3,5.015E3,9.16E2,6.69E2,4.346E3,5.5E1,8.61E2,3.18E2,3.51E2,1.43E3,2.916E3,1.5E1,4E1,2.73E2,4.5E1,2.78E2,7.3E1,7.86E2,6.44E2,2.659E3,2.57E2],"tree_param":{"num_deleted":"0","num_feature":"65","num_nodes":"21","size_leaf_vector":"1"}},{"base_weights":[2.4369935E-2,1.4279213E-2,4.650616E-3,-7.078739E-3,3.2259963E-2,5.342012E-4,-1.1146205E-1,4.9437623E-2,-3.5039391E-3,-2.9976354E-3,1.1745468E-3,-0E0,-2.2455094E-2,-1.6538086E-3,3.9003699E-3,4.050911E-3,-3.3128157E-3],"categories":[],"categories_nodes":[],"categories_segments":[],"categories_sizes":[],"default_left":[0,0,0,0,0,0,0,0,0,0,0,0,0,0,0,0,0],"id":54,"left_children":[1,3,-1,5,7,9,11,13,15,-1,-1,-1,-1,-1,-1,-1,-1],"loss_changes":[2.8544104E0,1.9965743E0,0E0,2.0843291E0,1.8497186E0,1.8377317E0,4.6158414E0,2.3296843E0,3.0431921E0,0E0,0E0,0E0,0E0,0E0,0E0,0E0,0E0],"parents":[2147483647,0,0,1,1,3,3,4,4,5,5,6,6,7,7,8,8],"right_children":[2,4,-1,6,8,10,12,14,16,-1,-1,-1,-1,-1,-1,-1,-1],"split_conditions":[1E0,2.4939285E2,4.984122E-1,7.1E0,1.1631508E0,1.810728E1,2.6236427E-1,2.0358333E2,2.32E2,-9.8540135E-2,2.93905E-2,-1.3482091E-1,-1.3711736E0,-4.4884972E-2,3.2458732E-1,2.838555E-1,-1.7706266E-1],"split_indices":[13,34,0,49,52,37,52,25,25,0,0,0,0,0,0,0,0],"split_type":[0,0,0,0,0,0,0,0,0,0,0,0,0,0,0,0,0],"sum_hessian":[5.91E3,5.004E3,9.06E2,2.214E3,2.79E3,2.04E3,1.74E2,1.939E3,8.51E2,5.15E2,1.525E3,1.27E2,4.7E1,2.83E2,1.656E3,3.34E2,5.17E2],"tree_param":{"num_deleted":"0","num_feature":"65","num_nodes":"17","size_leaf_vector":"1"}},{"base_weights":[2.6578046E-2,4.099322E-2,-8.6192135E-3,-5.0736275E-2,4.65305E-2,-2.3391977E-2,4.8619206E-3,-1.5206969E-1,1.4163445E-4,6.71912E-3,5.676342E-2,-1.0098526E-2,-1.7728269E-1,-0E0,-1.62842E-2,1.4624997E-3,-4.5555793E-3,3.983973E-3,-0E0,8.365688E-4,-3.138885E-3,-0E0,-2.2455094E-2],"categories":[],"categories_nodes":[],"categories_segments":[],"categories_sizes":[],"default_left":[0,0,0,0,0,0,0,0,0,0,0,0,0,0,0,0,0,0,0,0,0,0,0],"id":55,"left_children":[1,3,5,7,9,11,-1,13,-1,15,17,19,21,-1,-1,-1,-1,-1,-1,-1,-1,-1,-1],"loss_changes":[3.1092525E0,2.164781E0,2.0301142E0,1.5909439E0,1.4689932E0,2.4403553E0,0E0,2.232216E0,0E0,1.1263119E0,1.5047035E0,1.4720402E0,3.7097774E0,0E0,0E0,0E0,0E0,0E0,0E0,0E0,0E0,0E0,0E0],"parents":[2147483647,0,0,1,1,2,2,3,3,4,4,5,5,7,7,9,9,10,10,11,11,12,12],"right_children":[2,4,6,8,10,12,-1,14,-1,16,18,20,22,-1,-1,-1,-1,-1,-1,-1,-1,-1,-1],"split_conditions":[5E0,1.87E1,5.9E1,1.7142857E0,2.2914285E2,9E1,1.3381888E-1,2.5E1,2.2792138E-2,2.26E2,2.3513753E0,-1.2523809E1,1.3E1,1.956899E-1,-6.550615E-1,7.578658E-3,-2.460043E-1,3.979753E-1,4.163777E-3,3.222933E-2,-6.880257E-2,1.0063859E-2,-6.968268E-1],"split_indices":[3,51,17,47,32,53,0,17,0,25,52,47,16,0,0,0,0,0,0,0,0,0,0],"split_type":[0,0,0,0,0,0,0,0,0,0,0,0,0,0,0,0,0,0,0,0,0,0,0],"sum_hessian":[5.938E3,4.271E3,1.667E3,2.12E2,4.059E3,1.459E3,2.08E2,9E1,1.22E2,8.89E2,3.17E3,1.363E3,9.6E1,3.2E1,5.8E1,7.64E2,1.25E2,2.714E3,4.56E2,8.23E2,5.4E2,4.9E1,4.7E1],"tree_param":{"num_deleted":"0","num_feature":"65","num_nodes":"23","size_leaf_vector":"1"}},{"base_weights":[2.6812004E-2,4.1630518E-2,-8.710206E-3,3.045866E-2,4.837315E-3,1.8182452E-3,-3.3646345E-2,-5.7780277E-3,4.642243E-2,-3.187508E-3,-1.5221263E-1,-4.782512E-3,1.5672158E-3,-1.5669814E-3,3.245792E-3,2.6439698E-3,-3.2891321E-3,-3.1462774E-2,-4.246251E-3],"categories":[],"categories_nodes":[],"categories_segments":[],"categories_sizes":[],"default_left":[0,0,0,0,0,0,0,0,0,0,0,0,0,0,0,0,0,0,0],"id":56,"left_children":[1,3,5,7,-1,-1,9,11,13,15,17,-1,-1,-1,-1,-1,-1,-1,-1],"loss_changes":[3.2122273E0,1.4774785E0,1.6408482E0,2.0502715E0,0E0,0E0,3.420483E0,2.3964357E0,1.3031406E0,2.129162E0,4.206878E0,0E0,0E0,0E0,0E0,0E0,0E0,0E0,0E0],"parents":[2147483647,0,0,1,1,2,2,3,3,6,6,7,7,8,8,9,9,10,10],"right_children":[2,4,6,8,-1,-1,10,12,14,16,18,-1,-1,-1,-1,-1,-1,-1,-1],"split_conditions":[5E0,1E0,4.8790164E-2,1E1,5.0241846E-1,6.835088E-2,5.6E0,-4.7E0,2E0,2.1958333E2,1.67E1,-3.0111504E-1,5.0058194E-2,-1.3513476E-1,9.160601E-2,6.344913E-2,-6.134373E-2,-1.3343551E0,-1.0321816E-1],"split_indices":[3,13,52,5,0,0,49,55,2,28,50,0,0,0,0,0,0,0,0],"split_type":[0,0,0,0,0,0,0,0,0,0,0,0,0,0,0,0,0,0,0],"sum_hessian":[5.916E3,4.232E3,1.684E3,3.336E3,8.96E2,6.14E2,1.07E3,9.65E2,2.371E3,8.73E2,1.97E2,3.18E2,6.47E2,1.75E2,2.196E3,4.26E2,4.47E2,2.7E1,1.7E2],"tree_param":{"num_deleted":"0","num_feature":"65","num_nodes":"19","size_leaf_vector":"1"}},{"base_weights":[2.2443937E-2,7.811407E-3,5.6947295E-2,1.5455026E-2,-7.293912E-2,7.5821675E-2,4.8242225E-3,3.408033E-2,-1.0438629E-2,-1.3883099E-1,7.557745E-4,-0E0,5.306897E-3,2.3495695E-3,-2.1753754E-1,-0E0,3.59654E-3,2.190563E-3,-2.5613925E-3,-7.927071E-4,-2.2403676E-2,3.3269457E-3,-1.0466189E-2,-0E0,-3.1983916E-2],"categories":[],"categories_nodes":[],"categories_segments":[],"categories_sizes":[],"default_left":[0,0,0,0,0,0,0,0,0,0,0,0,0,0,0,0,0,0,0,0,0,0,0,0,0],"id":57,"left_children":[1,3,5,7,9,11,13,15,17,19,-1,21,-1,-1,23,-1,-1,-1,-1,-1,-1,-1,-1,-1,-1],"loss_changes":[2.793054E0,2.4347227E0,1.4365544E0,1.9417541E0,2.2385745E0,1.1490254E0,3.241373E0,2.1583467E0,2.3330333E0,4.868672E0,0E0,1.5864122E0,0E0,0E0,5.109608E0,0E0,0E0,0E0,0E0,0E0,0E0,0E0,0E0,0E0,0E0],"parents":[2147483647,0,0,1,1,2,2,3,3,4,4,5,5,6,6,7,7,8,8,9,9,11,11,14,14],"right_children":[2,4,6,8,10,12,14,16,18,20,-1,22,-1,-1,24,-1,-1,-1,-1,-1,-1,-1,-1,-1,-1],"split_conditions":[2.6108334E2,2.5758334E2,1.1939225E0,5E0,2.69E1,2.0266667E2,2.8E1,2.25E2,4.8790164E-2,2.5E1,7.1151227E-1,4.2E0,6.117321E-1,2.8986838E-1,1.5E1,-5.4071133E-4,2.217666E-1,7.126956E-2,-7.856822E-2,-4.4259146E-1,-2.737847E-1,1.0444567E0,-5.1485187E-1,1.2783311E-1,-1.3507761E0],"split_indices":[44,44,52,3,50,25,50,19,52,17,0,55,0,0,17,0,0,0,0,0,0,0,0,0,0],"split_type":[0,0,0,0,0,0,0,0,0,0,0,0,0,0,0,0,0,0,0,0,0,0,0,0,0],"sum_hessian":[5.905E3,4.208E3,1.697E3,3.879E3,3.29E2,1.204E3,4.93E2,2.321E3,1.558E3,2.04E2,1.25E2,1.51E2,1.053E3,4.41E2,5.2E1,9.43E2,1.378E3,5.95E2,9.63E2,1.42E2,6.2E1,1.12E2,3.9E1,2.7E1,2.5E1],"tree_param":{"num_deleted":"0","num_feature":"65","num_nodes":"25","size_leaf_vector":"1"}},{"base_weights":[2.3225643E-2,1.3883605E-2,7.1193844E-2,6.300509E-3,5.4560695E-3,-2.0767806E-1,4.89438E-3,1.1745086E-2,-1.5926285E-1,-2.699004E-2,-0E0,-2.0881668E-3,1.1486551E-3,-0E0,-1.962299E-2],"categories":[],"categories_nodes":[],"categories_segments":[],"categories_sizes":[],"default_left":[0,0,0,0,0,0,0,0,0,0,0,0,0,0,0],"id":58,"left_children":[1,3,5,7,-1,9,-1,11,13,-1,-1,-1,-1,-1,-1],"loss_changes":[2.3891735E0,2.5942216E0,2.0883775E0,3.6950755E0,0E0,1.4194679E0,0E0,1.4338675E0,4.2415524E0,0E0,0E0,0E0,0E0,0E0,0E0],"parents":[2147483647,0,0,1,1,2,2,3,3,5,5,7,7,8,8],"right_children":[2,4,6,8,-1,10,-1,12,14,-1,-1,-1,-1,-1,-1],"split_conditions":[1E0,2.85E2,1.4E1,2.7633334E2,5.459021E-1,2E0,5.676116E-1,2.8E0,2.47E2,-3.765458E-1,3.829938E-1,-1.4005978E-1,2.5050005E-2,7.8044623E-1,-7.5694793E-1],"split_indices":[13,25,48,28,0,2,0,49,45,0,0,0,0,0,0],"split_type":[0,0,0,0,0,0,0,0,0,0,0,0,0,0,0],"sum_hessian":[5.887E3,4.981E3,9.06E2,4.567E3,4.14E2,1.8E1,8.88E2,4.441E3,1.26E2,9E0,9E0,5.43E2,3.898E3,5.7E1,6.9E1],"tree_param":{"num_deleted":"0","num_feature":"65","num_nodes":"15","size_leaf_vector":"1"}},{"base_weights":[2.2220116E-2,6.6044587E-3,5.8514528E-2,9.238677E-3,-2.1846886E-1,-1.4773147E-1,6.326789E-2,-3.8581893E-2,1.934304E-2,-3.5266906E-2,-0E0,-0E0,-2.4379713E-2,-5.0106406E-2,4.2600962E-3,-1.0852523E-2,-0E0,2.12482E-3,-6.4137706E-4,2.6659025E-3,-2.5727326E-2],"categories":[],"categories_nodes":[],"categories_segments":[],"categories_sizes":[],"default_left":[0,0,0,0,0,0,0,0,0,0,0,0,0,0,0,0,0,0,0,0,0],"id":59,"left_children":[1,3,5,7,9,11,13,15,17,-1,-1,-1,-1,19,-1,-1,-1,-1,-1,-1,-1],"loss_changes":[3.1481495E0,1.8736665E0,1.4611673E0,1.9487112E0,3.934362E0,1.4868962E0,1.4090557E0,3.6311183E0,1.7037791E0,0E0,0E0,0E0,0E0,3.81926E0,0E0,0E0,0E0,0E0,0E0,0E0,0E0],"parents":[2147483647,0,0,1,1,2,2,3,3,4,4,5,5,6,6,7,7,8,8,13,13],"right_children":[2,4,6,8,10,12,14,16,18,-1,-1,-1,-1,20,-1,-1,-1,-1,-1,-1,-1],"split_conditions":[2.6108334E2,2.6075E2,1.08E1,1.944195E1,1.5E1,2.1841667E2,1.8516667E2,2.09E1,2.5282143E2,-6.64916E-1,7.7859586E-1,4.1820385E-2,-3.5371357E-1,7.818315E-1,4.4379237E-1,-3.355418E-1,-8.882129E-5,5.9335873E-2,-2.2602739E-2,1.8889234E0,-4.8515254E-1],"split_indices":[44,44,50,38,5,27,25,48,43,0,0,0,0,7,0,0,0,0,0,0,0],"split_type":[0,0,0,0,0,0,0,0,0,0,0,0,0,0,0,0,0,0,0,0,0],"sum_hessian":[5.888E3,4.175E3,1.713E3,4.142E3,3.3E1,2.3E1,1.69E3,6.71E2,3.471E3,1.4E1,1.9E1,1.3E1,1E1,7.3E1,1.617E3,1.42E2,5.29E2,2.34E3,1.131E3,5.4E1,1.9E1],"tree_param":{"num_deleted":"0","num_feature":"65","num_nodes":"21","size_leaf_vector":"1"}},{"base_weights":[2.2821672E-2,1.359372E-2,7.019174E-2,6.8861214E-3,4.873952E-3,-6.4503932E-3,5.4119853E-3,1.3144449E-2,-1.5283808E-1,-1.3732276E-2,1.2307501E-3,2.4912264E-3,-0E0,-0E0,-1.7701536E-2],"categories":[],"categories_nodes":[],"categories_segments":[],"categories_sizes":[],"default_left":[0,0,0,0,0,0,0,0,0,0,0,0,0,0,0],"id":60,"left_children":[1,3,5,7,-1,9,-1,11,13,-1,-1,-1,-1,-1,-1],"loss_changes":[2.3374636E0,1.9852958E0,1.5742116E0,4.184864E0,0E0,1.516247E0,0E0,1.7313693E0,3.8345819E0,0E0,0E0,0E0,0E0,0E0,0E0],"parents":[2147483647,0,0,1,1,2,2,3,3,5,5,7,7,8,8],"right_children":[2,4,6,8,-1,10,-1,12,14,-1,-1,-1,-1,-1,-1],"split_conditions":[1E0,2.85E2,2.2171428E2,2.75E2,5.202497E-1,-1.74E0,7.3061556E-1,-2.2252093E-1,2.65E1,-3.1329235E-1,4.4673465E-2,8.8100255E-2,-2.1058423E-4,5.982791E-1,-6.7717373E-1],"split_indices":[13,25,34,28,0,62,0,8,48,0,0,0,0,0,0],"split_type":[0,0,0,0,0,0,0,0,0,0,0,0,0,0,0],"sum_hessian":[5.908E3,4.999E3,9.09E2,4.585E3,4.14E2,1.51E2,7.58E2,4.432E3,1.53E2,2.6E1,1.25E2,1.477E3,2.955E3,6.8E1,8.5E1],"tree_param":{"num_deleted":"0","num_feature":"65","num_nodes":"15","size_leaf_vector":"1"}},{"base_weights":[2.348547E-2,7.113899E-3,5.4221626E-2,1.0467955E-2,-2.1442424E-1,6.943389E-2,3.9529006E-4,2.1735761E-2,-2.5608134E-2,-0E0,-3.82125E-2,-5.289139E-2,4.601437E-3,-1.9194756E-2,1.8544653E-2,-1.0837712E-3,2.1388063E-3,-7.180974E-4,-2.5727326E-2,-2.9168328E-2,3.9533034E-4,-7.998217E-3,2.4858215E-3],"categories":[],"categories_nodes":[],"categories_segments":[],"categories_sizes":[],"default_left":[0,1,0,0,0,0,0,0,0,0,0,0,0,0,0,0,0,0,0,0,0,0,0],"id":61,"left_children":[1,3,5,7,9,