{"learner":{"attributes":{"best_iteration":"302","best_score":"4.957904769491052","scikit_learn":"{\"_estimator_type\": \"regressor\"}"},"feature_names":["Day_of_Week","Attendance_Lag1","Attendance_Lag3","Attendance_Lag5","Attendance_Lag7","Attendance_Lag30","Attendance_Same_Weekday_Avg","Lag1_Diff","Lag7_Diff","Attendance_EWMA7","Attendance_Rolling14","Attendance_Rolling90","Attendance_Std3","Attendance_Std7","Attendance_Min7","Attendance_Min90","Attendance_Median30","Attendance_Position7","Attendance_Position14","Attendance_Position30","Attendance_CV7","DayOfWeek_Target_Mean","Daily_Change","Weekly_Change","Monthly_Change"],"feature_types":["int","float","float","float","float","float","float","float","float","float","float","float","float","float","float","float","float","float","float","float","float","float","float","float","float"],"gradient_booster":{"model":{"cats":{"enc":[],"feature_segments":[],"sorted_idx":[]},"gbtree_model_param":{"num_parallel_tree":"1","num_trees":"305"},"iteration_indptr":[0,1,2,3,4,5,6,7,8,9,10,11,12,13,14,15,16,17,18,19,20,21,22,23,24,25,26,27,28,29,30,31,32,33,34,35,36,37,38,39,40,41,42,43,44,45,46,47,48,49,50,51,52,53,54,55,56,57,58,59,60,61,62,63,64,65,66,67,68,69,70,71,72,73,74,75,76,77,78,79,80,81,82,83,84,85,86,87,88,89,90,91,92,93,94,95,96,97,98,99,100,101,102,103,104,105,106,107,108,109,110,111,112,113,114,115,116,117,118,119,120,121,122,123,124,125,126,127,128,129,130,131,132,133,134,135,136,137,138,139,140,141,142,143,144,145,146,147,148,149,150,151,152,153,154,155,156,157,158,159,160,161,162,163,164,165,166,167,168,169,170,171,172,173,174,175,176,177,178,179,180,181,182,183,184,185,186,187,188,189,190,191,192,193,194,195,196,197,198,199,200,201,202,203,204,205,206,207,208,209,210,211,212,213,214,215,216,217,218,219,220,221,222,223,224,225,226,227,228,229,230,231,232,233,234,235,236,237,238,239,240,241,242,243,244,245,246,247,248,249,250,251,252,253,254,255,256,257,258,259,260,261,262,263,264,265,266,267,268,269,270,271,272,273,274,275,276,277,278,279,280,281,282,283,284,285,286,287,288,289,290,291,292,293,294,295,296,297,298,299,300,301,302,303,304,305],"tree_info":[0,0,0,0,0,0,0,0,0,0,0,0,0,0,0,0,0,0,0,0,0,0,0,0,0,0,0,0,0,0,0,0,0,0,0,0,0,0,0,0,0,0,0,0,0,0,0,0,0,0,0,0,0,0,0,0,0,0,0,0,0,0,0,0,0,0,0,0,0,0,0,0,0,0,0,0,0,0,0,0,0,0,0,0,0,0,0,0,0,0,0,0,0,0,0,0,0,0,0,0,0,0,0,0,0,0,0,0,0,0,0,0,0,0,0,0,0,0,0,0,0,0,0,0,0,0,0,0,0,0,0,0,0,0,0,0,0,0,0,0,0,0,0,0,0,0,0,0,0,0,0,0,0,0,0,0,0,0,0,0,0,0,0,0,0,0,0,0,0,0,0,0,0,0,0,0,0,0,0,0,0,0,0,0,0,0,0,0,0,0,0,0,0,0,0,0,0,0,0,0,0,0,0,0,0,0,0,0,0,0,0,0,0,0,0,0,0,0,0,0,0,0,0,0,0,0,0,0,0,0,0,0,0,0,0,0,0,0,0,0,0,0,0,0,0,0,0,0,0,0,0,0,0,0,0,0,0,0,0,0,0,0,0,0,0,0,0,0,0,0,0,0,0,0,0,0,0,0,0,0,0,0,0,0,0,0,0,0,0,0,0,0,0,0,0,0,0,0,0,0,0,0,0,0,0],"trees":[{"base_weights":[-1.2542403E0,-3.5870552E1,3.655824E1,-6.1391003E1,-2.0758118E1,1.8306732E1,5.641332E1,-6.807105E1,-4.183005E1,-2.7823421E1,-7.871902E0,8.25551E0,3.506438E1,4.7302353E1,7.169015E1,-4.7396073E0,-3.5673723E0,-4.8728672E1,-2.6117096E1,-3.685018E1,-1.631232E1,-1.681552E1,-2.9080262E0,-2.3605452E-1,1.8028826E1,2.116692E1,4.541405E1,4.057453E1,3.6313288E0,3.5837526E0,4.9603977E0,-3.2012846E0,-1.7144297E0,-5.4555964E-1,-1.9014474E0,-2.7336519E0,-3.1211649E1,-1.856971E1,6.4097226E-1,-1.9360405E1,-2.9046747E-1,-5.7047253E0,1.0151236E0,-7.086523E0,3.8166018E0,4.8963685E0,2.1175413E1,1.2766863E1,2.64645E1,1.9467287E0,3.1162848E0,3.1459055E1,2.7864866E0,-2.060356E0,-1.1455767E0,-1.4159057E1,-2.4955732E1,-1.3508049E0,-6.9089156E-1,-7.6945333E0,1.2773081E0,-1.4694628E1,2.128926E0,-1.219978E-1,9.139278E0,-5.557112E-2,5.4907125E-1,5.104286E-1,2.2538961E1,4.3217933E-1,8.6936915E-1,7.546489E-1,1.773318E0,9.612002E-1,3.3533714E1,-1.7683634E1,-7.2459273E0,-1.7714847E0,-9.491315E-1,-1.048244E1,1.2846503E0,3.5978943E-1,-1.5608743E-1,-1.0642188E0,-3.660271E-1,-1.6185452E-1,3.887885E-1,2.8044465E0,-3.8747694E0,6.364388E0,7.5344026E-1,7.278694E-1,1.4983109E0,1.1242735E0,2.145092E0,-3.6980373E-1,-1.9528414E1,-5.487978E-1,-6.5432556E-2,-1.25678625E1,-5.5761623E0,1.0860021E-2,1.2722126E-1,4.828422E0,-4.61319E-2,-2.9600987E-1,-1.0058817E-1,9.618817E-2,5.285592E-1,-1.2847283E0,-6.4607406E-1,-3.6225244E-1,-8.243699E-1,-4.3666863E-1,-1.3993435E-1,1.5577336E-1,3.548517E-1],"categories":[],"categories_nodes":[],"categories_segments":[],"categories_sizes":[],"default_left":[0,0,0,0,0,0,0,0,0,0,0,0,0,0,0,0,0,0,0,0,0,0,0,0,0,0,0,0,0,0,0,0,0,0,0,0,0,0,0,0,0,0,0,0,0,0,0,0,0,0,0,0,0,0,0,0,0,0,0,0,0,0,0,0,0,0,0,0,0,0,0,0,0,0,0,0,0,0,0,0,0,0,0,0,0,0,0,0,0,0,0,0,0,0,0,0,0,0,0,0,0,0,0,0,0,0,0,0,0,0,0,0,0,0,0,0,0],"id":0,"left_children":[1,3,5,7,9,11,13,15,17,19,21,23,25,27,29,-1,-1,31,33,35,37,39,41,43,45,47,49,51,-1,-1,-1,-1,-1,-1,-1,-1,53,55,-1,57,-1,59,-1,61,63,65,67,69,71,-1,-1,73,-1,-1,-1,75,77,-1,-1,79,81,83,85,87,89,-1,-1,-1,91,-1,-1,-1,-1,-1,93,95,97,-1,-1,99,101,-1,-1,-1,-1,-1,-1,103,105,107,-1,-1,-1,-1,-1,-1,109,-1,-1,111,113,-1,-1,115,-1,-1,-1,-1,-1,-1,-1,-1,-1,-1,-1,-1,-1],"loss_changes":[1.9590308E6,2.9806212E5,2.5657362E5,3.052525E4,4.4453875E4,6.2657445E4,3.8858875E4,7.98E3,5.4322656E3,3.1532906E4,7.7989697E3,1.982766E4,1.7716031E4,1.3111531E4,3.451875E3,0E0,0E0,8.669531E2,2.0449277E3,4.8731875E3,9.299625E3,1.6795605E3,6.762344E3,3.6844888E3,4.3111406E3,2.0010488E3,2.2026875E3,4.2564844E3,0E0,0E0,0E0,0E0,0E0,0E0,0E0,0E0,2.5153594E3,2.8662578E3,0E0,5.7235156E2,0E0,1.4913596E3,0E0,3.5441653E3,1.7558394E3,6.347945E2,1.0363047E3,5.710449E0,5.9265625E2,0E0,0E0,7.7359375E2,0E0,0E0,0E0,1.7413965E3,9.1397266E2,0E0,0E0,2.1010586E3,5.0409583E2,4.178047E2,5.5652203E2,5.8130743E2,1.2103076E2,0E0,0E0,0E0,1.1440195E3,0E0,0E0,0E0,0E0,0E0,5.2027344E1,8.4736523E2,3.5113477E2,0E0,0E0,4.5919775E2,1.7694069E1,0E0,0E0,0E0,0E0,0E0,0E0,2.2611192E2,2.8981476E1,2.4380005E2,0E0,0E0,0E0,0E0,0E0,0E0,1.3413867E2,0E0,0E0,9.162012E1,8.017267E1,0E0,0E0,3.156372E0,0E0,0E0,0E0,0E0,0E0,0E0,0E0,0E0,0E0,0E0,0E0,0E0,0E0],"parents":[2147483647,0,0,1,1,2,2,3,3,4,4,5,5,6,6,7,7,8,8,9,9,10,10,11,11,12,12,13,13,14,14,17,17,18,18,19,19,20,20,21,21,22,22,23,23,24,24,25,25,26,26,27,27,36,36,37,37,39,39,41,41,43,43,44,44,45,45,46,46,47,47,48,48,51,51,55,55,56,56,59,59,60,60,61,61,62,62,63,63,64,64,68,68,74,74,75,75,76,76,79,79,80,80,87,87,88,88,89,89,96,96,99,99,100,100,103,103],"right_children":[2,4,6,8,10,12,14,16,18,20,22,24,26,28,30,-1,-1,32,34,36,38,40,42,44,46,48,50,52,-1,-1,-1,-1,-1,-1,-1,-1,54,56,-1,58,-1,60,-1,62,64,66,68,70,72,-1,-1,74,-1,-1,-1,76,78,-1,-1,80,82,84,86,88,90,-1,-1,-1,92,-1,-1,-1,-1,-1,94,96,98,-1,-1,100,102,-1,-1,-1,-1,-1,-1,104,106,108,-1,-1,-1,-1,-1,-1,110,-1,-1,112,114,-1,-1,116,-1,-1,-1,-1,-1,-1,-1,-1,-1,-1,-1,-1,-1],"split_conditions":[2.2291081E2,1.8633694E2,2.6656122E2,1.3E1,5E0,9E0,2E1,1.655799E2,1.7358496E2,2.1248442E2,2.0568094E2,2.5085074E2,2.5085074E2,2.8275085E2,2.798617E2,-4.7396073E0,-3.5673723E0,3.3E1,1.62E2,-2E1,3.1E1,3.8E1,4.7E1,-1.2E1,-3.6E1,2.7693637E2,-9E0,-1.1E1,3.6313288E0,3.5837526E0,4.9603977E0,-3.2012846E0,-1.7144297E0,-5.4555964E-1,-1.9014474E0,-2.7336519E0,2.08E2,5E0,6.4097226E-1,6E0,-2.9046747E-1,2.11E2,1.0151236E0,2.4530801E2,2.2724341E2,2.79E2,-4.2E1,-2.7E1,1.3E1,1.9467287E0,3.1162848E0,2.78E2,2.7864866E0,-2.060356E0,-1.1455767E0,-1.2E1,-1.1E1,-1.3508049E0,-6.9089156E-1,2.7E1,2.11E2,-2E1,2.5775E2,2.1937778E2,2.36E2,-5.557112E-2,5.4907125E-1,5.104286E-1,-3E1,4.3217933E-1,8.6936915E-1,7.546489E-1,1.773318E0,9.612002E-1,1.0969655E1,2.11E2,2.23E2,-1.7714847E0,-9.491315E-1,2.05E2,1.89E2,3.5978943E-1,-1.5608743E-1,-1.0642188E0,-3.660271E-1,-1.6185452E-1,3.887885E-1,2.11E2,3E0,-6E0,7.5344026E-1,7.278694E-1,1.4983109E0,1.1242735E0,2.145092E0,-3.6980373E-1,0E0,-5.487978E-1,-6.5432556E-2,2E0,1.5E1,1.0860021E-2,1.2722126E-1,1.7E1,-4.61319E-2,-2.9600987E-1,-1.0058817E-1,9.618817E-2,5.285592E-1,-1.2847283E0,-6.4607406E-1,-3.6225244E-1,-8.243699E-1,-4.3666863E-1,-1.3993435E-1,1.5577336E-1,3.548517E-1],"split_indices":[9,9,9,22,22,22,24,9,9,9,9,9,9,9,9,0,0,22,2,23,24,22,22,23,23,21,24,22,0,0,0,0,0,0,0,0,4,0,0,7,0,1,0,9,9,4,24,7,12,0,0,1,0,0,0,22,22,0,0,22,2,22,6,11,6,0,0,0,22,0,0,0,0,0,12,10,1,0,0,1,1,0,0,0,0,0,0,2,0,22,0,0,0,0,0,0,23,0,0,0,22,0,0,7,0,0,0,0,0,0,0,0,0,0,0,0,0],"split_type":[0,0,0,0,0,0,0,0,0,0,0,0,0,0,0,0,0,0,0,0,0,0,0,0,0,0,0,0,0,0,0,0,0,0,0,0,0,0,0,0,0,0,0,0,0,0,0,0,0,0,0,0,0,0,0,0,0,0,0,0,0,0,0,0,0,0,0,0,0,0,0,0,0,0,0,0,0,0,0,0,0,0,0,0,0,0,0,0,0,0,0,0,0,0,0,0,0,0,0,0,0,0,0,0,0,0,0,0,0,0,0,0,0,0,0,0,0],"sum_hessian":[1.4915939E3,7.78783E2,7.1281085E2,2.8675006E2,4.9203296E2,3.7395557E2,3.3885532E2,2.0904778E2,7.77023E1,3.158684E2,1.7616455E2,2.3613611E2,1.3781944E2,2.1878873E2,1.20066574E2,8.562792E1,1.2341985E2,5.027172E1,2.7430582E1,1.738857E2,1.4198271E2,6.0678867E1,1.1548569E2,1.2764805E2,1.0848807E2,6.214326E1,7.567618E1,1.5110788E2,6.768084E1,6.395484E1,5.6111736E1,3.783715E1,1.243457E1,8.311585E0,1.9118996E1,6.1961514E1,1.1192418E2,1.3175777E2,1.0224952E1,4.8734516E1,1.1944352E1,1.0277476E2,1.2710932E1,4.6789646E1,8.08584E1,2.2254482E1,8.623358E1,2.7415218E1,3.4728043E1,2.9778252E1,4.589793E1,6.454857E1,8.655932E1,8.606393E1,2.5860254E1,8.2804214E1,4.8953545E1,3.1654247E1,1.7080269E1,7.983869E1,2.2936062E1,2.4835981E1,2.1953665E1,4.78374E1,3.3021004E1,1.0138074E1,1.2116409E1,1.0173297E1,7.606029E1,9.473369E0,1.794185E1,8.487174E0,2.6240868E1,1.0254006E1,5.429456E1,5.217702E1,3.0627193E1,2.9156855E1,1.9796692E1,6.0644173E1,1.9194525E1,9.797944E0,1.3138118E1,1.6427828E1,8.408153E0,1.0786602E1,1.1167063E1,2.7158459E1,2.067894E1,2.2218996E1,1.0802006E1,1.6839176E1,5.9221107E1,9.834554E0,4.4460007E1,8.741978E0,4.3435043E1,2.2499662E1,8.127531E0,3.9702663E1,2.0941507E1,9.822977E0,9.371548E0,1.6857973E1,1.0300486E1,1.176316E1,8.915781E0,8.958699E0,1.3260297E1,3.2984066E1,1.0450978E1,8.237286E0,3.146538E1,1.165493E1,9.286577E0,8.389513E0,8.46846E0],"tree_param":{"num_deleted":"0","num_feature":"25","num_nodes":"117","size_leaf_vector":"1"}},{"base_weights":[-9.215137E-1,-2.73898E1,4.0866673E1,-5.17806E1,-7.8835025E0,2.2092546E1,5.162706E1,-6.771985E1,-3.9462437E1,-1.5168642E1,1.3079993E1,1.2435556E1,3.7102005E1,4.1590706E1,6.2426895E1,-4.1734385E0,-1.6089884E0,-2.7309997E0,-2.5555712E1,-2.0997168E1,-1.9727192E0,-5.03344E-1,2.2337234E1,-3.3881566E-1,1.4861377E1,2.329745E1,2.5820463E0,3.6292206E1,3.5682986E0,3.2298815E0,4.571088E0,-2.7819208E1,-4.4037262E-1,-2.9206783E1,-1.5355427E1,-1.0039299E1,3.5061839E0,-8.178183E0,6.123317E0,1.1687423E1,1.7803068E0,7.1119165E0,1.9485136E1,1.7000684E0,7.9337484E-1,1.3532151E0,3.851984E1,-1.9186437E0,-1.0719802E0,-3.27792E1,-1.0680882E0,-1.7574625E1,1.0829633E0,-9.9352777E-1,-2.5513473E0,-1.7210647E0,8.274656E0,-6.883554E-1,-1.797225E-1,5.153543E-1,1.296918E-1,5.772791E0,1.0154501E0,1.6888472E0,7.434474E-1,1.4804235E1,1.4474617E0,1.6775935E0,2.447929E0,-2.1887543E0,-1.4264009E0,-2.3057999E1,-1.3957455E1,4.264648E-1,-3.1751385E-1,-3.8803282E-1,2.2595017E-1,-5.6655803E0,3.437327E-1,5.399997E0,7.4283946E-1,9.484171E-2,4.954121E-1,-1.3837403E-1,2.5700787E-1,4.0482026E-1,1.0327418E0,-1.501097E0,-7.061062E-1,-1.7621233E1,-8.836621E0,-4.774858E-1,-9.62022E-2,3.906126E-1,1.6395104E-1,-1.201038E0,-5.809692E-1,-7.1627164E-1,-3.2753396E-1],"categories":[],"categories_nodes":[],"categories_segments":[],"categories_sizes":[],"default_left":[0,0,0,0,0,0,0,0,0,0,0,0,0,0,0,0,0,0,0,0,0,0,0,0,0,0,0,0,0,0,0,0,0,0,0,0,0,0,0,0,0,0,0,0,0,0,0,0,0,0,0,0,0,0,0,0,0,0,0,0,0,0,0,0,0,0,0,0,0,0,0,0,0,0,0,0,0,0,0,0,0,0,0,0,0,0,0,0,0,0,0,0,0,0,0,0,0,0,0],"id":1,"left_children":[1,3,5,7,9,11,13,15,17,19,21,23,25,27,29,-1,-1,-1,31,33,35,37,39,-1,41,43,-1,45,-1,-1,-1,47,-1,49,51,53,55,57,59,61,-1,63,65,-1,-1,-1,67,-1,-1,69,-1,71,73,-1,75,77,79,-1,-1,-1,-1,81,-1,83,-1,85,-1,-1,-1,-1,-1,87,89,-1,-1,-1,-1,91,-1,93,-1,-1,-1,-1,-1,-1,-1,-1,-1,95,97,-1,-1,-1,-1,-1,-1,-1,-1],"loss_changes":[1.6464576E6,4.325068E5,1.13684875E5,7.258675E4,7.829334E4,2.9933094E4,3.2929875E4,6.5335E3,1.6224656E4,2.9047125E4,1.6726443E4,6.110828E3,4.0383906E3,1.29268125E4,9.8441875E3,0E0,0E0,0E0,2.585629E3,1.1008172E4,5.351848E3,2.9882466E3,5.1848906E3,0E0,3.9097754E3,5.3469336E2,0E0,2.6364844E3,0E0,0E0,0E0,1.221832E3,0E0,2.7668516E3,5.9338164E3,2.2455093E3,1.8517844E3,3.6521436E2,2.5304724E2,8.48647E2,0E0,1.3200676E3,6.384414E2,0E0,0E0,0E0,1.07515625E2,0E0,0E0,2.6572656E2,0E0,1.9833906E3,9.163222E2,0E0,6.922736E2,1.158356E3,2.7147632E2,0E0,0E0,0E0,0E0,1.7612024E2,0E0,3.022172E2,0E0,5.063506E2,0E0,0E0,0E0,0E0,0E0,3.5413086E2,1.3194062E3,0E0,0E0,0E0,0E0,1.9599066E2,0E0,2.9339478E1,0E0,0E0,0E0,0E0,0E0,0E0,0E0,0E0,0E0,4.436172E2,2.7947803E2,0E0,0E0,0E0,0E0,0E0,0E0,0E0,0E0],"parents":[2147483647,0,0,1,1,2,2,3,3,4,4,5,5,6,6,7,7,8,8,9,9,10,10,11,11,12,12,13,13,14,14,18,18,19,19,20,20,21,21,22,22,24,24,25,25,27,27,31,31,33,33,34,34,35,35,36,36,37,37,38,38,39,39,41,41,42,42,46,46,49,49,51,51,52,52,54,54,55,55,56,56,61,61,63,63,65,65,71,71,72,72,77,77,79,79,89,89,90,90],"right_children":[2,4,6,8,10,12,14,16,18,20,22,24,26,28,30,-1,-1,-1,32,34,36,38,40,-1,42,44,-1,46,-1,-1,-1,48,-1,50,52,54,56,58,60,62,-1,64,66,-1,-1,-1,68,-1,-1,70,-1,72,74,-1,76,78,80,-1,-1,-1,-1,82,-1,84,-1,86,-1,-1,-1,-1,-1,88,90,-1,-1,-1,-1,92,-1,94,-1,-1,-1,-1,-1,-1,-1,-1,-1,96,98,-1,-1,-1,-1,-1,-1,-1,-1],"split_conditions":[2.13E2,2.0000986E2,2.6578223E2,1.7191483E2,2E1,3E0,4E0,3.2E1,1E1,2.2089323E2,2.1649417E2,2.39E2,2.5552184E2,2.889644E2,2.798617E2,-4.1734385E0,-1.6089884E0,-2.7309997E0,4.4E1,-1.8E1,-2E1,2.0325E2,2.6544604E2,-3.3881566E-1,-2.6E1,1.7521416E1,2.5820463E0,-3E1,3.5682986E0,3.2298815E0,4.571088E0,-6E0,-4.4037262E-1,2.1747404E2,2.22E2,-1.1E1,1E0,1.87E2,1.83E2,3.1E1,1.7803068E0,-1.4E1,2.62E2,1.7000684E0,7.9337484E-1,1.3532151E0,-2.1E1,-1.9186437E0,-1.0719802E0,-1.1E1,-1.0680882E0,-1E0,1.81E2,-9.9352777E-1,2.15E2,2.32E2,2.185E2,-6.883554E-1,-1.797225E-1,5.153543E-1,1.296918E-1,2.2353386E2,1.0154501E0,4.226804E-1,7.434474E-1,-1.1E1,1.4474617E0,1.6775935E0,2.447929E0,-2.1887543E0,-1.4264009E0,2.1726373E2,2.1075E2,4.264648E-1,-3.1751385E-1,-3.8803282E-1,2.2595017E-1,2.1625E2,3.437327E-1,2.175E2,7.4283946E-1,9.484171E-2,4.954121E-1,-1.3837403E-1,2.5700787E-1,4.0482026E-1,1.0327418E0,-1.501097E0,-7.061062E-1,-4E0,2.987013E-1,-4.774858E-1,-9.62022E-2,3.906126E-1,1.6395104E-1,-1.201038E0,-5.809692E-1,-7.1627164E-1,-3.2753396E-1],"split_indices":[14,9,9,9,22,22,22,22,22,9,9,1,9,9,9,0,0,0,22,22,22,6,21,0,22,12,0,23,0,0,0,7,0,9,1,23,7,1,14,24,0,23,1,0,0,0,24,0,0,24,0,22,14,0,4,1,16,0,0,0,0,9,0,19,0,22,0,0,0,0,0,9,6,0,0,0,0,6,0,16,0,0,0,0,0,0,0,0,0,7,19,0,0,0,0,0,0,0,0],"split_type":[0,0,0,0,0,0,0,0,0,0,0,0,0,0,0,0,0,0,0,0,0,0,0,0,0,0,0,0,0,0,0,0,0,0,0,0,0,0,0,0,0,0,0,0,0,0,0,0,0,0,0,0,0,0,0,0,0,0,0,0,0,0,0,0,0,0,0,0,0,0,0,0,0,0,0,0,0,0,0,0,0,0,0,0,0,0,0,0,0,0,0,0,0,0,0,0,0,0,0],"sum_hessian":[1.4834836E3,9.087653E2,5.747183E2,4.0194717E2,5.0681815E2,2.122259E2,3.624924E2,1.7023155E2,2.3171562E2,3.766517E2,1.3016644E2,1.3198035E2,8.024556E1,1.9428574E2,1.6820667E2,1.621695E2,8.062055E0,1.5869069E2,7.3024925E1,2.6018967E2,1.16462036E2,5.3704433E1,7.6462006E1,1.5204587E1,1.16775764E2,2.7474337E1,5.2771225E1,1.5544707E2,3.8838673E1,1.0952769E2,5.867898E1,6.3754505E1,9.270423E0,1.01626595E2,1.5856306E2,4.6292538E1,7.0169495E1,2.4646215E1,2.9058218E1,3.3629917E1,4.2832092E1,4.608478E1,7.069098E1,1.5382349E1,1.2091987E1,2.5515625E1,1.2993144E2,4.143613E1,2.2318377E1,7.386172E1,2.776488E1,1.3957703E2,1.8986034E1,2.3174559E1,2.311798E1,3.419423E1,3.597527E1,1.3217746E1,1.1428471E1,1.6109453E1,1.2948764E1,1.824675E1,1.5383167E1,2.433247E1,2.175231E1,4.023086E1,3.046012E1,2.7669037E1,1.022624E2,4.7527477E1,2.6334238E1,5.000477E1,8.957226E1,9.660704E0,9.325331E0,1.4308811E1,8.809169E0,2.277556E1,1.1418667E1,2.46009E1,1.137437E1,8.348443E0,9.898306E0,9.586604E0,1.4745866E1,1.13113785E1,2.8919483E1,4.0263737E1,9.74103E0,4.854766E1,4.10246E1,1.3001457E1,9.774104E0,1.4789402E1,9.811499E0,3.4586014E1,1.3961645E1,1.8167027E1,2.2857574E1],"tree_param":{"num_deleted":"0","num_feature":"25","num_nodes":"99","size_leaf_vector":"1"}},{"base_weights":[1.0363681E0,-2.8291664E1,3.6772392E1,-5.1714252E1,-1.2905077E1,2.2456173E1,5.3625313E1,-6.3013252E1,-4.18315E1,-1.8423437E1,3.0402794E0,1.52270975E1,3.397496E1,4.5532127E1,4.076554E0,-4.1326957E0,-2.5485973E0,-4.4592308E1,-1.8609793E1,-2.635338E1,-1.1571305E1,-8.239483E0,1.1082307E1,8.4550295E0,2.864719E1,2.174472E1,4.1406628E1,4.006663E1,3.6033778E0,-2.9863935E0,-3.632651E1,-1.5289834E0,-6.12989E-1,-3.2373245E1,-2.0086617E1,-1.9590315E1,-5.446293E0,-1.2093907E1,4.2287138E-1,3.2996123E0,1.9626348E1,-1.5245583E0,1.1791041E1,1.1096087E0,1.9241617E0,1.012871E0,1.7859304E0,1.717445E0,2.7393966E0,2.963769E1,2.6199028E0,-2.340333E0,-1.0835342E0,-2.2285252E0,-1.4518044E0,-1.5326886E1,-1.5571544E0,-1.4538288E0,-8.5263616E-1,-6.9852877E0,3.2887661E0,-1.2194748E0,-8.294738E0,-1.1970302E0,7.04305E-1,7.7499956E-1,1.7200539E0,3.006796E0,-7.8430843E-1,6.615659E0,1.682247E1,8.819746E-1,2.0362732E0,-3.1831554E-1,-1.0580482E0,-8.76438E0,1.0881883E-1,2.5985846E-2,3.1807417E-1,-6.184579E-1,-9.23553E-2,-1.6344734E-1,5.5848356E-2,-6.980898E-2,3.4410435E-1,1.1742585E0,1.1785081E1,8.501396E0,1.2069868E0,-1.2141766E1,-2.2847216E0,-1.6427768E0,3.7441915E-1,2.2894281E-1,8.5537106E-1,2.6412493E-1,6.3448626E-1,-1.4151454E1,-3.9349777E-1,-4.926031E-1,-3.18846E-1,-2.249187E-1,6.0589235E-2,-9.7345585E-1,-4.5418897E-1,-1.9431053E-1,1.5181188E-1],"categories":[],"categories_nodes":[],"categories_segments":[],"categories_sizes":[],"default_left":[0,0,0,0,0,0,0,0,0,0,0,0,0,0,0,0,0,0,0,0,0,0,0,0,0,0,0,0,0,0,0,0,0,0,0,0,0,0,0,0,0,0,0,0,0,0,0,0,0,0,0,0,0,0,0,0,0,0,0,0,0,0,0,0,0,0,0,0,0,0,0,0,0,0,0,0,0,0,0,0,0,0,0,0,0,0,0,0,0,0,0,0,0,0,0,0,0,0,0,0,0,0,0,0,0,0,0],"id":2,"left_children":[1,3,5,7,9,11,13,15,17,19,21,23,25,27,-1,-1,-1,29,31,33,35,37,39,41,43,45,47,49,-1,-1,51,-1,-1,53,55,57,59,61,-1,63,65,67,69,-1,-1,-1,-1,-1,-1,71,-1,-1,-1,-1,-1,73,-1,-1,-1,75,77,-1,79,81,-1,-1,-1,83,-1,85,87,-1,-1,-1,-1,89,-1,-1,-1,-1,-1,-1,-1,-1,-1,91,93,95,-1,97,99,101,-1,-1,-1,-1,-1,103,-1,105,-1,-1,-1,-1,-1,-1,-1],"loss_changes":[1.5050138E6,2.8253425E5,1.5307106E5,2.8087125E4,4.2335883E4,2.8169E4,2.5788438E4,8.915625E3,9.013344E3,1.8580812E4,1.1609355E4,1.9572398E4,9.913594E3,9.151969E3,0E0,0E0,0E0,1.7432188E3,6.3252734E2,4.482922E3,9.334676E3,3.3726116E3,4.7658184E3,5.0910156E3,9.6547266E2,9.016797E2,9.3165625E2,2.0478906E3,0E0,0E0,1.3395E3,0E0,0E0,7.360469E2,1.3567773E3,1.1853652E3,1.6004114E3,9.1591797E2,0E0,1.6259607E3,1.1528594E3,2.1961162E3,2.6685693E3,0E0,0E0,0E0,0E0,0E0,0E0,1.5387773E3,0E0,0E0,0E0,0E0,0E0,9.6526855E2,0E0,0E0,0E0,1.5810942E3,9.848891E1,0E0,4.108794E2,1.02737434E2,0E0,0E0,0E0,3.6687845E2,0E0,1.6548557E3,1.0549395E3,0E0,0E0,0E0,0E0,1.7213477E3,0E0,0E0,0E0,0E0,0E0,0E0,0E0,0E0,0E0,4.8660364E2,4.449917E2,4.320337E1,0E0,3.5640332E2,1.5945534E2,1.3643576E2,0E0,0E0,0E0,0E0,0E0,1.7212793E2,0E0,2.0687918E2,0E0,0E0,0E0,0E0,0E0,0E0,0E0],"parents":[2147483647,0,0,1,1,2,2,3,3,4,4,5,5,6,6,7,7,8,8,9,9,10,10,11,11,12,12,13,13,17,17,18,18,19,19,20,20,21,21,22,22,23,23,24,24,25,25,26,26,27,27,30,30,33,33,34,34,35,35,36,36,37,37,39,39,40,40,41,41,42,42,49,49,55,55,59,59,60,60,62,62,63,63,67,67,69,69,70,70,75,75,85,85,86,86,87,87,89,89,90,90,91,91,97,97,99,99],"right_children":[2,4,6,8,10,12,14,16,18,20,22,24,26,28,-1,-1,-1,30,32,34,36,38,40,42,44,46,48,50,-1,-1,52,-1,-1,54,56,58,60,62,-1,64,66,68,70,-1,-1,-1,-1,-1,-1,72,-1,-1,-1,-1,-1,74,-1,-1,-1,76,78,-1,80,82,-1,-1,-1,84,-1,86,88,-1,-1,-1,-1,90,-1,-1,-1,-1,-1,-1,-1,-1,-1,92,94,96,-1,98,100,102,-1,-1,-1,-1,-1,104,-1,106,-1,-1,-1,-1,-1,-1,-1],"split_conditions":[2.2462074E2,1.9451416E2,2.6905173E2,-2.2E1,2.3E1,1E1,1.4E1,1.7746973E2,4E1,-8E0,1.86E2,2.6329465E2,2.5030814E2,2.9009024E2,4.076554E0,-4.1326957E0,-2.5485973E0,4E0,1.5E1,2.127176E2,2.1179536E2,2.8262988E2,4E1,2.285631E2,-1.9E1,4.3E1,-2.7E1,-2.5E1,3.6033778E0,-2.9863935E0,5.952381E-1,-1.5289834E0,-6.12989E-1,6.5217394E-1,2.19E2,-1.7E1,2.2291081E2,1.56E2,4.2287138E-1,2.05E2,5.6E1,2.38E2,-8E0,1.1096087E0,1.9241617E0,1.012871E0,1.7859304E0,1.717445E0,2.7393966E0,5E0,2.6199028E0,-2.340333E0,-1.0835342E0,-2.2285252E0,-1.4518044E0,1.99E2,-1.5571544E0,-1.4538288E0,-8.5263616E-1,2.8E1,2.17E2,-1.2194748E0,4.6E1,1.96E2,7.04305E-1,7.7499956E-1,1.7200539E0,1.7E1,-7.8430843E-1,-2.4E1,2.6951895E2,8.819746E-1,2.0362732E0,-3.1831554E-1,-1.0580482E0,-5E0,1.0881883E-1,2.5985846E-2,3.1807417E-1,-6.184579E-1,-9.23553E-2,-1.6344734E-1,5.5848356E-2,-6.980898E-2,3.4410435E-1,-3E1,1.6949153E-1,7.937254E0,1.2069868E0,3.6697248E-1,2.2092857E2,-2.7E1,3.7441915E-1,2.2894281E-1,8.5537106E-1,2.6412493E-1,6.3448626E-1,2.1842842E2,-3.9349777E-1,2.1592505E2,-3.18846E-1,-2.249187E-1,6.0589235E-2,-9.7345585E-1,-4.5418897E-1,-1.9431053E-1,1.5181188E-1],"split_indices":[9,9,9,24,24,22,22,9,24,22,5,9,9,9,0,0,0,22,22,9,9,21,24,9,24,22,7,22,0,0,17,0,0,17,2,7,9,5,0,5,24,3,23,0,0,0,0,0,0,7,0,0,0,0,0,3,0,0,0,22,3,0,24,5,0,0,0,24,0,22,21,0,0,0,0,7,0,0,0,0,0,0,0,0,0,24,17,12,0,18,10,23,0,0,0,0,0,9,0,9,0,0,0,0,0,0,0],"split_type":[0,0,0,0,0,0,0,0,0,0,0,0,0,0,0,0,0,0,0,0,0,0,0,0,0,0,0,0,0,0,0,0,0,0,0,0,0,0,0,0,0,0,0,0,0,0,0,0,0,0,0,0,0,0,0,0,0,0,0,0,0,0,0,0,0,0,0,0,0,0,0,0,0,0,0,0,0,0,0,0,0,0,0,0,0,0,0,0,0,0,0,0,0,0,0,0,0,0,0,0,0,0,0,0,0,0,0],"sum_hessian":[1.4309349E3,7.8621387E2,6.4472107E2,3.0932233E2,4.7689154E2,3.5180936E2,2.9291174E2,1.3793777E2,1.7138455E2,3.540139E2,1.22877655E2,2.1979759E2,1.3201176E2,1.9282735E2,1.0008438E2,1.0382013E2,3.4117653E1,1.510688E2,2.0315754E1,1.6072125E2,1.9329263E2,5.109029E1,7.178737E1,1.4885367E2,7.094391E1,5.3684845E1,7.832691E1,1.4653662E2,4.6290733E1,8.6156876E1,6.491192E1,8.395721E0,1.19200325E1,7.654698E1,8.417427E1,8.125424E1,1.1203839E2,4.1237064E1,9.853225E0,3.9438507E1,3.2348866E1,3.7597973E1,1.112557E2,2.1465754E1,4.9478157E1,3.8024395E1,1.5660449E1,2.3772217E1,5.45547E1,4.246453E1,1.0407209E2,5.4488754E1,1.0423169E1,4.333553E1,3.3211452E1,5.1268734E1,3.2905537E1,3.9383625E1,4.1870613E1,9.573885E1,1.629954E1,9.56949E0,3.1667572E1,2.7059174E1,1.2379333E1,2.198203E1,1.0366833E1,2.8281338E1,9.316635E0,5.778736E1,5.3468338E1,1.1777397E1,3.0687132E1,1.096607E1,4.030266E1,7.9683846E1,1.6055006E1,8.07554E0,8.224E0,2.342494E1,8.242632E0,1.5519461E1,1.1539712E1,1.1635283E1,1.6646055E1,2.9718239E1,2.8069122E1,1.7548187E1,3.592015E1,5.087163E1,2.8812214E1,2.0098E1,9.620239E0,8.098464E0,1.997066E1,8.541466E0,9.006722E0,3.4535164E1,1.633647E1,2.0020113E1,8.792101E0,1.07590275E1,9.338972E0,2.3592718E1,1.0942444E1,1.0494636E1,9.525478E0],"tree_param":{"num_deleted":"0","num_feature":"25","num_nodes":"107","size_leaf_vector":"1"}},{"base_weights":[-1.4117706E0,-2.4742128E1,3.6516556E1,-4.67542E1,-1.2683801E1,2.608952E1,4.8230267E1,-5.2988274E1,-1.5543013E1,-2.14873E1,-1.8920621E0,1.8497505E1,4.0674107E1,3.899476E1,4.1335263E0,-5.595636E1,-3.528383E1,-2.3761337E1,1.4314861E0,-3.334211E1,-1.71412E1,-1.6021925E1,5.1769323E0,5.604087E0,2.382226E1,2.3377056E1,4.943548E1,3.1457106E1,4.9985245E1,-5.7661568E1,-1.8881406E0,-2.2941875E0,-1.1271002E0,-1.6764332E0,-3.2922852E-1,-2.520888E0,-2.5408905E1,-2.9605938E1,-1.2251494E1,-2.1761219E1,-2.190222E0,-6.7641926E-1,1.7443407E1,-5.568441E-1,9.280719E0,1.1513161E1,2.601173E1,1.3792448E1,1.8723239E0,1.8480731E0,3.1890259E0,1.6802656E1,2.244333E0,2.26044E0,3.370974E0,-4.5501075E0,-5.347843E1,-1.7114105E0,-1.0326879E0,-1.9115714E0,-1.0260507E0,-1.4457221E1,-1.1005876E0,-2.5694263E1,-1.2633542E1,-6.1792284E-1,4.8708194E-1,-6.7815123E0,8.3211565E0,1.0552745E1,1.5484954E0,-1.4736961E-1,1.3492424E1,3.4280586E-1,8.2201785E-1,6.1734253E-1,2.7788116E1,4.7706926E-1,1.0185027E0,5.2029294E-1,1.2558022E0,-3.4638443E0,-2.6644185E0,-1.7484346E1,-3.972452E0,-3.9747121E0,2.9684508E-1,-1.6811928E0,-7.7254224E-1,-1.0778764E0,-4.071938E-1,-1.0366645E1,-0E0,2.9860795E0,1.1263162E1,1.789502E-1,8.712035E-1,-7.499946E-2,5.4239687E-2,1.7980042E1,2.370832E-1,2.1441284E1,1.842238E0,-1.3869917E0,-1.4343767E1,-3.0958813E-1,-3.4016877E-2,-3.8120794E-1,-3.2817036E-2,-8.133969E-1,-2.9170114E-1,-2.9035847E0,2.9528737E-1,-4.7158852E-2,4.107078E-1,8.648368E-1,2.858125E-1,5.5038846E-1,1.2555373E0,6.9909585E-1,1.404375E0,-1.0006953E0,-8.050998E0,-2.6244918E-1,-4.974536E-2,-5.8021224E-1,-2.7809444E-1],"categories":[],"categories_nodes":[],"categories_segments":[],"categories_sizes":[],"default_left":[0,0,0,0,0,1,0,0,0,0,0,0,0,0,0,0,0,0,0,0,0,0,0,0,0,0,0,0,0,0,0,0,0,0,0,0,0,0,0,0,0,0,0,0,0,0,0,0,0,0,0,0,0,0,0,0,0,0,0,0,0,0,0,0,0,0,0,0,0,0,0,0,0,0,0,0,1,0,0,0,0,0,0,0,0,0,0,0,0,0,0,0,0,0,0,0,0,0,0,0,0,0,0,0,0,0,0,0,0,0,0,0,0,0,0,0,0,0,0,0,0,0,0,0,0,0,0],"id":3,"left_children":[1,3,5,7,9,11,13,15,17,19,21,23,25,27,-1,29,31,33,-1,35,37,39,41,43,45,47,49,51,53,55,-1,-1,-1,-1,-1,-1,57,59,61,63,65,67,69,-1,71,73,75,77,-1,-1,-1,79,-1,-1,-1,-1,81,-1,-1,-1,-1,83,85,87,89,-1,-1,91,93,95,-1,97,99,-1,-1,-1,101,-1,-1,-1,-1,-1,-1,103,105,107,-1,-1,-1,-1,-1,109,111,113,115,-1,-1,-1,-1,117,-1,119,-1,-1,121,-1,-1,-1,-1,-1,-1,123,-1,-1,-1,-1,-1,-1,-1,-1,-1,-1,125,-1,-1,-1,-1],"loss_changes":[1.355958E6,2.5027338E5,6.805581E4,6.3019812E4,5.8447188E4,3.2865156E4,4.4423062E4,9.55575E3,2.0605857E4,1.6001469E4,2.8157652E4,1.4158664E4,1.30155E4,1.1965875E4,0E0,5.173875E3,3.4677734E2,3.3559648E3,0E0,3.2385078E3,1.4506641E4,7.322832E3,1.3562252E4,3.7738516E3,3.231164E3,1.8696914E3,3.1265625E2,8.731297E3,1.6425E2,5.8336875E3,0E0,0E0,0E0,0E0,0E0,0E0,3.98125E1,4.7552734E2,4.536127E3,1.5289121E3,2.7332886E3,7.278657E3,2.7688691E3,0E0,2.1363926E3,1.2952295E2,2.7367188E3,6.0609863E1,0E0,0E0,0E0,8.22291E2,0E0,0E0,0E0,0E0,3.47E2,0E0,0E0,0E0,0E0,4.7438496E3,6.30937E2,3.218164E2,4.5090063E2,0E0,0E0,1.9197551E3,7.4883154E2,9.979502E2,0E0,2.4883184E1,1.3973999E3,0E0,0E0,0E0,2.7301562E2,0E0,0E0,0E0,0E0,0E0,0E0,1.2307891E3,1.4151373E2,1.8314447E2,0E0,0E0,0E0,0E0,0E0,7.1971533E2,4.6057553E2,3.4300922E2,4.9549268E2,0E0,0E0,0E0,0E0,1.2188818E2,0E0,7.830859E1,0E0,0E0,8.403496E2,0E0,0E0,0E0,0E0,0E0,0E0,4.9343872E1,0E0,0E0,0E0,0E0,0E0,0E0,0E0,0E0,0E0,0E0,2.7073486E1,0E0,0E0,0E0,0E0],"parents":[2147483647,0,0,1,1,2,2,3,3,4,4,5,5,6,6,7,7,8,8,9,9,10,10,11,11,12,12,13,13,15,15,16,16,17,17,19,19,20,20,21,21,22,22,23,23,24,24,25,25,26,26,27,27,28,28,29,29,36,36,37,37,38,38,39,39,40,40,41,41,42,42,44,44,45,45,46,46,47,47,51,51,56,56,61,61,62,62,63,63,64,64,67,67,68,68,69,69,71,71,72,72,76,76,83,83,84,84,85,85,91,91,92,92,93,93,94,94,99,99,101,101,104,104,111,111,122,122],"right_children":[2,4,6,8,10,12,14,16,18,20,22,24,26,28,-1,30,32,34,-1,36,38,40,42,44,46,48,50,52,54,56,-1,-1,-1,-1,-1,-1,58,60,62,64,66,68,70,-1,72,74,76,78,-1,-1,-1,80,-1,-1,-1,-1,82,-1,-1,-1,-1,84,86,88,90,-1,-1,92,94,96,-1,98,100,-1,-1,-1,102,-1,-1,-1,-1,-1,-1,104,106,108,-1,-1,-1,-1,-1,110,112,114,116,-1,-1,-1,-1,118,-1,120,-1,-1,122,-1,-1,-1,-1,-1,-1,124,-1,-1,-1,-1,-1,-1,-1,-1,-1,-1,126,-1,-1,-1,-1],"split_conditions":[1.93E2,1.67E2,3E0,2.4E1,6E0,2.89E2,2.73E2,2E1,3.260733E1,-2E1,1.86E2,-3.3E1,-3.9E1,2.8E1,4.1335263E0,2.11E2,1.6E2,2.05E2,1.4314861E0,2.19E2,1.93E2,4.7E1,3.6E1,2.68E2,2.58E2,3.06E2,2.93E2,2.42E2,2.4E2,-3.5E1,-1.8881406E0,-2.2941875E0,-1.1271002E0,-1.6764332E0,-3.2922852E-1,-2.520888E0,-3.5E1,1.5E1,1.2E1,1.78E2,1.7E2,2.1E2,1.99E2,-5.568441E-1,-3.6E1,2.62E2,-2.8E1,-5.2E1,1.8723239E0,1.8480731E0,3.1890259E0,2.29E2,2.244333E0,2.26044E0,3.370974E0,-4.5501075E0,1.7E2,-1.7114105E0,-1.0326879E0,-1.9115714E0,-1.0260507E0,2.24E2,2.7E1,1.5E1,2.8E1,-6.1792284E-1,4.8708194E-1,2.1E1,2.16E2,4.5E1,1.5484954E0,-2.6E1,2.84E2,3.4280586E-1,8.2201785E-1,6.1734253E-1,2.69E2,4.7706926E-1,1.0185027E0,5.2029294E-1,1.2558022E0,-3.4638443E0,-2.6644185E0,-8E0,2.36E2,2.02E2,2.9684508E-1,-1.6811928E0,-7.7254224E-1,-1.0778764E0,-4.071938E-1,2.04E2,2.03E2,1.9E1,4E0,1.789502E-1,8.712035E-1,-7.499946E-2,5.4239687E-2,2.53E2,2.370832E-1,-1.4E1,1.842238E0,-1.3869917E0,2.12E2,-3.0958813E-1,-3.4016877E-2,-3.8120794E-1,-3.2817036E-2,-8.133969E-1,-2.9170114E-1,1.93E2,2.9528737E-1,-4.7158852E-2,4.107078E-1,8.648368E-1,2.858125E-1,5.5038846E-1,1.2555373E0,6.9909585E-1,1.404375E0,-1.0006953E0,-2E0,-2.6244918E-1,-4.974536E-2,-5.8021224E-1,-2.7809444E-1],"split_indices":[15,14,23,24,24,4,4,23,13,23,5,24,23,23,0,4,4,4,0,4,4,24,24,5,4,4,4,4,4,23,0,0,0,0,0,0,23,23,23,5,5,5,5,0,23,16,23,23,0,0,0,4,0,0,0,0,4,0,0,0,0,4,23,23,24,0,0,24,5,24,0,22,3,0,0,0,4,0,0,0,0,0,0,23,4,4,0,0,0,0,0,5,5,24,0,0,0,0,0,4,0,23,0,0,4,0,0,0,0,0,0,5,0,0,0,0,0,0,0,0,0,0,23,0,0,0,0],"split_type":[0,0,0,0,0,0,0,0,0,0,0,0,0,0,0,0,0,0,0,0,0,0,0,0,0,0,0,0,0,0,0,0,0,0,0,0,0,0,0,0,0,0,0,0,0,0,0,0,0,0,0,0,0,0,0,0,0,0,0,0,0,0,0,0,0,0,0,0,0,0,0,0,0,0,0,0,0,0,0,0,0,0,0,0,0,0,0,0,0,0,0,0,0,0,0,0,0,0,0,0,0,0,0,0,0,0,0,0,0,0,0,0,0,0,0,0,0,0,0,0,0,0,0,0,0,0,0],"sum_hessian":[1.5272458E3,9.461488E2,5.8109705E2,3.3226797E2,6.138808E2,3.117847E2,2.6931235E2,2.754622E2,5.6805813E1,3.366738E2,2.77207E2,2.0885208E2,1.0293261E2,1.9053471E2,7.8777626E1,2.3119685E2,4.4265316E1,4.782529E1,8.980521E0,8.574809E1,2.509257E2,9.139229E1,1.8581471E2,6.259218E1,1.462599E2,3.7754288E1,6.517832E1,1.18856224E2,7.167849E1,2.1300267E2,1.8194183E1,3.4986496E1,9.278818E0,3.79973E1,9.827991E0,3.607525E1,4.967284E1,6.705939E1,1.8386632E2,6.3537075E1,2.7855215E1,1.27381905E2,5.8432808E1,1.1629392E1,5.0962788E1,2.4519037E1,1.2174087E2,2.0022663E1,1.7731625E1,1.424265E1,5.0935673E1,3.6598106E1,8.225812E1,2.9329018E1,4.2349472E1,3.212214E1,1.8088054E2,3.1809643E1,1.7863197E1,5.395358E1,1.310581E1,1.5283543E2,3.1030878E1,4.114838E1,2.2388693E1,1.5634102E1,1.2221114E1,7.6296074E1,5.1085835E1,3.506294E1,2.336987E1,1.6452766E1,3.451002E1,9.150106E0,1.5368931E1,1.4101634E1,1.0763924E2,1.01258135E1,9.89685E0,1.4822385E1,2.1775723E1,1.164591E2,6.442144E1,1.17242935E2,3.5592503E1,2.1659794E1,9.371084E0,3.2512306E1,8.636075E0,9.015493E0,1.3373199E1,4.9063347E1,2.7232727E1,2.0037151E1,3.1048681E1,1.3507935E1,2.1555004E1,8.048059E0,8.404706E0,2.1923235E1,1.2586787E1,3.978421E1,6.785503E1,3.650285E1,8.074008E1,2.5423954E1,1.0168548E1,1.1476449E1,1.0183345E1,2.8872536E1,2.0190811E1,1.771541E1,9.517317E0,1.1052631E1,8.98452E0,1.8916481E1,1.2132199E1,8.021152E0,1.3902082E1,9.358773E0,3.0425436E1,5.6179775E1,2.4560305E1,8.631361E0,9.084049E0,1.3562065E1,1.09982395E1],"tree_param":{"num_deleted":"0","num_feature":"25","num_nodes":"127","size_leaf_vector":"1"}},{"base_weights":[-1.1248541E0,-2.6696999E1,3.1029324E1,-4.85177E1,-1.482788E1,1.8779556E1,4.667236E1,-5.1723656E1,-2.667374E1,-1.9098896E1,1.7497196E0,9.278755E0,2.6802095E1,3.3677998E1,5.4849403E1,-3.7196386E0,-4.412813E1,-1.7911988E0,-8.598572E-1,-2.6432526E1,-1.0436464E1,-2.5496733E0,1.983218E1,-4.2026252E-1,1.6805595E1,1.7489664E1,3.3551987E1,1.6891932E1,3.6408447E1,4.6250217E1,3.8409758E0,-2.7166636E0,-1.2456278E0,-3.0784212E1,-1.8626694E1,-1.6286352E1,-6.1959763E0,-1.0292008E1,2.867989E0,5.177641E-1,1.5750344E0,-5.418051E0,1.8702627E0,2.7843788E0,1.987142E1,1.1248187E1,2.2700909E1,1.6538801E0,2.3792639E0,5.3546476E-1,1.2138515E0,1.5345153E0,2.4173489E0,2.2337961E0,3.2204251E0,-2.0969117E0,-2.184679E1,-1.600489E0,-1.2905257E1,-1.7549675E1,-2.5486994E-1,-1.0026984E1,2.3579416E0,-1.2320413E1,-2.7841365E-1,-2.0228453E-1,7.743805E0,-5.0072134E-1,-2.7794724E-2,-1.8594096E0,6.971266E0,-7.620697E-2,3.488807E-1,8.330874E-1,2.2316801E1,1.3373964E-1,1.3240136E1,6.3671464E-1,1.5404114E0,-1.43501E0,-6.847357E-1,-4.6855664E-1,-8.5433775E-1,-1.2759539E0,-1.4106242E1,-1.196912E1,-2.2890553E0,4.842516E-1,-6.1339164E-1,-8.359246E-1,-3.924565E-1,-3.0876412E0,2.1431752E-1,2.4330103E-1,5.4669887E-1,-5.006488E0,1.876501E-1,1.5375242E-1,5.275934E-1,7.408722E-1,1.4380397E0,4.4051796E-1,9.6646625E-1,-4.2519408E-1,-9.212197E-1,-1.4419108E1,-8.137192E0,-2.8578007E-1,1.9298108E-2,-1.9487554E-1,1.1066762E-1,-3.307659E-1,-1.2690299E-2,-3.5815087E-1,-1.5539755E-1,-9.607281E-1,-4.0076414E-1,-6.101429E-1,-3.4174365E-1],"categories":[],"categories_nodes":[],"categories_segments":[],"categories_sizes":[],"default_left":[0,0,0,0,0,0,0,0,0,0,0,0,0,0,0,0,0,0,0,0,0,0,0,0,0,0,0,0,0,0,0,0,0,0,0,0,0,0,0,0,0,0,0,0,0,0,0,0,0,0,0,0,0,0,0,0,0,0,0,0,0,0,0,0,0,0,0,0,0,0,0,0,0,0,0,0,1,0,0,0,0,0,0,0,0,0,0,0,0,0,0,0,0,0,0,1,0,0,0,0,0,0,0,0,0,0,0,0,0,0,0,0,0,0,0,0,0,0,0],"id":4,"left_children":[1,3,5,7,9,11,13,15,17,19,21,23,25,27,29,-1,31,-1,-1,33,35,37,39,41,43,45,47,49,51,53,-1,-1,-1,55,57,59,61,63,65,-1,-1,67,69,71,73,75,77,-1,-1,-1,-1,-1,-1,-1,-1,-1,79,-1,81,83,-1,85,87,89,-1,91,93,-1,-1,95,97,-1,-1,-1,99,-1,101,-1,-1,-1,-1,-1,-1,-1,103,105,107,-1,109,-1,-1,111,-1,-1,-1,113,-1,-1,-1,-1,-1,-1,-1,-1,-1,115,117,-1,-1,-1,-1,-1,-1,-1,-1,-1,-1,-1,-1],"loss_changes":[1.2390275E6,2.1551412E5,1.2566431E5,1.7089688E4,3.8842492E4,2.8211219E4,2.6239438E4,1.24379375E4,5.365469E2,2.6940766E4,9.0319375E3,1.2966993E4,1.1303797E4,3.8744531E3,5.9059375E3,0E0,1.1655312E3,0E0,0E0,6.4724062E3,4.788754E3,4.0490679E3,9.9540137E2,9.421668E2,4.1420527E3,2.2954102E3,1.4015469E3,9.026318E1,1.4668125E3,1.4352656E3,0E0,0E0,0E0,3.3284219E3,3.2170469E3,1.0801094E3,4.0723188E3,3.014712E2,8.70681E2,0E0,0E0,3.5665662E2,1.1123375E3,2.757827E2,4.0158398E2,7.531831E2,9.4026953E2,0E0,0E0,0E0,0E0,0E0,0E0,0E0,0E0,0E0,3.847793E2,0E0,8.638574E1,1.669961E2,0E0,1.2004922E3,6.894416E2,9.578613E0,0E0,4.375031E2,1.0858765E1,0E0,0E0,5.829053E2,1.3113147E2,0E0,0E0,0E0,8.001172E1,0E0,3.148452E2,0E0,0E0,0E0,0E0,0E0,0E0,0E0,1.0374902E2,3.2247656E2,1.3600159E2,0E0,1.9882587E2,0E0,0E0,1.5190617E2,0E0,0E0,0E0,7.408081E0,0E0,0E0,0E0,0E0,0E0,0E0,0E0,0E0,0E0,1.6839062E2,3.8168945E0,0E0,0E0,0E0,0E0,0E0,0E0,0E0,0E0,0E0,0E0,0E0,0E0],"parents":[2147483647,0,0,1,1,2,2,3,3,4,4,5,5,6,6,7,7,8,8,9,9,10,10,11,11,12,12,13,13,14,14,16,16,19,19,20,20,21,21,22,22,23,23,24,24,25,25,26,26,27,27,28,28,29,29,33,33,34,34,35,35,36,36,37,37,38,38,41,41,42,42,43,43,44,44,45,45,46,46,56,56,58,58,59,59,61,61,62,62,63,63,65,65,66,66,69,69,70,70,74,74,76,76,84,84,85,85,86,86,88,88,91,91,95,95,105,105,106,106],"right_children":[2,4,6,8,10,12,14,16,18,20,22,24,26,28,30,-1,32,-1,-1,34,36,38,40,42,44,46,48,50,52,54,-1,-1,-1,56,58,60,62,64,66,-1,-1,68,70,72,74,76,78,-1,-1,-1,-1,-1,-1,-1,-1,-1,80,-1,82,84,-1,86,88,90,-1,92,94,-1,-1,96,98,-1,-1,-1,100,-1,102,-1,-1,-1,-1,-1,-1,-1,104,106,108,-1,110,-1,-1,112,-1,-1,-1,114,-1,-1,-1,-1,-1,-1,-1,-1,-1,116,118,-1,-1,-1,-1,-1,-1,-1,-1,-1,-1,-1,-1],"split_conditions":[2.2462074E2,1.876978E2,2.6905173E2,2.1E1,1.7E1,-2E0,0E0,1.6480212E2,1.63E2,2.1248442E2,4.7E1,2.5490881E2,2.5287807E2,2.77E2,2.80685E2,-3.7196386E0,2.1E1,-1.7911988E0,-8.598572E-1,-7E0,-1.8E1,1.91E2,1.83E2,2.39E2,-3.6E1,2.1E1,-4E0,2.813989E2,2.7434836E2,2E1,3.8409758E0,-2.7166636E0,-1.2456278E0,1.5E1,1.94E2,1.9E1,1.6E1,1.21212125E-1,2.06E2,5.177641E-1,1.5750344E0,-1E1,-2.5E1,4.7142857E-1,4.4329897E-1,2.26E2,2.2584787E2,1.6538801E0,2.3792639E0,5.3546476E-1,1.2138515E0,1.5345153E0,2.4173489E0,2.2337961E0,3.2204251E0,-2.0969117E0,2.1075E2,-1.600489E0,2E0,2.1125E2,-2.5486994E-1,1.7E1,2.0925E2,2.09E2,-2.7841365E-1,3.1E1,3.3734939E-1,-5.0072134E-1,-2.7794724E-2,2.5775E2,2.02E2,-7.620697E-2,3.488807E-1,8.330874E-1,-3.5E1,1.3373964E-1,2.202111E2,6.3671464E-1,1.5404114E0,-1.43501E0,-6.847357E-1,-4.6855664E-1,-8.5433775E-1,-1.2759539E0,2.135E2,4.6E-1,1.95E2,4.842516E-1,2.23E2,-8.359246E-1,-3.924565E-1,2E2,2.1431752E-1,2.4330103E-1,5.4669887E-1,2.34E2,1.876501E-1,1.5375242E-1,5.275934E-1,7.408722E-1,1.4380397E0,4.4051796E-1,9.6646625E-1,-4.2519408E-1,-9.212197E-1,5E0,-1.3E1,-2.8578007E-1,1.9298108E-2,-1.9487554E-1,1.1066762E-1,-3.307659E-1,-1.2690299E-2,-3.5815087E-1,-1.5539755E-1,-9.607281E-1,-4.0076414E-1,-6.101429E-1,-3.4174365E-1],"split_indices":[9,9,9,24,22,22,24,9,5,9,22,9,9,5,9,0,22,0,0,22,22,1,1,1,23,22,7,21,9,22,0,0,0,7,1,24,7,18,1,0,0,22,22,19,19,1,9,0,0,0,0,0,0,0,0,0,6,0,0,6,0,23,6,3,0,22,19,0,0,6,5,0,0,0,22,0,11,0,0,0,0,0,0,0,10,18,4,0,4,0,0,1,0,0,0,5,0,0,0,0,0,0,0,0,0,22,22,0,0,0,0,0,0,0,0,0,0,0,0],"split_type":[0,0,0,0,0,0,0,0,0,0,0,0,0,0,0,0,0,0,0,0,0,0,0,0,0,0,0,0,0,0,0,0,0,0,0,0,0,0,0,0,0,0,0,0,0,0,0,0,0,0,0,0,0,0,0,0,0,0,0,0,0,0,0,0,0,0,0,0,0,0,0,0,0,0,0,0,0,0,0,0,0,0,0,0,0,0,0,0,0,0,0,0,0,0,0,0,0,0,0,0,0,0,0,0,0,0,0,0,0,0,0,0,0,0,0,0,0,0,0],"sum_hessian":[1.5017867E3,8.3676E2,6.6502673E2,2.9202255E2,5.447375E2,3.7611185E2,2.8891492E2,2.5160432E2,4.041821E1,4.3286227E2,1.1187523E2,1.7472426E2,2.0138759E2,1.1662348E2,1.7229143E2,1.0048024E2,1.5112408E2,2.9506594E1,1.0911616E1,2.3156143E2,2.0130083E2,9.2120125E1,1.9755106E1,7.73607E1,9.736355E1,8.8487236E1,1.1290035E2,1.8891584E1,9.7731895E1,9.583111E1,7.646033E1,1.427293E2,8.394801E0,1.4384186E2,8.7719574E1,8.1518616E1,1.1978221E2,3.7025127E1,5.5094997E1,9.301516E0,1.0453591E1,2.3297426E1,5.406328E1,1.8368101E1,7.899545E1,4.3952465E1,4.453477E1,6.295682E1,4.9943527E1,8.261761E0,1.0629825E1,3.0008947E1,6.772295E1,4.9199436E1,4.6631668E1,9.3957184E1,4.9884678E1,3.2794495E1,5.492508E1,7.269938E1,8.819235E0,8.247146E1,3.7310753E1,2.50078E1,1.2017329E1,3.5231068E1,1.986393E1,1.3550237E1,9.7471895E0,3.20999E1,2.1963383E1,8.382072E0,9.986029E0,2.7705559E1,5.128989E1,8.962581E0,3.4989883E1,1.0859943E1,3.3674828E1,3.9175255E1,1.0709421E1,1.4671994E1,4.0253082E1,2.8910646E1,4.3788734E1,6.476246E1,1.7708998E1,1.13841305E1,2.5926624E1,1.6849556E1,8.158243E0,2.027448E1,1.4956588E1,8.075157E0,1.1788772E1,1.9719051E1,1.2380845E1,8.19434E0,1.3769043E1,1.0019289E1,4.1270603E1,1.425874E1,2.0731142E1,8.947083E0,3.4841652E1,3.5148815E1,2.9613642E1,8.156432E0,9.552567E0,1.2236726E1,1.3689898E1,9.685885E0,1.0588594E1,1.1396143E1,8.322909E0,2.705154E1,8.097277E0,1.187228E1,1.7741362E1],"tree_param":{"num_deleted":"0","num_feature":"25","num_nodes":"119","size_leaf_vector":"1"}},{"base_weights":[1.6022386E-1,-2.7385956E1,2.777413E1,-4.155732E1,-1.2593994E1,1.652608E1,4.393425E1,-3.82331E0,-3.6930683E1,-1.6658503E1,6.055938E0,6.820422E0,2.4668201E1,3.924751E1,3.8343449E0,-4.243723E1,-2.8374495E1,-2.252122E1,-1.1573787E1,1.7918143E0,1.1606511E0,1.1563147E0,1.3867714E1,1.4967994E1,2.987163E1,2.9523054E1,4.601608E1,-2.8954322E0,-2.1262467E0,-3.0859867E1,-1.2884343E1,-2.6483007E1,-1.6227654E1,-1.2684375E1,-9.9480003E-1,-4.0862384E0,7.0750012E0,-1.8232459E0,1.0821904E1,8.808573E0,2.2111118E1,2.3849514E0,1.7898468E1,1.9313337E1,3.3840046E1,1.960186E1,3.350069E1,4.143745E1,3.3554707E0,-1.9629699E0,-1.1771008E0,-1.0468662E0,-2.2687979E-1,-1.7155192E0,-8.908764E-1,-1.2351053E0,-7.568286E-1,-1.5272772E1,-7.357182E0,1.5611817E-1,-2.6016614E-1,-3.768566E-1,-1.25926575E-2,1.1093873E-1,6.15128E-1,-5.7173696E0,7.2378576E-1,8.038442E-1,2.2281238E-1,1.0752894E1,3.865737E0,6.353764E-1,1.5726191E0,-6.388077E-2,3.063834E-1,5.337438E-1,1.9063166E1,5.0074804E-1,1.3853011E0,2.9489817E1,2.6446016E0,5.9988827E-1,1.2977089E0,1.3454633E0,2.2221816E0,1.9755651E0,2.7754242E0,-1.6311552E1,-3.9167604E-1,-6.2873083E-1,-7.4681246E-1,-6.2753105E-1,-2.4255795E0,-2.2249289E0,4.458689E0,3.4015188E-1,7.004946E-1,3.21272E-1,8.332854E-2,5.264894E-1,1.2288926E0,1.1550231E0,1.9337716E0,-1.0293398E0,-5.8316517E-1,-1.253229E-1,4.07348E-2,-2.4693093E-1,4.1117515E-2,-4.0276527E0,9.702297E-2,9.631095E-2,3.7294596E-1,-2.9917648E-1,-1.0117798E-1],"categories":[],"categories_nodes":[],"categories_segments":[],"categories_sizes":[],"default_left":[0,0,0,0,0,0,0,0,0,0,0,0,0,0,0,0,0,0,0,0,0,0,0,0,0,0,0,0,0,0,0,0,0,0,0,0,0,0,1,0,0,0,0,0,0,0,0,0,0,0,0,0,0,0,0,0,0,0,0,0,0,0,0,0,0,0,0,0,0,0,0,0,0,0,0,0,0,0,0,0,0,0,0,0,0,0,0,0,0,0,0,0,0,0,0,0,0,0,0,0,0,0,0,0,0,0,0,0,0,0,0,0,0,0,0],"id":5,"left_children":[1,3,5,7,9,11,13,-1,15,17,19,21,23,25,-1,27,29,31,33,35,-1,37,39,41,43,45,47,-1,-1,49,51,53,55,57,59,61,63,65,67,69,71,73,75,77,79,81,83,85,-1,-1,-1,-1,-1,-1,-1,-1,-1,87,89,-1,-1,-1,-1,-1,-1,91,93,-1,-1,95,97,-1,-1,-1,-1,-1,99,-1,-1,101,-1,-1,-1,-1,-1,-1,-1,103,-1,-1,105,-1,107,109,111,-1,-1,-1,-1,-1,-1,-1,-1,-1,-1,-1,-1,-1,-1,113,-1,-1,-1,-1,-1],"loss_changes":[1.1486295E6,1.571085E5,1.3520031E5,3.3079188E4,2.8575973E4,3.5015758E4,2.210825E4,0E0,1.2175375E4,8.48468E3,3.772653E3,8.263312E3,1.110875E4,1.3333156E4,0E0,3.3796562E3,4.1491406E3,2.3799922E3,1.9566855E3,1.775132E3,0E0,3.4603342E3,3.3482578E3,3.1982598E3,4.834297E3,2.7255078E3,5.906875E2,0E0,0E0,6.039453E2,7.660676E2,8.3048047E2,2.804707E2,1.819541E3,2.5525381E2,2.2469363E2,4.3584717E2,9.307435E2,3.7478345E2,4.7874365E2,8.320303E2,2.0167708E2,3.2021094E2,1.4661895E3,1.4882422E3,1.5699512E2,7.768203E2,5.1170312E2,0E0,0E0,0E0,0E0,0E0,0E0,0E0,0E0,0E0,6.376953E2,1.0987896E3,0E0,0E0,0E0,0E0,0E0,0E0,5.0136792E2,6.661874E2,0E0,0E0,1.6233398E1,5.5868835E1,0E0,0E0,0E0,0E0,0E0,3.935996E2,0E0,0E0,6.9503125E2,0E0,0E0,0E0,0E0,0E0,0E0,0E0,2.5482422E1,0E0,0E0,4.2929405E1,0E0,1.396756E2,2.5340733E2,1.02511475E2,0E0,0E0,0E0,0E0,0E0,0E0,0E0,0E0,0E0,0E0,0E0,0E0,0E0,0E0,2.8338623E1,0E0,0E0,0E0,0E0,0E0],"parents":[2147483647,0,0,1,1,2,2,3,3,4,4,5,5,6,6,8,8,9,9,10,10,11,11,12,12,13,13,15,15,16,16,17,17,18,18,19,19,21,21,22,22,23,23,24,24,25,25,26,26,29,29,30,30,31,31,32,32,33,33,34,34,35,35,36,36,37,37,38,38,39,39,40,40,41,41,42,42,43,43,44,44,45,45,46,46,47,47,57,57,58,58,65,65,66,66,69,69,70,70,76,76,79,79,87,87,90,90,92,92,93,93,94,94,109,109],"right_children":[2,4,6,8,10,12,14,-1,16,18,20,22,24,26,-1,28,30,32,34,36,-1,38,40,42,44,46,48,-1,-1,50,52,54,56,58,60,62,64,66,68,70,72,74,76,78,80,82,84,86,-1,-1,-1,-1,-1,-1,-1,-1,-1,88,90,-1,-1,-1,-1,-1,-1,92,94,-1,-1,96,98,-1,-1,-1,-1,-1,100,-1,-1,102,-1,-1,-1,-1,-1,-1,-1,104,-1,-1,106,-1,108,110,112,-1,-1,-1,-1,-1,-1,-1,-1,-1,-1,-1,-1,-1,-1,114,-1,-1,-1,-1,-1],"split_conditions":[2.2291081E2,1.9964323E2,2.6868463E2,1.5852145E2,2E1,2.7892627E2,2.942342E2,-3.82331E0,4E0,-1.3E1,5.4E1,0E0,-5E0,-6E0,3.8343449E0,1.7746973E2,1.82E2,2.127176E2,2.6E1,2.0825E2,1.1606511E0,2.5688504E2,2.5030814E2,-4E1,2.5085074E2,2.88E2,3.2E1,-2.8954322E0,-2.1262467E0,2.8E1,1.2E1,-1E0,-2.2E1,4E0,2.13E2,1.91E2,2.015504E-1,-2.5E1,2.695E2,2.443261E1,-8E0,1.4E1,2.61E2,-1.3E1,3.8E1,-2.5E1,-3.7E1,2.69E2,3.3554707E0,-1.9629699E0,-1.1771008E0,-1.0468662E0,-2.2687979E-1,-1.7155192E0,-8.908764E-1,-1.2351053E0,-7.568286E-1,2.16E2,2.09E2,1.5611817E-1,-2.6016614E-1,-3.768566E-1,-1.25926575E-2,1.1093873E-1,6.15128E-1,2.605209E2,2.38E2,8.038442E-1,2.2281238E-1,6.84412E-2,2.06E2,6.353764E-1,1.5726191E0,-6.388077E-2,3.063834E-1,5.337438E-1,-4.6E1,5.0074804E-1,1.3853011E0,2.015504E-1,2.6446016E0,5.9988827E-1,1.2977089E0,1.3454633E0,2.2221816E0,1.9755651E0,2.7754242E0,1.1E1,-3.9167604E-1,-6.2873083E-1,2.16E2,-6.2753105E-1,0E0,-2E0,2.2314285E2,3.4015188E-1,7.004946E-1,3.21272E-1,8.332854E-2,5.264894E-1,1.2288926E0,1.1550231E0,1.9337716E0,-1.0293398E0,-5.8316517E-1,-1.253229E-1,4.07348E-2,-2.4693093E-1,4.1117515E-2,-1E1,9.702297E-2,9.631095E-2,3.7294596E-1,-2.9917648E-1,-1.0117798E-1],"split_indices":[9,9,9,9,22,21,9,0,22,24,22,22,22,22,0,9,1,9,23,6,0,9,9,23,9,1,22,0,0,24,22,22,22,22,3,1,19,22,16,13,23,8,1,23,22,22,22,1,0,0,0,0,0,0,0,0,0,5,1,0,0,0,0,0,0,21,1,0,0,20,3,0,0,0,0,0,22,0,0,19,0,0,0,0,0,0,0,23,0,0,1,0,8,23,10,0,0,0,0,0,0,0,0,0,0,0,0,0,0,22,0,0,0,0,0],"split_type":[0,0,0,0,0,0,0,0,0,0,0,0,0,0,0,0,0,0,0,0,0,0,0,0,0,0,0,0,0,0,0,0,0,0,0,0,0,0,0,0,0,0,0,0,0,0,0,0,0,0,0,0,0,0,0,0,0,0,0,0,0,0,0,0,0,0,0,0,0,0,0,0,0,0,0,0,0,0,0,0,0,0,0,0,0,0,0,0,0,0,0,0,0,0,0,0,0,0,0,0,0,0,0,0,0,0,0,0,0,0,0,0,0,0,0],"sum_hessian":[1.5049789E3,7.5341425E2,7.515647E2,3.8241833E2,3.709959E2,4.461717E2,3.0539297E2,6.0962585E1,3.2145575E2,3.0485562E2,6.614029E1,2.0569716E2,2.4047455E2,2.5295398E2,5.243899E1,1.8943921E2,1.3201654E2,1.3751E2,1.6734564E2,5.2216152E1,1.3924135E1,1.1571737E2,8.997979E1,8.742479E1,1.5304974E2,1.09418976E2,1.43535E2,9.7485504E1,9.19537E1,1.1156679E2,2.0449757E1,7.934659E1,5.81634E1,1.509449E2,1.6400738E1,2.4940977E1,2.7275175E1,8.998109E1,2.5736282E1,5.904798E1,3.093181E1,1.7416918E1,7.000787E1,4.5908764E1,1.0714098E2,3.5652054E1,7.376692E1,1.0665437E2,3.6880623E1,9.2509415E1,1.9057371E1,1.211143E1,8.338326E0,6.4563324E1,1.4783266E1,2.1342949E1,3.682045E1,9.833451E1,5.2610394E1,8.082363E0,8.318376E0,1.4898796E1,1.004218E1,1.1802846E1,1.5472329E1,3.4415947E1,5.556514E1,1.7302359E1,8.433926E0,4.016305E1,1.8884926E1,1.0366997E1,2.0564814E1,8.247986E0,9.168933E0,1.0539158E1,5.9468716E1,1.365096E1,3.2257805E1,8.1831E1,2.5309984E1,8.65107E0,2.7000986E1,2.1770166E1,5.1996754E1,4.4575424E1,6.207895E1,8.591462E1,1.2419894E1,3.4814827E1,1.7795565E1,1.184141E1,2.2574537E1,3.1544043E1,2.4021095E1,8.765724E0,3.139733E1,9.896006E0,8.98892E0,9.100405E0,5.0368313E1,2.0930655E1,6.090035E1,7.317635E1,1.2738262E1,8.771404E0,9.024161E0,1.4253144E1,8.321393E0,2.1467613E1,1.0076429E1,1.1027061E1,1.2994034E1,1.31426115E1,8.325002E0],"tree_param":{"num_deleted":"0","num_feature":"25","num_nodes":"115","size_leaf_vector":"1"}},{"base_weights":[1.0918248E0,-1.9410007E1,3.1121693E1,-4.2042587E1,-9.754482E0,2.0938705E1,4.3065685E1,-3.0970397E0,-3.4377693E1,-1.6764845E1,1.4181218E0,1.3751099E1,2.990243E1,3.797336E1,3.4928792E0,-3.909442E1,-2.0544493E1,-2.2137297E1,-7.0406713E0,-2.647161E0,1.755404E1,3.9451323E0,1.7007048E1,2.4303686E1,2.2927425E0,3.4351948E1,3.02365E0,-2.562766E0,-1.5944151E0,-1.4174335E0,-4.835718E-1,-2.6510126E1,-1.7330599E1,-9.650409E0,6.832209E-1,-1.2142831E0,-8.1364554E-1,2.5534928E-1,1.2170799E0,-2.1418083E-1,9.471335E0,5.5112953E0,2.002508E1,1.7241764E1,1.7992481E0,2.7248526E1,2.3210905E0,-1.706891E0,-1.8216377E1,-2.1669876E1,-1.3494278E1,-1.1133453E1,2.9101256E-1,-4.0955024E0,4.250605E0,-2.95171E-1,1.9910936E0,2.8658277E-1,7.010498E-1,1.4134048E-2,8.782275E0,1.5297983E1,1.5482773E0,5.78601E-1,1.1697891E0,8.912503E-1,1.8248736E0,-1.239751E0,-5.797261E-1,-1.4307832E0,-7.447876E-1,-1.5371391E1,-7.1356425E0,-1.2307066E1,-1.13270245E-1,-5.7596827E0,2.5527062E0,-2.1415644E0,6.980193E0,-9.3246914E-2,3.3032653E-1,3.031137E-1,6.549496E-1,1.0780816E1,1.1436206E0,-9.974541E-1,-4.8043635E-1,-5.74223E-1,-1.6065791E-1,-1.467374E1,-4.523629E0,-7.128457E0,-9.007212E-1,-1.1453825E-1,3.7075257E-1,-3.2531095E-1,1.0853603E-1,1.0560968E-1,8.21045E0,3.6650965E-1,7.4216294E-1,-1.574018E1,-4.1156766E-1,-3.640737E-1,-5.2722685E-2,-8.993752E0,-4.9608736E0,-2.0337611E-1,1.3989209E-1,3.388884E-1,6.1475027E-1,-1.0482186E0,-6.340364E-1,-6.020319E-1,-2.9913503E-1,-1.3728023E-1,-3.6450708E-1],"categories":[],"categories_nodes":[],"categories_segments":[],"categories_sizes":[],"default_left":[0,0,0,0,0,0,0,0,0,0,0,0,0,0,0,0,0,0,0,0,0,0,0,1,0,0,0,0,0,0,0,0,0,0,0,0,0,0,0,0,0,0,0,0,0,0,0,0,0,0,0,0,0,0,0,0,0,0,0,0,0,0,0,0,0,0,0,0,0,0,0,0,0,0,0,0,0,0,0,0,0,0,0,0,0,0,0,0,0,0,0,0,0,0,0,0,0,0,0,0,0,0,0,0,0,0,0,0,0,0,0,0,0,0,0,0,0],"id":6,"left_children":[1,3,5,7,9,11,13,-1,15,17,19,21,23,25,-1,27,29,31,33,35,37,39,41,43,-1,45,-1,-1,-1,-1,-1,47,49,51,-1,-1,53,-1,-1,55,57,59,61,63,-1,65,-1,-1,67,69,71,73,-1,75,77,-1,79,-1,-1,-1,81,83,-1,-1,-1,-1,-1,-1,-1,-1,-1,85,87,89,-1,91,93,95,97,-1,-1,-1,-1,99,-1,-1,-1,-1,-1,101,103,105,107,-1,-1,-1,-1,-1,109,-1,-1,111,-1,-1,-1,113,115,-1,-1,-1,-1,-1,-1,-1,-1,-1,-1],"loss_changes":[9.1924956E5,1.9285175E5,7.135556E4,1.4521531E4,4.904688E4,2.0320719E4,1.5395875E4,0E0,7.9394844E3,1.9674977E4,1.6092107E4,5.851453E3,4.2823984E3,5.0481562E3,0E0,1.9859375E3,1.1675156E3,3.9919688E3,7.0222095E3,6.2624424E3,1.5165312E3,1.1693944E3,4.6001133E3,2.3492266E3,0E0,2.4541562E3,0E0,0E0,0E0,0E0,0E0,5.5953906E2,1.3172227E3,2.813832E3,0E0,0E0,3.0462842E3,0E0,0E0,3.4886258E2,7.363574E1,5.571827E2,1.9584414E3,2.9997852E2,0E0,1.6134219E3,0E0,0E0,8.636426E1,2.925996E2,5.8145703E2,1.1687744E3,0E0,1.2666283E3,1.300388E3,0E0,3.0748718E2,0E0,0E0,0E0,1.1062866E1,5.798584E2,0E0,0E0,0E0,0E0,0E0,0E0,0E0,0E0,0E0,1.2965332E2,1.5895898E2,1.6714424E3,0E0,5.7531836E2,4.158706E2,3.2872772E2,2.8778174E2,0E0,0E0,0E0,0E0,6.0960938E1,0E0,0E0,0E0,0E0,0E0,3.491953E2,1.336452E2,1.6031714E2,2.0153749E2,0E0,0E0,0E0,0E0,0E0,5.6188477E1,0E0,0E0,8.339746E1,0E0,0E0,0E0,4.019287E0,7.166052E1,0E0,0E0,0E0,0E0,0E0,0E0,0E0,0E0,0E0,0E0],"parents":[2147483647,0,0,1,1,2,2,3,3,4,4,5,5,6,6,8,8,9,9,10,10,11,11,12,12,13,13,15,15,16,16,17,17,18,18,19,19,20,20,21,21,22,22,23,23,25,25,31,31,32,32,33,33,36,36,39,39,40,40,41,41,42,42,43,43,45,45,48,48,49,49,50,50,51,51,53,53,54,54,56,56,60,60,61,61,71,71,72,72,73,73,75,75,76,76,77,77,78,78,83,83,89,89,90,90,91,91,92,92,98,98,101,101,105,105,106,106],"right_children":[2,4,6,8,10,12,14,-1,16,18,20,22,24,26,-1,28,30,32,34,36,38,40,42,44,-1,46,-1,-1,-1,-1,-1,48,50,52,-1,-1,54,-1,-1,56,58,60,62,64,-1,66,-1,-1,68,70,72,74,-1,76,78,-1,80,-1,-1,-1,82,84,-1,-1,-1,-1,-1,-1,-1,-1,-1,86,88,90,-1,92,94,96,98,-1,-1,-1,-1,100,-1,-1,-1,-1,-1,102,104,106,108,-1,-1,-1,-1,-1,110,-1,-1,112,-1,-1,-1,114,116,-1,-1,-1,-1,-1,-1,-1,-1,-1,-1],"split_conditions":[1.93E2,1.8633694E2,2.7066437E2,-2E1,2.1688963E2,-3E0,3.2E1,-3.0970397E0,1.8E1,9E0,2.7E1,2.5085074E2,1.8E1,2.9181354E2,3.4928792E0,1.7722302E2,1.7722302E2,-9E0,4.5E1,-4.4E1,2.3E1,-2.5E1,-3E1,2.51E2,2.2927425E0,-1E1,3.02365E0,-2.562766E0,-1.5944151E0,-1.4174335E0,-4.835718E-1,6.304348E-1,1.89E2,5.5932206E-1,6.832209E-1,-1.2142831E0,1.6E1,2.5534928E-1,1.2170799E0,-7.1E1,2.7693637E2,-3.4E1,-3E0,2.7925702E2,1.7992481E0,4.8863637E-1,2.3210905E0,-1.706891E0,2.17E2,2.3E1,8.90625E-1,3.8E1,2.9101256E-1,1.7E1,1.93E2,-2.95171E-1,2.77E2,2.8658277E-1,7.010498E-1,1.4134048E-2,2.59E2,3.5555556E-1,1.5482773E0,5.78601E-1,1.1697891E0,8.912503E-1,1.8248736E0,-1.239751E0,-5.797261E-1,-1.4307832E0,-7.447876E-1,1.2E1,-1.2E1,1.99E2,-1.13270245E-1,2.43E2,2.03E2,4E1,2.19E2,-9.3246914E-2,3.3032653E-1,3.031137E-1,6.549496E-1,-1.6E1,1.1436206E0,-9.974541E-1,-4.8043635E-1,-5.74223E-1,-1.6065791E-1,2.6E1,2.1009663E2,1.6165808E1,2.2462074E2,-1.1453825E-1,3.7075257E-1,-3.2531095E-1,1.0853603E-1,1.0560968E-1,2.8E1,3.6650965E-1,7.4216294E-1,2.0488081E2,-4.1156766E-1,-3.640737E-1,-5.2722685E-2,1.4E1,2.2064285E2,-2.0337611E-1,1.3989209E-1,3.388884E-1,6.1475027E-1,-1.0482186E0,-6.340364E-1,-6.020319E-1,-2.9913503E-1,-1.3728023E-1,-3.6450708E-1],"split_indices":[15,9,9,24,9,24,24,0,22,22,22,9,22,9,0,9,9,23,22,22,24,24,22,5,0,22,0,0,0,0,0,17,4,17,0,0,24,0,0,24,21,24,23,21,0,18,0,0,6,23,17,22,0,23,5,0,5,0,0,0,5,17,0,0,0,0,0,0,0,0,0,23,22,1,0,2,4,24,1,0,0,0,0,22,0,0,0,0,0,23,9,12,9,0,0,0,0,0,24,0,0,9,0,0,0,8,10,0,0,0,0,0,0,0,0,0,0],"split_type":[0,0,0,0,0,0,0,0,0,0,0,0,0,0,0,0,0,0,0,0,0,0,0,0,0,0,0,0,0,0,0,0,0,0,0,0,0,0,0,0,0,0,0,0,0,0,0,0,0,0,0,0,0,0,0,0,0,0,0,0,0,0,0,0,0,0,0,0,0,0,0,0,0,0,0,0,0,0,0,0,0,0,0,0,0,0,0,0,0,0,0,0,0,0,0,0,0,0,0,0,0,0,0,0,0,0,0,0,0,0,0,0,0,0,0,0,0],"sum_hessian":[1.4880632E3,8.848451E2,6.032181E2,2.6204785E2,6.227973E2,3.2940353E2,2.7381454E2,1.1121631E2,1.5083153E2,3.819301E2,2.4086716E2,1.8641087E2,1.4299266E2,2.1094316E2,6.2871384E1,1.0899919E2,4.183234E1,2.4389316E2,1.3803697E2,1.9406131E2,4.6805836E1,4.7904556E1,1.3850632E2,9.088522E1,5.2107437E1,1.7026878E2,4.067438E1,8.0742966E1,2.825622E1,3.1914892E1,9.917449E0,1.2166019E2,1.2223298E2,1.2196032E2,1.6076645E1,1.5957058E1,1.7810426E2,8.920488E0,3.7885345E1,2.8668041E1,1.9236515E1,3.03273E1,1.0817902E2,4.4725815E1,4.6159412E1,7.033411E1,9.993467E1,9.452254E1,2.7137646E1,5.176321E1,7.0469765E1,1.1119706E2,1.076326E1,1.0842769E2,6.967657E1,8.256543E0,2.0411497E1,8.697962E0,1.0538553E1,1.270713E1,1.7620169E1,6.424044E1,4.3938583E1,1.3056793E1,3.166902E1,1.6828852E1,5.3505253E1,1.843876E1,8.698886E0,3.89924E1,1.2770807E1,5.1570164E1,1.8899601E1,9.788653E1,1.3310534E1,8.7054535E1,2.1373152E1,2.0955338E1,4.8721233E1,1.0766794E1,9.644703E0,9.500575E0,8.119594E0,3.343748E1,3.0802958E1,4.162815E1,9.942014E0,1.0345175E1,8.554427E0,7.328988E1,2.4596643E1,6.6912476E1,2.0142063E1,1.0028969E1,1.1344184E1,1.1031137E1,9.9242E0,1.0537081E1,3.818415E1,1.1465806E1,2.1971676E1,6.2204292E1,1.10855875E1,1.6074677E1,8.521968E0,3.1542683E1,3.5369793E1,1.1415357E1,8.726706E0,2.0998085E1,1.7186068E1,4.2543686E1,1.9660608E1,2.2128023E1,9.4146595E0,1.2648148E1,2.2721645E1],"tree_param":{"num_deleted":"0","num_feature":"25","num_nodes":"117","size_leaf_vector":"1"}},{"base_weights":[-2.9870957E-1,-1.996222E1,2.9722136E1,-3.577417E1,-7.233486E0,1.924527E1,4.0866608E1,-5.4215076E1,-3.0247158E1,-1.25804825E1,2.7300394E0,1.5488358E1,3.3513645E1,3.5462055E1,3.367263E0,-3.8089914E0,-2.6609862E0,-3.5274765E1,-1.9166637E1,-1.9298147E1,-8.476051E0,-1.2854073E0,1.2701298E1,3.8911918E-1,1.782727E1,1.1283655E0,2.1862895E0,2.8609797E1,2.4160013E0,-2.4664638E0,-1.7191273E0,-2.148992E1,-1.6361357E-1,-1.5455353E0,-1.4087274E1,-1.0534064E1,2.6809173E0,-9.55061E0,2.6672504E0,-3.151918E-1,1.6530512E1,-5.1767033E-1,4.10029E0,1.3918309E1,2.3441494E1,1.0761486E0,3.1941017E1,-1.5498365E0,-1.6040968E1,-1.1064849E0,-1.030397E1,-1.1718117E1,2.0226412E-1,-1.7675844E-1,6.7236342E0,-1.12352705E1,-1.9724952E-1,5.6102794E-1,6.4827186E-1,1.0299327E1,1.3576107E0,-6.712355E-2,5.8438915E-1,9.084151E0,1.7167273E1,1.0114188E0,1.5430614E0,9.38835E-1,2.0131922E0,-1.0683534E0,-3.530284E-1,-8.209647E-1,-4.685205E0,-1.6087324E1,-8.37919E0,1.7444964E-1,5.252096E-1,-7.5646514E-1,-3.637402E-1,-1.0302887E0,3.1519651E0,3.442484E-1,7.1623135E-1,1.7821337E-1,1.0689857E1,1.229285E0,1.03833275E1,-3.7830594E-1,-1.132981E-1,-1.1070935E0,-6.667437E-1,-1.0160044E1,-5.119116E0,-2.7972295E0,1.1558958E0,3.3163646E-1,-1.0153904E-1,2.8678086E-1,7.191885E-1,2.213844E-1,7.737144E-1,-7.384153E-1,-6.607119E0,-6.7898865E0,-3.0750453E-2,-3.0891964E-1,-1.0002364E0,-3.7909538E-2,1.829436E-1,-4.869191E-1,-1.6064668E-1,-4.653447E-1,-2.0016608E-1,-7.751846E-2,-2.5196189E-2],"categories":[],"categories_nodes":[],"categories_segments":[],"categories_sizes":[],"default_left":[0,0,0,0,0,0,0,0,0,0,0,0,0,0,0,0,0,0,0,0,0,0,0,0,0,0,0,0,0,0,0,0,0,0,0,0,0,0,0,0,0,0,0,0,0,0,0,0,0,0,0,0,0,0,0,0,0,0,0,0,0,0,0,0,1,0,0,0,0,0,0,0,0,0,0,0,0,0,0,0,0,0,0,0,0,0,0,0,0,0,0,0,0,0,0,0,0,0,0,0,0,0,0,0,0,0,0,0,0,0,0,0,0,0,0],"id":7,"left_children":[1,3,5,7,9,11,13,15,17,19,21,23,25,27,-1,-1,-1,29,31,33,35,37,39,41,43,-1,-1,45,-1,-1,-1,47,-1,-1,49,51,53,55,57,-1,59,-1,61,63,65,-1,67,-1,69,-1,71,73,-1,-1,75,77,-1,79,-1,81,-1,-1,-1,83,85,-1,-1,-1,-1,-1,-1,-1,87,89,91,-1,-1,-1,-1,93,95,-1,-1,-1,97,-1,99,-1,-1,-1,-1,101,103,105,107,-1,-1,-1,-1,-1,-1,-1,109,111,-1,-1,113,-1,-1,-1,-1,-1,-1,-1,-1],"loss_changes":[8.940097E5,1.8349556E5,6.795781E4,3.7327594E4,2.7271102E4,1.5477453E4,1.837375E4,1.08175E3,1.6042344E4,8.737949E3,7.2630737E3,8.911387E3,8.565E2,4.0510312E3,0E0,0E0,0E0,5.2810938E3,3.860539E3,3.1805781E3,4.9194326E3,4.3394546E3,3.7973027E3,1.3065846E3,3.9609531E3,0E0,0E0,2.0161016E3,0E0,0E0,0E0,1.0573242E3,0E0,0E0,7.041582E2,3.0431074E3,8.429375E2,3.524485E2,1.5205044E3,0E0,1.0246045E3,0E0,8.3990393E2,1.7181172E3,1.376211E2,0E0,3.9170312E2,0E0,5.382471E2,0E0,6.724375E2,2.055754E3,0E0,0E0,9.1031006E1,2.3402344E1,0E0,3.163308E2,0E0,8.968018E0,0E0,0E0,0E0,5.0153174E2,1.1673672E3,0E0,0E0,0E0,0E0,0E0,0E0,0E0,5.8461212E1,2.609082E2,4.3492578E2,0E0,0E0,0E0,0E0,1.9412906E2,3.5703E2,0E0,0E0,0E0,1.9201807E2,0E0,3.759646E2,0E0,0E0,0E0,0E0,2.4318506E2,2.9681262E2,9.850813E1,8.367469E1,0E0,0E0,0E0,0E0,0E0,0E0,0E0,1.0517786E2,2.4030518E1,0E0,0E0,8.625488E-1,0E0,0E0,0E0,0E0,0E0,0E0,0E0,0E0],"parents":[2147483647,0,0,1,1,2,2,3,3,4,4,5,5,6,6,7,7,8,8,9,9,10,10,11,11,12,12,13,13,17,17,18,18,19,19,20,20,21,21,22,22,23,23,24,24,27,27,31,31,34,34,35,35,36,36,37,37,38,38,40,40,42,42,43,43,44,44,46,46,48,48,50,50,51,51,54,54,55,55,57,57,59,59,63,63,64,64,72,72,73,73,74,74,79,79,80,80,84,84,86,86,91,91,92,92,93,93,94,94,102,102,103,103,106,106],"right_children":[2,4,6,8,10,12,14,16,18,20,22,24,26,28,-1,-1,-1,30,32,34,36,38,40,42,44,-1,-1,46,-1,-1,-1,48,-1,-1,50,52,54,56,58,-1,60,-1,62,64,66,-1,68,-1,70,-1,72,74,-1,-1,76,78,-1,80,-1,82,-1,-1,-1,84,86,-1,-1,-1,-1,-1,-1,-1,88,90,92,-1,-1,-1,-1,94,96,-1,-1,-1,98,-1,100,-1,-1,-1,-1,102,104,106,108,-1,-1,-1,-1,-1,-1,-1,110,112,-1,-1,114,-1,-1,-1,-1,-1,-1,-1,-1],"split_conditions":[1.93E2,2.0058847E2,2.6949164E2,1.6023102E2,1.3E1,1.7E1,3.4E1,-2E0,1.3E1,-1.9E1,4.6E1,-4.5E1,2.34E2,-9E0,3.367263E0,-3.8089914E0,-2.6609862E0,1.7965125E2,4.9E1,6E0,2.2291081E2,1.9E2,1.74E2,2.81E2,3E0,1.1283655E0,2.1862895E0,2.88E2,2.4160013E0,-2.4664638E0,-1.7191273E0,1.7616083E2,-1.6361357E-1,-1.5455353E0,-3.7E1,2.7E1,-4E0,1.86E2,2.17E2,-3.151918E-1,5.5E1,-5.1767033E-1,-6.4E1,2.5921237E2,2.5552184E2,1.0761486E0,-5.4E1,-1.5498365E0,3.8E1,-1.1064849E0,2.38E2,2.1215912E2,2.0226412E-1,-1.7675844E-1,0E0,1.9575E2,-1.9724952E-1,1.1E1,6.4827186E-1,1.7320509E1,1.3576107E0,-6.712355E-2,5.8438915E-1,2.4967711E2,2.68E2,1.0114188E0,1.5430614E0,9.38835E-1,2.0131922E0,-1.0683534E0,-3.530284E-1,-8.209647E-1,2.18E2,-8E0,4.659091E-1,1.7444964E-1,5.252096E-1,-7.5646514E-1,-3.637402E-1,2.3E1,6.1538464E-1,3.442484E-1,7.1623135E-1,1.7821337E-1,-2.6E1,1.229285E0,-3.7E1,-3.7830594E-1,-1.132981E-1,-1.1070935E0,-6.667437E-1,5E0,9E0,2.06E2,2.03E2,3.3163646E-1,-1.0153904E-1,2.8678086E-1,7.191885E-1,2.213844E-1,7.737144E-1,-7.384153E-1,2.04E2,-1E1,-3.0750453E-2,-3.0891964E-1,2.04E2,-3.7909538E-2,1.829436E-1,-4.869191E-1,-1.6064668E-1,-4.653447E-1,-2.0016608E-1,-7.751846E-2,-2.5196189E-2],"split_indices":[15,9,9,9,24,24,24,22,22,22,24,24,5,22,0,0,0,9,24,7,9,5,5,5,22,0,0,1,0,0,0,9,0,0,22,22,23,5,5,0,24,0,24,9,9,0,22,0,22,0,1,9,0,0,22,6,0,8,0,12,0,0,0,9,10,0,0,0,0,0,0,0,5,7,19,0,0,0,0,24,19,0,0,0,24,0,22,0,0,0,0,22,7,5,5,0,0,0,0,0,0,0,1,24,0,0,1,0,0,0,0,0,0,0,0],"split_type":[0,0,0,0,0,0,0,0,0,0,0,0,0,0,0,0,0,0,0,0,0,0,0,0,0,0,0,0,0,0,0,0,0,0,0,0,0,0,0,0,0,0,0,0,0,0,0,0,0,0,0,0,0,0,0,0,0,0,0,0,0,0,0,0,0,0,0,0,0,0,0,0,0,0,0,0,0,0,0,0,0,0,0,0,0,0,0,0,0,0,0,0,0,0,0,0,0,0,0,0,0,0,0,0,0,0,0,0,0,0,0,0,0,0,0],"sum_hessian":[1.5093883E3,9.125435E2,5.968447E2,4.0491617E2,5.0762735E2,3.1122375E2,2.85621E2,8.820303E1,3.1671313E2,3.2994656E2,1.7768077E2,2.5057059E2,6.0653152E1,2.1646188E2,6.9159134E1,3.925677E1,4.8946262E1,2.1402213E2,1.02691E2,1.2152955E2,2.0841702E2,1.282065E2,4.9474266E1,3.4034927E1,2.1653566E2,1.2789277E1,4.7863873E1,9.502102E1,1.21440865E2,1.0890422E2,1.051179E2,8.927332E1,1.3417678E1,5.0159863E1,7.136968E1,1.7611908E2,3.2297955E1,4.0358723E1,8.784777E1,8.516168E0,4.09581E1,8.9303875E0,2.5104538E1,1.3290884E2,8.362682E1,2.6357471E1,6.866354E1,4.4799038E1,4.447429E1,2.8801207E1,4.256848E1,1.6268881E2,1.3430254E1,1.3753516E1,1.8544437E1,3.0170359E1,1.0188366E1,7.19202E1,1.5927575E1,2.3539898E1,1.7418201E1,1.4007791E1,1.1096747E1,5.735461E1,7.555423E1,2.6209455E1,5.741737E1,8.205812E0,6.0457733E1,3.6443436E1,8.030851E0,2.4396986E1,1.8171495E1,6.621124E1,9.647758E1,8.584774E0,9.959664E0,2.1082462E1,9.087895E0,4.5374355E1,2.6545843E1,9.166527E0,1.4373371E1,1.3479167E1,4.3875443E1,4.7592583E1,2.796165E1,9.451218E0,8.720277E0,4.0688362E1,2.5522877E1,5.8819813E1,3.765777E1,2.4835337E1,2.0539019E1,1.769071E1,8.855134E0,9.861147E0,3.4014294E1,9.273491E0,1.868816E1,3.2949272E1,2.587054E1,2.6672934E1,1.0984834E1,8.631533E0,1.6203804E1,1.1262311E1,9.276708E0,1.676879E1,9.101751E0,1.8415323E1,8.257611E0,8.181372E0,8.022432E0],"tree_param":{"num_deleted":"0","num_feature":"25","num_nodes":"115","size_leaf_vector":"1"}},{"base_weights":[-5.3407794E-1,-2.042792E1,2.4216457E1,-3.7869076E1,-9.697628E0,1.4021276E1,3.607845E1,-4.8257393E1,-3.119938E1,-1.7872622E1,-4.845522E0,-5.62882E0,1.664133E1,3.040719E1,2.8450382E0,-2.9981792E0,-1.290169E0,-2.0773597E0,-1.9200556E1,-2.2531824E1,-1.2443732E1,-8.283069E0,5.1162643E0,-1.4254818E0,8.7122077E-1,7.6016016E0,2.3314108E1,2.3651728E1,3.4988205E1,-1.2695123E0,-5.313133E-1,-2.3868298E1,-6.9555384E-1,-1.5542694E1,-4.5631022E0,-1.5365887E1,-2.8371568E0,-8.041116E-1,1.2790666E1,-4.609068E0,4.053011E-1,-3.1982877E0,9.279964E0,1.9199127E1,3.3370663E1,3.5102206E-1,2.5229298E1,1.5716102E0,2.3408637E0,-1.4889615E0,-7.137075E-1,-1.6798975E1,-3.4629995E-1,-4.070058E-1,-2.182703E-2,-1.8311077E1,-1.0506036E1,-4.652637E0,6.2499385E0,2.228029E-1,-2.3359308E0,7.5574083E0,1.1521462E0,-3.4636438E-1,-1.3451268E-1,-1.8898772E-2,-3.2822546E-1,3.579204E0,1.2506734E1,3.0409154E-1,2.0007067E1,1.3567935E0,2.2902045E0,2.0955585E1,1.9294472E0,-1.3370591E0,-8.3574283E-1,-1.2622741E0,-1.2444803E1,-1.2468159E1,-3.2114375E-1,-7.077863E0,2.038834E0,7.4530363E-1,4.2441998E-2,-2.90688E-1,5.1947093E-1,2.548549E-1,5.6783795E-1,-1.2554216E0,8.189214E0,7.533839E0,1.5380143E1,1.6081423E1,2.3024044E1,5.6716937E-1,1.3521972E0,-9.611494E-1,-3.628846E-1,-8.761715E-1,-3.5472482E-1,-1.0408658E1,-4.3863306E0,-7.097476E-1,3.31306E-1,-5.0609533E-2,1.0875746E-1,-1.597302E-1,6.266898E-2,1.6143963E-1,6.538775E-1,9.09318E-2,5.858843E-1,5.3191257E-1,1.0079485E0,4.968608E-1,1.756553E1,6.4214665E-1,1.4986544E0,-7.0482945E-1,-3.5084486E-1,-4.63919E-1,-1.8396138E0,2.8787836E-2,-1.1132706E-1,7.8539115E-1,1.3588579E0,-2.4888818E-1,7.5978234E-2,-6.855228E-2,8.0800444E-2],"categories":[],"categories_nodes":[],"categories_segments":[],"categories_sizes":[],"default_left":[0,0,0,0,0,0,0,0,0,0,0,0,0,0,0,0,0,0,0,0,0,0,0,0,0,0,0,0,0,0,0,0,0,0,0,0,0,0,0,0,0,0,0,0,0,0,0,0,0,0,0,0,0,0,0,0,0,0,0,0,0,0,0,0,0,0,0,0,0,0,0,0,0,0,0,0,0,0,0,0,0,0,0,0,0,0,0,0,0,0,0,0,0,0,0,0,0,0,0,0,0,0,0,0,0,0,0,0,0,0,0,0,0,0,0,0,0,0,0,0,0,0,0,0,0,0,0,0,0,0,0],"id":8,"left_children":[1,3,5,7,9,11,13,15,17,19,21,23,25,27,-1,-1,-1,-1,29,31,33,35,37,-1,39,41,43,45,47,-1,-1,49,-1,51,53,55,57,59,61,63,-1,65,67,69,71,-1,73,-1,-1,-1,-1,75,-1,-1,-1,77,79,81,83,-1,85,87,-1,-1,-1,-1,-1,89,91,-1,93,-1,-1,95,-1,-1,-1,-1,97,99,-1,101,103,-1,-1,-1,105,-1,-1,107,109,111,113,115,117,-1,-1,-1,-1,-1,-1,119,121,123,-1,-1,-1,-1,-1,-1,-1,-1,-1,-1,-1,-1,125,-1,-1,-1,-1,-1,127,-1,-1,-1,-1,-1,129,-1,-1],"loss_changes":[7.2745494E5,1.5232756E5,7.831041E4,1.7695406E4,2.001809E4,1.8686266E4,1.54939375E4,2.0789688E3,6.082078E3,4.0555195E3,1.1200007E4,5.2271484E3,1.864057E4,4.3053594E3,0E0,0E0,0E0,0E0,4.5423242E2,7.2960156E2,2.0827148E3,9.206514E3,3.8770142E3,0E0,1.1967683E3,2.5854668E3,5.837328E3,2.1940312E3,1.4907812E3,0E0,0E0,1.2144141E2,0E0,5.514033E2,2.659513E2,9.926875E2,2.3799287E3,3.669622E2,8.490464E2,1.5968018E1,0E0,1.2547206E2,2.0927686E3,1.2673359E3,2.766914E2,0E0,7.05375E2,0E0,0E0,0E0,0E0,9.719922E1,0E0,0E0,0E0,2.793379E2,2.8321973E2,1.9551443E3,7.9735315E2,0E0,2.8638892E2,4.4378906E1,0E0,0E0,0E0,0E0,0E0,1.0800774E3,7.7739746E2,0E0,5.3639844E2,0E0,0E0,4.649297E2,0E0,0E0,0E0,0E0,3.1968774E2,1.9630664E2,0E0,6.5889307E2,3.2958914E2,0E0,0E0,0E0,4.0025024E1,0E0,0E0,8.85322E1,2.7963806E2,3.907379E2,1.7064453E1,3.5514844E2,8.1754297E2,0E0,0E0,0E0,0E0,0E0,0E0,3.8174805E1,4.0472943E2,3.1023392E1,0E0,0E0,0E0,0E0,0E0,0E0,0E0,0E0,0E0,0E0,0E0,0E0,3.8768848E2,0E0,0E0,0E0,0E0,0E0,1.4909021E2,0E0,0E0,0E0,0E0,0E0,3.547871E1,0E0,0E0],"parents":[2147483647,0,0,1,1,2,2,3,3,4,4,5,5,6,6,7,7,8,8,9,9,10,10,11,11,12,12,13,13,18,18,19,19,20,20,21,21,22,22,24,24,25,25,26,26,27,27,28,28,31,31,33,33,34,34,35,35,36,36,37,37,38,38,39,39,41,41,42,42,43,43,44,44,46,46,51,51,55,55,56,56,57,57,58,58,60,60,61,61,67,67,68,68,70,70,73,73,78,78,79,79,81,81,82,82,86,86,89,89,90,90,91,91,92,92,93,93,94,94,101,101,102,102,103,103,116,116,122,122,128,128],"right_children":[2,4,6,8,10,12,14,16,18,20,22,24,26,28,-1,-1,-1,-1,30,32,34,36,38,-1,40,42,44,46,48,-1,-1,50,-1,52,54,56,58,60,62,64,-1,66,68,70,72,-1,74,-1,-1,-1,-1,76,-1,-1,-1,78,80,82,84,-1,86,88,-1,-1,-1,-1,-1,90,92,-1,94,-1,-1,96,-1,-1,-1,-1,98,100,-1,102,104,-1,-1,-1,106,-1,-1,108,110,112,114,116,118,-1,-1,-1,-1,-1,-1,120,122,124,-1,-1,-1,-1,-1,-1,-1,-1,-1,-1,-1,-1,126,-1,-1,-1,-1,-1,128,-1,-1,-1,-1,-1,130,-1,-1],"split_conditions":[2.32E2,1.9009929E2,2.679745E2,1.6480212E2,-1E1,2.1921217E2,2.6E1,2.5E1,1.6E1,2.3E2,1.9E1,1.7E2,-4E0,-1.4E1,2.8450382E0,-2.9981792E0,-1.290169E0,-2.0773597E0,1.69E2,2.1747404E2,-3.1E1,2.1461353E2,2.06E2,-1.4254818E0,1.6E1,2.48E2,2.8611575E2,2.78E2,2.7386874E2,-1.2695123E0,-5.313133E-1,3E0,-6.9555384E-1,2.189596E2,2.5769382E2,2.0639645E2,3.3E1,1.98E2,2.9E1,1.8036999E1,4.053011E-1,1.99E2,-3.1E1,2.3375E2,1.9E1,3.5102206E-1,2.855374E2,1.5716102E0,2.3408637E0,-1.4889615E0,-7.137075E-1,2.0828291E2,-3.4629995E-1,-4.070058E-1,-2.182703E-2,2E0,2.11E2,2.26E2,1.992E2,2.228029E-1,1.81E2,2.18E2,1.1521462E0,-3.4636438E-1,-1.3451268E-1,-1.8898772E-2,-3.2822546E-1,2.77E2,2.62E2,3.0409154E-1,-1.8E1,1.3567935E0,2.2902045E0,2.7693637E2,1.9294472E0,-1.3370591E0,-8.3574283E-1,-1.2622741E0,1.97E2,3E0,-3.2114375E-1,-1.7E1,-2E0,7.4530363E-1,4.2441998E-2,-2.90688E-1,1.91E2,2.548549E-1,5.6783795E-1,-3.6E1,-4.6E1,-1.9E1,7.81025E0,2.18E2,2.4425E2,5.6716937E-1,1.3521972E0,-9.611494E-1,-3.628846E-1,-8.761715E-1,-3.5472482E-1,2.2205225E2,2.5471565E2,2.18E2,3.31306E-1,-5.0609533E-2,1.0875746E-1,-1.597302E-1,6.266898E-2,1.6143963E-1,6.538775E-1,9.09318E-2,5.858843E-1,5.3191257E-1,1.0079485E0,4.968608E-1,2.1E1,6.4214665E-1,1.4986544E0,-7.0482945E-1,-3.5084486E-1,-4.63919E-1,3E0,2.8787836E-2,-1.1132706E-1,7.8539115E-1,1.3588579E0,-2.4888818E-1,1.4E1,-6.855228E-2,8.0800444E-2],"split_indices":[6,9,9,9,24,9,24,22,22,5,22,14,22,22,0,0,0,0,1,9,24,9,1,0,22,1,21,1,9,0,0,22,0,9,21,9,24,2,22,12,0,15,22,6,24,0,9,0,0,0,0,9,0,0,0,22,4,5,11,0,14,1,0,0,0,0,0,1,1,0,7,0,0,21,0,0,0,0,1,22,0,22,24,0,0,0,1,0,0,24,22,22,12,1,6,0,0,0,0,0,0,9,21,16,0,0,0,0,0,0,0,0,0,0,0,0,22,0,0,0,0,0,7,0,0,0,0,0,24,0,0],"split_type":[0,0,0,0,0,0,0,0,0,0,0,0,0,0,0,0,0,0,0,0,0,0,0,0,0,0,0,0,0,0,0,0,0,0,0,0,0,0,0,0,0,0,0,0,0,0,0,0,0,0,0,0,0,0,0,0,0,0,0,0,0,0,0,0,0,0,0,0,0,0,0,0,0,0,0,0,0,0,0,0,0,0,0,0,0,0,0,0,0,0,0,0,0,0,0,0,0,0,0,0,0,0,0,0,0,0,0,0,0,0,0,0,0,0,0,0,0,0,0,0,0,0,0,0,0,0,0,0,0,0,0],"sum_hessian":[1.4723392E3,8.16512E2,6.558272E2,3.085428E2,5.0796924E2,3.5569153E2,3.0013568E2,1.1443012E2,1.9411266E2,1.8662558E2,3.2134366E2,4.148044E1,3.142111E2,2.053645E2,9.4771194E1,1.0616275E2,8.267374E0,1.4846712E2,4.5645535E1,9.608278E1,9.054281E1,2.3926123E2,8.208243E1,9.232816E0,3.2247623E1,1.3577522E2,1.7843585E2,8.934564E1,1.1601886E2,3.63765E1,9.269033E0,8.296166E1,1.3121116E1,6.3170395E1,2.7372414E1,1.01951546E2,1.3730968E2,4.757838E1,3.4504044E1,1.68966E1,1.5351023E1,1.7911045E1,1.1786418E2,1.3189323E2,4.6542618E1,8.260633E0,8.108501E1,4.1305336E1,7.4713524E1,7.487468E1,8.086982E0,5.4331387E1,8.839007E0,1.6877466E1,1.0494947E1,5.904479E1,4.2906757E1,1.1552453E2,2.1785158E1,1.10758095E1,3.650257E1,2.1996449E1,1.2507596E1,8.822625E0,8.073976E0,9.223923E0,8.687122E0,4.4592396E1,7.327179E1,8.1528E0,1.2374043E2,1.8486794E1,2.8055824E1,5.622886E1,2.4856146E1,1.3113521E1,4.121787E1,3.6105087E1,2.2939701E1,2.8440838E1,1.44659195E1,8.4743286E1,3.078124E1,8.819645E0,1.2965512E1,1.8656443E1,1.7846128E1,1.10059185E1,1.0990531E1,2.2610146E1,2.1982248E1,3.0262268E1,4.3009518E1,6.0821056E1,6.2919376E1,8.63988E0,4.758898E1,1.232968E1,1.061002E1,1.9204247E1,9.236591E0,3.453823E1,5.020505E1,1.8200148E1,1.2581092E1,8.903582E0,8.942547E0,1.3954829E1,8.655316E0,8.900685E0,1.3081563E1,9.293616E0,2.096865E1,1.0732452E1,3.2277065E1,1.2397936E1,4.8423122E1,1.0521392E1,5.2397987E1,2.375655E1,1.0781682E1,1.9480484E1,3.072457E1,9.402266E0,8.797883E0,3.0291048E1,1.8132072E1,1.2771944E1,1.7952625E1,9.079402E0,8.873223E0],"tree_param":{"num_deleted":"0","num_feature":"25","num_nodes":"131","size_leaf_vector":"1"}},{"base_weights":[4.3994266E-1,-1.6475517E1,2.5679697E1,-3.2855785E1,-5.3786273E0,1.6696892E1,3.5507565E1,-2.6617327E0,-2.6500185E1,-9.653592E0,8.38481E0,1.0672629E1,2.585599E1,2.9532175E1,2.8553941E0,-2.996599E1,-1.6586756E1,-1.6230507E1,-4.839037E0,5.2637057E0,2.3297308E1,-7.1902084E-1,1.2233536E1,2.1340675E1,2.0227542E0,2.5910778E1,2.66524E0,-2.077667E0,-2.5556469E1,-1.8901628E1,-1.0846765E-1,-1.2650547E0,-1.1996485E1,-7.761268E0,2.7603984E0,7.7710587E-1,1.18846245E1,7.180528E-1,1.7158135E0,6.8710847E0,1.6013998E1,6.6413254E-1,1.3873843E0,1.5315502E1,2.7788872E1,-1.647694E0,-1.0081229E0,-1.2331156E0,-5.3142667E-1,-1.4756408E1,-8.974125E0,-1.2960485E1,-3.8182666E0,9.4468516E-1,6.1489886E-1,-3.0940938E0,3.1686254E0,8.095849E-1,4.2954797E-1,8.242156E-1,9.172352E0,1.0527552E0,8.81052E0,3.230292E-1,1.1519976E0,7.227141E-1,1.7208495E0,-9.855238E-1,-5.2071255E-1,-1.0747456E1,-1.7049973E-1,-1.51152115E1,-5.823358E0,-7.511551E0,-1.0864755E0,-2.8314325E-1,2.330954E0,-6.2224954E-2,-3.340251E-1,-1.7824277E-1,5.0028214E0,2.3551655E-1,-1.3119644E-1,1.229392E1,4.168047E0,3.2226866E-1,6.81075E-1,-7.146628E-1,-2.9413924E-1,-6.576653E-1,-1.1486558E0,-4.457169E-1,-1.765497E-1,-8.97885E0,-2.1665734E-1,-4.236588E0,1.175289E0,-3.76936E-2,3.9134924E0,1.00358784E-1,3.8319057E-1,4.6243098E-1,8.737259E-1,3.9161697E-1,2.6046783E-2,-6.1299497E-1,-2.8476205E-1,-1.2311863E-1,-3.0013686E-1,-1.0211183E-1,3.4382765E0,6.264233E-2,3.0830896E-1,2.5488824E-1,1.0004482E-1],"categories":[],"categories_nodes":[],"categories_segments":[],"categories_sizes":[],"default_left":[0,0,0,0,0,0,0,0,0,0,0,0,0,0,0,0,0,0,0,0,0,0,0,0,0,0,0,0,0,0,0,0,0,0,0,0,0,0,0,0,1,0,0,0,0,0,0,0,0,0,0,0,0,0,0,0,0,0,0,0,0,0,0,0,0,0,0,0,0,0,0,0,0,0,0,0,0,0,0,0,0,0,0,0,0,0,0,0,0,0,0,0,0,0,0,0,0,0,0,0,0,0,0,0,0,0,0,0,0,0,0,0,0,0,0],"id":9,"left_children":[1,3,5,7,9,11,13,-1,15,17,19,21,23,25,-1,27,29,31,33,35,37,-1,39,41,-1,43,-1,-1,45,47,-1,-1,49,51,53,55,57,-1,-1,59,61,-1,-1,63,65,-1,-1,-1,-1,67,69,71,73,75,-1,77,79,-1,-1,81,83,-1,85,-1,-1,-1,-1,-1,-1,87,-1,89,91,93,95,-1,97,-1,-1,-1,99,-1,-1,101,103,-1,-1,-1,-1,-1,-1,-1,-1,105,-1,107,109,-1,111,-1,-1,-1,-1,-1,-1,-1,-1,-1,-1,-1,113,-1,-1,-1,-1],"loss_changes":[6.0669775E5,1.5418908E5,4.880822E4,2.1743781E4,3.0229258E4,1.5984461E4,1.56333125E4,0E0,6.4908906E3,1.2156453E4,5.3643535E3,6.969914E3,2.2868672E3,7.009828E3,0E0,1.0260625E3,2.1047969E3,2.661246E3,5.1455815E3,3.0711902E3,3.2277246E2,0E0,3.2803086E3,7.705547E2,0E0,2.0007969E3,0E0,0E0,3.020664E2,4.0603125E2,0E0,0E0,4.266963E2,3.2732236E3,8.5534064E2,6.265774E2,5.7040527E1,0E0,0E0,1.0517537E3,6.6903906E2,0E0,0E0,8.3449365E2,7.230703E2,0E0,0E0,0E0,0E0,6.625586E1,4.7011523E2,8.511211E2,9.6532227E2,4.6088644E2,0E0,1.1351129E2,5.0525128E2,0E0,0E0,2.4658353E2,7.316084E2,0E0,3.1026245E1,0E0,0E0,0E0,0E0,0E0,0E0,9.748633E1,0E0,3.2905078E2,3.331732E1,1.4821484E2,4.3803293E2,0E0,2.2469879E2,0E0,0E0,0E0,1.1852399E2,0E0,0E0,4.272998E1,2.099512E2,0E0,0E0,0E0,0E0,0E0,0E0,0E0,0E0,1.4063965E1,0E0,1.2268951E1,2.529129E2,0E0,8.947458E1,0E0,0E0,0E0,0E0,0E0,0E0,0E0,0E0,0E0,0E0,0E0,9.216202E0,0E0,0E0,0E0,0E0],"parents":[2147483647,0,0,1,1,2,2,3,3,4,4,5,5,6,6,8,8,9,9,10,10,11,11,12,12,13,13,15,15,16,16,17,17,18,18,19,19,20,20,22,22,23,23,25,25,28,28,29,29,32,32,33,33,34,34,35,35,36,36,39,39,40,40,43,43,44,44,49,49,50,50,51,51,52,52,53,53,55,55,56,56,59,59,60,60,62,62,69,69,71,71,72,72,73,73,74,74,76,76,80,80,83,83,84,84,93,93,95,95,96,96,98,98,110,110],"right_children":[2,4,6,8,10,12,14,-1,16,18,20,22,24,26,-1,28,30,32,34,36,38,-1,40,42,-1,44,-1,-1,46,48,-1,-1,50,52,54,56,58,-1,-1,60,62,-1,-1,64,66,-1,-1,-1,-1,68,70,72,74,76,-1,78,80,-1,-1,82,84,-1,86,-1,-1,-1,-1,-1,-1,88,-1,90,92,94,96,-1,98,-1,-1,-1,100,-1,-1,102,104,-1,-1,-1,-1,-1,-1,-1,-1,106,-1,108,110,-1,112,-1,-1,-1,-1,-1,-1,-1,-1,-1,-1,-1,114,-1,-1,-1,-1],"split_conditions":[1.93E2,1.9964323E2,2.6905173E2,1.6585434E2,2E1,5E0,1.7E1,-2.6617327E0,1.3E1,2.1404388E2,6E1,6.521739E-2,2E1,2.9693167E2,2.8553941E0,1.7891727E2,3.8E1,-2.1E1,1.7E1,2.2130183E2,5.8E1,-7.1902084E-1,2.5921237E2,2.5030814E2,2.0227542E0,-3.2E1,2.66524E0,-2.077667E0,9.5454544E-1,4.7058824E-1,-1.0846765E-1,-1.2650547E0,-3E0,-1.3E1,2.5298222E1,2.0807367E2,2E2,7.180528E-1,1.7158135E0,-2.9E1,2.92E2,6.6413254E-1,1.3873843E0,7.5384617E-1,7.8431375E-2,-1.647694E0,-1.0081229E0,-1.2331156E0,-5.3142667E-1,2.0950418E2,5.064935E-1,2.2205225E2,3.6E-1,-3E0,6.1489886E-1,2.08E2,-4.4E1,8.095849E-1,4.2954797E-1,2.3E2,5E0,1.0527552E0,2.723034E2,3.230292E-1,1.1519976E0,7.227141E-1,1.7208495E0,-9.855238E-1,-5.2071255E-1,2.15E2,-1.7049973E-1,2.17E2,2.3E1,1E1,2.1993466E2,-2.8314325E-1,1.91E2,-6.2224954E-2,-3.340251E-1,-1.7824277E-1,-2.8E1,2.3551655E-1,-1.3119644E-1,-7E0,4E-1,3.2226866E-1,6.81075E-1,-7.146628E-1,-2.9413924E-1,-6.576653E-1,-1.1486558E0,-4.457169E-1,-1.765497E-1,2.29E2,-2.1665734E-1,2.19E2,3E0,-3.76936E-2,2.211349E2,1.00358784E-1,3.8319057E-1,4.6243098E-1,8.737259E-1,3.9161697E-1,2.6046783E-2,-6.1299497E-1,-2.8476205E-1,-1.2311863E-1,-3.0013686E-1,-1.0211183E-1,2.1942223E2,6.264233E-2,3.0830896E-1,2.5488824E-1,1.0004482E-1],"split_indices":[15,9,9,9,22,22,22,0,22,9,24,18,24,9,0,9,22,24,24,9,22,0,9,9,0,22,0,0,17,18,0,0,22,22,13,9,14,0,0,23,3,0,0,17,17,0,0,0,0,9,17,9,17,23,0,2,7,0,0,14,0,0,21,0,0,0,0,0,0,5,0,2,7,22,9,0,5,0,0,0,7,0,0,23,17,0,0,0,0,0,0,0,0,4,0,5,23,0,9,0,0,0,0,0,0,0,0,0,0,0,11,0,0,0,0],"split_type":[0,0,0,0,0,0,0,0,0,0,0,0,0,0,0,0,0,0,0,0,0,0,0,0,0,0,0,0,0,0,0,0,0,0,0,0,0,0,0,0,0,0,0,0,0,0,0,0,0,0,0,0,0,0,0,0,0,0,0,0,0,0,0,0,0,0,0,0,0,0,0,0,0,0,0,0,0,0,0,0,0,0,0,0,0,0,0,0,0,0,0,0,0,0,0,0,0,0,0,0,0,0,0,0,0,0,0,0,0,0,0,0,0,0,0],"sum_hessian":[1.415973E3,8.483054E2,5.676676E2,3.4056915E2,5.0773627E2,3.00187E2,2.674806E2,1.1680178E2,2.2376736E2,3.8801343E2,1.1972284E2,1.8442796E2,1.15759056E2,1.8404189E2,8.3438705E1,1.6196355E2,6.1803814E1,1.614057E2,2.2660771E2,1.0186727E2,1.7855574E1,1.0797747E1,1.7363022E2,7.91595E1,3.6599556E1,1.5336917E2,3.0672726E1,7.1220276E1,9.074328E1,5.279631E1,9.0075035E0,7.1043304E1,9.03624E1,1.6368222E2,6.29255E1,6.2456333E1,3.9410934E1,8.253069E0,9.602505E0,7.480425E1,9.8825966E1,1.3939726E1,6.521977E1,2.662867E1,1.2674049E2,7.081829E1,1.9924982E1,4.3339626E1,9.456685E0,4.199687E1,4.8365532E1,6.80376E1,9.5644615E1,5.2950447E1,9.975052E0,2.3481112E1,3.8975224E1,2.6088886E1,1.3322049E1,2.1633038E1,5.3171215E1,7.901062E1,1.9815348E1,9.111133E0,1.7517538E1,8.034856E0,1.18705635E2,2.979498E1,1.2201888E1,3.5989166E1,1.2376367E1,5.002692E1,1.801068E1,3.8697952E1,5.6946663E1,9.166191E0,4.3784256E1,1.4836981E1,8.644131E0,8.552602E0,3.042262E1,1.0376021E1,1.1257015E1,3.0406546E1,2.2764668E1,1.1744508E1,8.07084E0,2.7953728E1,8.035438E0,2.899563E1,2.1031288E1,8.972497E0,9.038182E0,2.5660484E1,1.3037469E1,2.2972408E1,3.397426E1,1.5681318E1,2.8102938E1,1.0562454E1,1.9860167E1,1.361793E1,1.6788616E1,1.2763261E1,1.0001408E1,1.7148916E1,8.511568E0,8.43315E0,1.4539257E1,1.5151797E1,1.882246E1,9.838683E0,1.8264254E1,1.0377613E1,8.444846E0],"tree_param":{"num_deleted":"0","num_feature":"25","num_nodes":"115","size_leaf_vector":"1"}},{"base_weights":[-6.37562E-1,-1.810379E1,2.1841923E1,-3.357541E1,-9.521845E0,1.0531973E1,3.0955227E1,-4.1486324E1,-2.7359596E1,-1.2526528E1,3.0510116E0,5.5674024E0,1.9467085E1,2.691835E1,2.803414E0,-2.8310468E0,-2.0324647E0,-2.9097181E1,-1.2794822E1,-1.9670017E1,-8.611799E0,1.5185127E-1,1.2198937E1,-3.757036E-1,9.52259E0,1.3937916E1,2.392183E1,2.3893076E1,3.7692547E1,-3.158238E1,-1.3481319E0,-1.0173247E0,-3.41236E-1,-2.1237673E1,-1.3461051E1,-1.0727347E1,7.901931E-1,-2.4031155E0,5.4637694E0,3.7730563E-1,1.1423324E0,-8.6098564E-1,1.8438385E0,2.2752497E0,1.1304323E1,7.8186803E0,1.7030777E1,8.143843E-1,1.5795181E0,1.4768234E1,2.5663324E1,1.1822631E0,2.3900301E0,-2.1611722E0,-1.4466584E0,-1.4123578E0,-1.4873649E1,-1.0257158E0,-5.3299856E-1,-1.7240532E1,-7.8150992E0,5.8332384E-1,-1.2630031E0,-6.513502E-1,-4.7057268E-1,5.2279365E-1,1.7485559E-2,-1.6510422E0,4.315514E0,-1.2659779E-1,2.967786E-1,2.0212166E-1,1.284745E1,1.67441E-1,6.1075366E-1,6.033689E-1,1.3269413E0,8.69067E0,1.173808E0,1.3227414E1,2.7194582E1,-1.0104495E0,-4.5884168E-1,-1.2553369E0,-1.0695715E1,-9.240907E0,-2.1924517E0,-3.0144072E0,1.5621707E-1,-2.9453735E0,9.6184015E-1,6.320533E-2,-2.7349904E-1,3.9952334E-2,3.6274037E-1,1.011891E1,1.0389907E0,2.7247143E-1,6.3728833E-1,2.1414371E-1,1.0261414E0,9.502257E-1,1.6859472E0,-7.891533E-1,-4.098843E-1,-1.184507E1,-5.9908934E0,-4.2518063E0,1.5629229E-1,-4.255369E0,-5.6022484E-2,-2.799352E-1,-1.9936277E-2,-4.5635965E-2,1.8965219E0,3.5816285E-1,1.1187031E1,-4.313472E-1,-7.674772E-1,-7.454677E0,-2.8321128E0,-3.8117072E-1,-6.299539E-2,-3.4577355E-1,-1.0333719E-1,4.024029E-2,1.6262352E-1,3.5248205E-1,7.78856E-1,-5.9682864E-1,-2.4618776E-1,-7.5943805E-2,-2.1863598E-1],"categories":[],"categories_nodes":[],"categories_segments":[],"categories_sizes":[],"default_left":[0,0,0,0,0,0,0,0,0,0,0,0,0,0,0,0,0,0,0,0,0,0,0,0,0,0,0,0,0,0,0,0,0,0,0,0,0,0,0,0,0,0,0,0,0,0,0,0,0,0,0,0,0,0,0,0,0,0,0,0,0,0,0,0,0,0,0,0,0,0,0,0,0,0,0,0,0,0,0,0,0,0,0,0,0,0,0,0,0,0,0,0,0,0,0,0,0,0,0,0,0,0,0,0,0,0,0,0,0,0,0,0,0,0,0,0,0,0,0,0,0,0,0,0,0,0,0,0,0,0,0,0,0],"id":10,"left_children":[1,3,5,7,9,11,13,15,17,19,21,23,25,27,-1,-1,-1,29,31,33,35,37,39,41,43,45,47,49,51,53,-1,-1,-1,55,57,59,61,63,65,-1,-1,-1,67,69,71,73,75,-1,-1,77,79,-1,-1,-1,-1,-1,81,-1,-1,83,85,-1,87,89,-1,-1,-1,91,93,-1,-1,-1,95,-1,-1,-1,-1,97,-1,99,101,-1,-1,-1,103,105,107,109,-1,111,113,-1,-1,-1,-1,115,-1,-1,-1,-1,-1,-1,-1,-1,-1,117,119,121,-1,123,-1,-1,-1,-1,125,-1,127,-1,-1,129,131,-1,-1,-1,-1,-1,-1,-1,-1,-1,-1,-1,-1],"loss_changes":[5.789037E5,1.0933109E5,6.5602625E4,1.1592531E4,2.0397176E4,1.2644975E4,1.918975E4,1.2741406E3,3.4042969E3,1.16963125E4,2.7901787E3,4.5036978E3,1.6738672E3,7.0923594E3,0E0,0E0,0E0,7.171406E2,4.165066E2,7.333164E2,5.6956035E3,1.1589042E3,7.036743E2,2.5057703E3,1.4104355E3,6.357637E2,3.648379E2,2.7704844E3,1.19484375E2,1.1978594E3,0E0,0E0,0E0,7.423594E2,2.2287793E2,4.06242E3,1.0341146E3,5.2884973E2,4.5076788E2,0E0,0E0,0E0,6.2499023E2,3.2855048E2,1.0039678E3,1.8214868E2,5.609658E2,0E0,0E0,8.1277637E2,2.7055078E3,0E0,0E0,0E0,0E0,0E0,1.769082E2,0E0,0E0,1.0662676E3,1.2702949E3,0E0,3.349347E2,1.7981389E2,0E0,0E0,0E0,2.5430045E2,2.4750067E2,0E0,0E0,0E0,4.5283496E2,0E0,0E0,0E0,0E0,5.8062622E1,0E0,7.917466E2,3.985547E2,0E0,0E0,0E0,4.508203E1,9.2153906E2,3.926965E2,7.33963E1,0E0,8.2110794E1,5.0857018E1,0E0,0E0,0E0,0E0,5.805078E1,0E0,0E0,0E0,0E0,0E0,0E0,0E0,0E0,0E0,5.408496E1,2.3513281E2,1.5815405E2,0E0,4.6662384E1,0E0,0E0,0E0,0E0,1.3113037E1,0E0,1.6320312E2,0E0,0E0,2.3558936E2,1.6354813E1,0E0,0E0,0E0,0E0,0E0,0E0,0E0,0E0,0E0,0E0,0E0,0E0],"parents":[2147483647,0,0,1,1,2,2,3,3,4,4,5,5,6,6,7,7,8,8,9,9,10,10,11,11,12,12,13,13,17,17,18,18,19,19,20,20,21,21,22,22,23,23,24,24,25,25,26,26,27,27,28,28,29,29,33,33,34,34,35,35,36,36,37,37,38,38,42,42,43,43,44,44,45,45,46,46,49,49,50,50,56,56,59,59,60,60,62,62,63,63,67,67,68,68,72,72,77,77,79,79,80,80,84,84,85,85,86,86,87,87,89,89,90,90,95,95,105,105,106,106,107,107,109,109,114,114,116,116,119,119,120,120],"right_children":[2,4,6,8,10,12,14,16,18,20,22,24,26,28,-1,-1,-1,30,32,34,36,38,40,42,44,46,48,50,52,54,-1,-1,-1,56,58,60,62,64,66,-1,-1,-1,68,70,72,74,76,-1,-1,78,80,-1,-1,-1,-1,-1,82,-1,-1,84,86,-1,88,90,-1,-1,-1,92,94,-1,-1,-1,96,-1,-1,-1,-1,98,-1,100,102,-1,-1,-1,104,106,108,110,-1,112,114,-1,-1,-1,-1,116,-1,-1,-1,-1,-1,-1,-1,-1,-1,118,120,122,-1,124,-1,-1,-1,-1,126,-1,128,-1,-1,130,132,-1,-1,-1,-1,-1,-1,-1,-1,-1,-1,-1,-1],"split_conditions":[2.2433513E2,1.876978E2,2.6578223E2,1.6647499E2,2.2E1,1.1E1,3.4E1,-1.1E1,3.3E1,2.0781804E2,2.06E2,2.4967711E2,2.31E2,2.889644E2,2.803414E0,-2.8310468E0,-2.0324647E0,5E0,1.58E2,1.7E1,1.7E1,2.7909006E2,1.6152546E1,7.8431375E-2,-3.6E1,1E0,2.7944977E2,-1.6E1,-2.7E1,-2E0,-1.3481319E0,-1.0173247E0,-3.41236E-1,5E0,-1.3E1,-2.5E1,1.85E2,2.7927628E1,2.8231915E2,3.7730563E-1,1.1423324E0,-8.6098564E-1,-1.2E1,-3.3E1,-3.5E1,2.12E2,3.9E1,8.143843E-1,1.5795181E0,2.8735483E2,-3.3E1,1.1822631E0,2.3900301E0,-2.1611722E0,-1.4466584E0,-1.4123578E0,1.94E2,-1.0257158E0,-5.3299856E-1,8.333333E-1,2.27E2,5.8332384E-1,2.211349E2,1.87E2,-4.7057268E-1,5.2279365E-1,1.7485559E-2,4E0,2.33E2,-1.2659779E-1,2.967786E-1,2.0212166E-1,6.4285713E-1,1.67441E-1,6.1075366E-1,6.033689E-1,1.3269413E0,-2.9E1,1.173808E0,8.6206895E-1,2.5E2,-1.0104495E0,-4.5884168E-1,-1.2553369E0,-4.5E1,1E0,-5E0,2.215E2,1.5621707E-1,2.1896944E1,-7E0,6.320533E-2,-2.7349904E-1,3.9952334E-2,3.6274037E-1,-1.5E1,1.0389907E0,2.7247143E-1,6.3728833E-1,2.1414371E-1,1.0261414E0,9.502257E-1,1.6859472E0,-7.891533E-1,-4.098843E-1,2.135E2,3.3734939E-1,6.4935064E-1,1.5629229E-1,1.4E1,-5.6022484E-2,-2.799352E-1,-1.9936277E-2,-4.5635965E-2,1.99141E1,3.5816285E-1,2.9113925E-1,-4.313472E-1,-7.674772E-1,-1.8E1,-2E0,-3.8117072E-1,-6.299539E-2,-3.4577355E-1,-1.0333719E-1,4.024029E-2,1.6262352E-1,3.5248205E-1,7.78856E-1,-5.9682864E-1,-2.4618776E-1,-7.5943805E-2,-2.1863598E-1],"split_indices":[9,9,9,9,22,22,24,23,23,9,1,9,1,9,0,0,0,24,4,24,24,21,13,17,23,23,21,23,23,22,0,0,0,22,22,22,3,13,21,0,0,0,22,22,22,1,22,0,0,21,22,0,0,0,0,0,1,0,0,18,1,0,9,1,0,0,0,0,1,0,0,0,17,0,0,0,0,22,0,17,5,0,0,0,22,22,22,6,0,13,8,0,0,0,0,22,0,0,0,0,0,0,0,0,0,10,19,19,0,7,0,0,0,0,13,0,19,0,0,7,8,0,0,0,0,0,0,0,0,0,0,0,0],"split_type":[0,0,0,0,0,0,0,0,0,0,0,0,0,0,0,0,0,0,0,0,0,0,0,0,0,0,0,0,0,0,0,0,0,0,0,0,0,0,0,0,0,0,0,0,0,0,0,0,0,0,0,0,0,0,0,0,0,0,0,0,0,0,0,0,0,0,0,0,0,0,0,0,0,0,0,0,0,0,0,0,0,0,0,0,0,0,0,0,0,0,0,0,0,0,0,0,0,0,0,0,0,0,0,0,0,0,0,0,0,0,0,0,0,0,0,0,0,0,0,0,0,0,0,0,0,0,0,0,0,0,0,0,0],"sum_hessian":[1.4693368E3,8.2716144E2,6.421753E2,2.9246298E2,5.346985E2,2.890167E2,3.5315863E2,1.22319214E2,1.7014375E2,4.3160434E2,1.0309412E2,1.8847072E2,1.0054596E2,2.8608557E2,6.707306E1,6.3755726E1,5.8563488E1,1.4971716E2,2.0426601E1,1.4913362E2,2.8247073E2,8.028477E1,2.2809353E1,7.617276E1,1.12297966E2,4.958508E1,5.0960884E1,2.2977242E2,5.631316E1,1.02325874E2,4.7391285E1,1.0714354E1,9.712248E0,1.1410419E2,3.5029427E1,2.3034064E2,5.213009E1,5.508018E1,2.5204584E1,1.4801605E1,8.007748E0,8.609358E0,6.75634E1,2.3357534E1,8.894043E1,1.9707243E1,2.9877836E1,1.2467036E1,3.8493847E1,4.1229717E1,1.885427E2,8.3777485E0,4.7935413E1,5.9061787E1,4.3264088E1,7.949836E1,3.4605827E1,1.5816717E1,1.9212711E1,6.726098E1,1.6307965E2,8.055303E0,4.4074787E1,4.3830704E1,1.1249476E1,1.4414614E1,1.078997E1,2.8248379E1,3.931502E1,8.938445E0,1.4419089E1,1.5825604E1,7.311483E1,8.051948E0,1.1655294E1,1.56623955E1,1.4215441E1,2.1233088E1,1.9996628E1,2.3386534E1,1.6515616E2,2.4705086E1,9.900743E0,3.9735455E1,2.7525528E1,1.2871466E2,3.4364994E1,3.078743E1,1.3287356E1,1.736787E1,2.6462833E1,1.534528E1,1.2903099E1,1.375266E1,2.556236E1,5.0394154E1,2.2720673E1,9.407666E0,1.1825421E1,8.039982E0,1.5346552E1,1.4371852E1,1.5078432E2,1.3198756E1,1.4326772E1,6.764578E1,6.1068874E1,2.4305687E1,1.0059307E1,1.7482344E1,1.3305085E1,9.198051E0,8.169818E0,9.287501E0,1.7175333E1,1.3770633E1,3.662352E1,1.4676228E1,5.296956E1,3.926083E1,2.1808044E1,1.3145598E1,1.1160089E1,8.876928E0,8.605416E0,8.89341E0,8.281923E0,1.1837166E1,2.4786354E1,1.9753242E1,1.9507587E1,9.77932E0,1.2028726E1],"tree_param":{"num_deleted":"0","num_feature":"25","num_nodes":"133","size_leaf_vector":"1"}},{"base_weights":[8.3523524E-1,-1.7035997E1,2.0158138E1,-2.8590542E1,-7.972341E0,1.0093327E1,2.931366E1,-3.475102E1,-2.251569E1,-1.1584191E1,2.1114533E0,6.0038643E0,2.16605E1,2.5832293E1,4.786385E1,-3.6263584E1,-6.955049E-1,-2.558839E1,-1.4699505E1,-1.6736412E1,-8.14957E0,-2.548644E-1,1.2096345E0,1.1036876E0,1.0287247E1,1.4877621E1,1.6299951E0,2.0807417E1,3.1446615E1,1.4384224E0,3.06477E0,-2.2487056E0,-1.0358262E0,-1.7431294E0,-1.2338722E0,-2.8849807E-1,-1.0574867E0,-1.9245518E1,-8.094758E0,-9.012341E-1,-4.738404E0,-7.132825E0,4.1696672E0,-5.3797764E-1,2.6111639E0,6.4125013E0,1.53995285E1,9.758729E0,1.1089766E0,1.3422805E1,2.3111414E1,2.576818E1,2.2162905E0,-1.5794562E1,-1.5979075E0,-6.3694906E-1,-1.22425005E-1,-6.6033473E0,-5.4843094E-2,-5.3713673E-1,-9.6074276E-2,1.9757401E0,7.4254584E0,4.696552E-1,5.524693E0,-6.570893E-2,8.083453E0,9.945903E0,1.179051E0,3.029237E-1,7.1093535E-1,7.313586E0,1.045935E0,1.6844492E1,2.5954884E1,1.1764064E0,1.7494007E0,-9.973177E-1,-5.1702714E-1,-8.331241E0,-3.2257822E-1,-2.084099E0,2.3796406E-1,-2.8324443E-1,4.2259783E-1,2.3944768E-1,6.1736965E-1,-1.3916669E0,3.6986704E0,7.352949E-2,4.0295395E-1,4.150634E0,1.0490175E1,3.3805403E-1,6.8395096E-1,2.717643E-1,5.59888E-1,5.47492E-1,1.1189593E0,1.0734807E0,1.6771972E0,-2.609308E-1,-5.2919406E-1,-6.901722E-2,4.239977E-2,-3.5160384E0,4.869419E-2,-8.6606406E-2,3.506461E-1,7.041647E-2,-3.0169039E0,-0E0,3.6029357E-1,3.1708214E-2,3.307399E-1,3.1544995E-1,6.8495405E-1,-1.1252792E-1,-2.5844917E-1,6.75656E-2,-1.745572E-2,-2.313861E-1,-5.3707432E-2],"categories":[],"categories_nodes":[],"categories_segments":[],"categories_sizes":[],"default_left":[0,0,0,0,0,0,0,0,0,0,0,0,0,0,0,0,0,0,0,0,0,0,0,0,0,0,0,0,0,0,0,0,0,0,0,0,0,0,0,0,0,0,0,0,0,0,0,0,0,0,0,0,0,0,0,0,0,0,0,0,0,0,0,0,0,0,0,0,0,0,0,0,0,0,0,0,0,0,0,0,0,0,0,0,0,0,0,0,0,0,0,0,0,0,0,0,0,0,0,0,0,0,0,0,0,0,0,0,0,0,1,0,0,0,0,0,0,0,0,0,0,0,0],"id":11,"left_children":[1,3,5,7,9,11,13,15,17,19,21,23,25,27,29,31,-1,33,35,37,39,41,-1,43,45,47,-1,49,51,-1,-1,-1,-1,-1,-1,-1,-1,53,55,-1,57,59,61,-1,63,65,67,69,-1,71,73,75,-1,77,-1,-1,-1,79,81,-1,-1,83,85,87,89,-1,91,93,-1,-1,-1,95,-1,97,99,-1,-1,-1,-1,101,103,105,-1,107,-1,-1,-1,109,111,-1,-1,113,115,-1,-1,-1,-1,-1,-1,-1,-1,-1,-1,-1,-1,117,-1,-1,119,-1,121,-1,-1,-1,-1,-1,-1,-1,-1,-1,-1,-1,-1],"loss_changes":[5.1071722E5,7.987303E4,6.470775E4,1.0589875E4,1.5879123E4,1.585118E4,2.0769406E4,4.6154688E3,3.2716562E3,5.3052734E3,4.983829E3,5.348672E3,2.2018555E3,7.2762188E3,9.240781E2,1.4663438E3,0E0,5.8490625E2,1.3606182E3,2.3131953E3,4.392835E3,3.2879314E3,0E0,1.9099374E3,2.4419521E3,3.4329297E2,0E0,2.175E3,1.9784219E3,0E0,0E0,0E0,0E0,0E0,0E0,0E0,0E0,1.3165586E3,4.3072998E2,0E0,1.1756267E3,3.7700146E2,4.275747E2,0E0,6.6744745E2,1.0548003E3,7.903633E2,7.1132324E1,0E0,8.168828E2,1.1850781E3,1.5146484E2,0E0,2.0101562E1,0E0,0E0,0E0,1.036147E3,3.541773E2,0E0,0E0,4.965929E2,1.3739746E2,4.0752252E2,2.044187E2,0E0,5.2044775E2,1.2619873E1,0E0,0E0,0E0,1.5152466E1,0E0,2.0202441E2,2.415625E1,0E0,0E0,0E0,0E0,3.469043E1,2.2177359E1,1.2892615E2,0E0,2.5247288E1,0E0,0E0,0E0,1.8991838E2,2.1026947E2,0E0,0E0,1.3487573E2,2.6657715E1,0E0,0E0,0E0,0E0,0E0,0E0,0E0,0E0,0E0,0E0,0E0,0E0,2.0065613E0,0E0,0E0,1.2319773E1,0E0,3.670204E1,0E0,0E0,0E0,0E0,0E0,0E0,0E0,0E0,0E0,0E0,0E0,0E0],"parents":[2147483647,0,0,1,1,2,2,3,3,4,4,5,5,6,6,7,7,8,8,9,9,10,10,11,11,12,12,13,13,14,14,15,15,17,17,18,18,19,19,20,20,21,21,23,23,24,24,25,25,27,27,28,28,37,37,38,38,40,40,41,41,42,42,44,44,45,45,46,46,47,47,49,49,50,50,51,51,53,53,57,57,58,58,61,61,62,62,63,63,64,64,66,66,67,67,71,71,73,73,74,74,79,79,80,80,81,81,83,83,87,87,88,88,91,91,92,92,105,105,108,108,110,110],"right_children":[2,4,6,8,10,12,14,16,18,20,22,24,26,28,30,32,-1,34,36,38,40,42,-1,44,46,48,-1,50,52,-1,-1,-1,-1,-1,-1,-1,-1,54,56,-1,58,60,62,-1,64,66,68,70,-1,72,74,76,-1,78,-1,-1,-1,80,82,-1,-1,84,86,88,90,-1,92,94,-1,-1,-1,96,-1,98,100,-1,-1,-1,-1,102,104,106,-1,108,-1,-1,-1,110,112,-1,-1,114,116,-1,-1,-1,-1,-1,-1,-1,-1,-1,-1,-1,-1,118,-1,-1,120,-1,122,-1,-1,-1,-1,-1,-1,-1,-1,-1,-1,-1,-1],"split_conditions":[2.2376955E2,1.9451416E2,2.6604858E2,1.7043987E2,2.4E1,2.1E1,2.942342E2,2.1E1,1.3E1,-1.9E1,6.8E1,2.5085074E2,2.29E2,1E1,-2.1E1,2.6E1,-6.955049E-1,-8E0,1.62E2,2.45E2,2.02E2,1.86E2,1.2096345E0,1.923077E-2,-7E0,4.2E1,1.6299951E0,-2.5E1,1.2E1,1.4384224E0,3.06477E0,-2.2487056E0,-1.0358262E0,-1.7431294E0,-1.2338722E0,-2.8849807E-1,-1.0574867E0,2.2E2,-3.7E1,-9.012341E-1,2.23E2,5.2E1,2.03E2,-5.3797764E-1,-3E0,-4.3E1,2.962963E-1,2.2E2,1.1089766E0,2.96E2,-4E0,7.254902E-1,2.2162905E0,1.6E1,-1.5979075E0,-6.3694906E-1,-1.22425005E-1,1.1E1,-3E0,-5.3713673E-1,-9.6074276E-2,4.5E1,3E1,2.375E2,2.25E2,-6.570893E-2,2.7747186E2,2.39E2,1.179051E0,3.029237E-1,7.1093535E-1,-3.5E1,1.045935E0,2.73E2,2.54E2,1.1764064E0,1.7494007E0,-9.973177E-1,-5.1702714E-1,1.78E2,2.1E2,2.34E2,2.3796406E-1,2.9E1,4.2259783E-1,2.3944768E-1,6.1736965E-1,2.1917778E2,4.680851E-1,7.352949E-2,4.0295395E-1,2.65E2,2.65E2,3.3805403E-1,6.8395096E-1,2.717643E-1,5.59888E-1,5.47492E-1,1.1189593E0,1.0734807E0,1.6771972E0,-2.609308E-1,-5.2919406E-1,-6.901722E-2,4.239977E-2,1.9E2,4.869419E-2,-8.6606406E-2,2.02E2,7.041647E-2,2.2478572E2,-0E0,3.6029357E-1,3.1708214E-2,3.307399E-1,3.1544995E-1,6.8495405E-1,-1.1252792E-1,-2.5844917E-1,6.75656E-2,-1.745572E-2,-2.313861E-1,-5.3707432E-2],"split_indices":[9,9,9,9,24,22,9,24,23,24,24,9,1,24,23,7,0,22,2,5,5,5,0,17,22,22,0,22,22,0,0,0,0,0,0,0,0,10,24,0,5,24,5,0,22,23,17,1,0,1,23,17,0,7,0,0,0,24,24,0,0,24,24,6,1,0,21,14,0,0,0,22,0,4,4,0,0,0,0,14,5,5,0,24,0,0,0,11,17,0,0,2,1,0,0,0,0,0,0,0,0,0,0,0,0,14,0,0,1,0,10,0,0,0,0,0,0,0,0,0,0,0,0],"split_type":[0,0,0,0,0,0,0,0,0,0,0,0,0,0,0,0,0,0,0,0,0,0,0,0,0,0,0,0,0,0,0,0,0,0,0,0,0,0,0,0,0,0,0,0,0,0,0,0,0,0,0,0,0,0,0,0,0,0,0,0,0,0,0,0,0,0,0,0,0,0,0,0,0,0,0,0,0,0,0,0,0,0,0,0,0,0,0,0,0,0,0,0,0,0,0,0,0,0,0,0,0,0,0,0,0,0,0,0,0,0,0,0,0,0,0,0,0,0,0,0,0,0,0],"sum_hessian":[1.4738904E3,7.658494E2,7.08041E2,3.342375E2,4.3161194E2,3.3983807E2,3.682029E2,1.5996565E2,1.7427184E2,3.1754712E2,1.1406482E2,2.5395178E2,8.588631E1,3.151504E2,5.305252E1,1.4881355E2,1.1152104E1,1.2090922E2,5.3362606E1,1.2302664E2,1.9452048E2,1.0297961E2,1.1085219E1,1.19992226E2,1.3395955E2,4.2369892E1,4.3516415E1,1.7264954E2,1.4250084E2,8.508675E0,4.4543846E1,1.3848723E2,1.0326322E1,6.564475E1,5.5264465E1,1.3523768E1,3.983884E1,9.2885895E1,3.0140749E1,6.1952026E1,1.3256847E2,3.975242E1,6.322719E1,1.3990414E1,1.0600181E2,7.951223E1,5.444733E1,2.1276375E1,2.109352E1,4.5225685E1,1.2742386E2,7.639909E1,6.610174E1,6.854531E1,2.4340582E1,1.9978683E1,1.01620655E1,9.399053E1,3.857793E1,2.8806736E1,1.0945682E1,4.0303627E1,2.292356E1,6.2896362E1,4.3105446E1,1.4583633E1,6.49286E1,2.740231E1,2.704502E1,9.157861E0,1.2118514E1,2.0644276E1,2.458141E1,4.530602E1,8.2117836E1,3.2513393E1,4.38857E1,5.8899498E1,9.645811E0,7.299678E1,2.0993752E1,2.6503809E1,1.2074123E1,2.9414248E1,1.0889379E1,1.3159946E1,9.763613E0,4.0708694E1,2.218767E1,1.0402184E1,3.2703262E1,2.7354399E1,3.7574196E1,9.933345E0,1.7468966E1,1.2116434E1,8.527841E0,1.1250326E1,3.4055695E1,2.060022E1,6.151762E1,1.0341524E1,6.2655254E1,1.1771326E1,9.222425E0,1.7485424E1,9.018384E0,9.578349E0,1.98359E1,1.5953468E1,2.4755226E1,9.403911E0,1.2783758E1,8.453603E0,1.8900797E1,8.037544E0,2.953665E1,8.585635E0,8.89979E0,8.508687E0,1.1327211E1,1.6171412E1,8.583814E0],"tree_param":{"num_deleted":"0","num_feature":"25","num_nodes":"123","size_leaf_vector":"1"}},{"base_weights":[-5.9153837E-1,-1.8007153E1,1.821397E1,-2.9220818E1,-9.355351E0,1.1222912E1,3.02332E1,-3.9383278E1,-2.5122606E1,-1.12665E1,4.9155173E0,2.4379156E0,1.5324039E1,2.4440273E1,3.9997818E1,-2.9356446E0,-3.30321E1,-3.0067545E1,-1.8192852E1,-1.4676864E1,-4.812985E0,1.2461097E0,1.0868359E0,1.4203018E-1,6.5031905E0,1.1309481E1,2.4116192E1,2.1839853E1,2.1787813E0,1.6673315E0,2.6751256E0,-2.0943964E0,-1.0814849E0,-1.9018124E0,-1.213816E0,-3.8304695E-1,-1.914981E1,-2.1670877E1,-1.2225595E1,-6.6879845E0,4.9748654E0,-7.5204086E-1,3.9919834E0,-3.1942933E0,2.1099021E0,7.9885793E0,4.4763748E-2,4.068641E0,1.3336615E1,1.8540821E1,1.6751655E0,1.1163876E1,2.3301147E1,-1.3243259E0,-8.1732446E-1,-7.7407825E-1,-1.5056509E0,-1.5007363E1,-8.513074E0,-4.209484E0,-1.0772093E1,-4.478719E-2,5.754332E-1,-1.7246942E-1,9.476944E-2,1.30222E-1,2.949444E-1,-4.389692E0,-0E0,-1.633626E0,3.5546346E0,3.0590144E-1,5.8628964E-1,-1.6878177E0,8.394274E0,6.950723E0,1.5446726E1,6.184497E-1,1.2248206E0,3.2444778E-1,8.3446157E-1,9.7601175E-1,1.4957815E0,-1.1007918E0,-1.1389001E1,-1.0995454E1,-4.3384905E0,-5.957916E0,-9.012872E-1,-8.526861E-1,-4.0411675E-1,-3.027471E-1,-1.2842436E-1,7.5723475E-4,-1.7229566E-1,1.8433821E0,3.541473E-1,-2.9577604E-1,8.670876E-2,1.6361604E-2,7.6157093E-1,9.3612716E-2,8.779808E0,1.2842721E1,1.8893229E1,-8.418432E-1,-8.006743E0,-7.1579343E-1,-3.057607E-1,-3.6898908E-1,-1.039871E-1,-2.584011E0,-4.9161112E-1,7.781406E-2,-2.0514296E-1,-7.2550565E-2,1.9814458E-1,2.8668886E-1,6.188042E-1,3.1560093E-1,8.226026E-1,6.0846204E-1,1.2678726E0,-5.6108576E-1,-1.914801E-1,-2.3736897E-1,-4.515085E-2],"categories":[],"categories_nodes":[],"categories_segments":[],"categories_sizes":[],"default_left":[0,0,0,0,0,0,0,0,0,0,0,0,0,0,0,0,0,0,0,0,0,0,0,0,0,0,0,0,0,0,0,0,0,0,0,0,0,0,0,0,0,0,0,0,0,0,0,0,0,0,0,0,0,0,0,0,0,0,0,0,0,0,0,0,0,0,0,0,0,0,1,0,0,0,0,0,0,0,0,0,0,0,0,0,0,0,0,0,0,0,0,0,0,0,0,0,0,0,0,0,0,0,0,0,0,0,0,0,0,0,0,0,0,0,0,0,0,0,0,0,0,0,0,0,0,0,0],"id":12,"left_children":[1,3,5,7,9,11,13,15,17,19,21,23,25,27,29,-1,31,33,35,37,39,41,-1,43,45,47,49,51,-1,-1,-1,-1,-1,-1,-1,-1,53,55,57,59,61,63,65,67,69,71,-1,73,75,77,-1,79,81,-1,-1,-1,-1,83,85,87,89,-1,-1,-1,-1,-1,-1,91,-1,93,95,-1,-1,97,99,101,103,-1,-1,-1,-1,-1,-1,-1,105,107,109,111,113,-1,-1,-1,-1,-1,-1,115,-1,-1,-1,-1,-1,-1,117,119,121,-1,123,-1,-1,-1,-1,125,-1,-1,-1,-1,-1,-1,-1,-1,-1,-1,-1,-1,-1,-1,-1],"loss_changes":[4.944328E5,7.532719E4,6.0113156E4,1.1623781E4,1.231273E4,1.6577297E4,1.25021875E4,1.4248438E3,7.134922E3,8.488441E3,2.5559631E3,1.3979915E3,1.0412984E4,3.2543203E3,2.0136094E3,0E0,6.403125E1,4.8852344E2,9.2685156E2,3.711043E3,2.657241E3,2.5784924E2,0E0,6.651676E2,4.4357935E2,3.0994668E3,6.6148047E2,1.6342656E3,0E0,0E0,0E0,0E0,0E0,0E0,0E0,0E0,8.227031E2,1.0253164E3,1.6872148E3,1.0791064E3,6.499412E2,1.5085295E2,1.897522E0,1.4364896E2,3.606299E2,8.3968994E1,0E0,1.3362019E3,2.028543E3,1.4203516E2,0E0,1.5463086E2,3.558828E2,0E0,0E0,0E0,0E0,7.4333984E2,8.022344E2,4.347218E2,3.4174805E2,0E0,0E0,0E0,0E0,0E0,0E0,8.421875E0,0E0,4.0795944E1,1.5524396E2,0E0,0E0,2.6586523E2,1.0282971E3,4.2671436E2,5.067246E2,0E0,0E0,0E0,0E0,0E0,0E0,0E0,2.1659863E2,1.264624E2,1.4557233E2,3.1730054E2,1.7777396E2,0E0,0E0,0E0,0E0,0E0,0E0,1.4729138E2,0E0,0E0,0E0,0E0,0E0,0E0,7.681421E1,3.0817578E2,3.782793E2,0E0,1.16797E2,0E0,0E0,0E0,0E0,4.9306534E1,0E0,0E0,0E0,0E0,0E0,0E0,0E0,0E0,0E0,0E0,0E0,0E0,0E0,0E0,0E0],"parents":[2147483647,0,0,1,1,2,2,3,3,4,4,5,5,6,6,7,7,8,8,9,9,10,10,11,11,12,12,13,13,14,14,16,16,17,17,18,18,19,19,20,20,21,21,23,23,24,24,25,25,26,26,27,27,36,36,37,37,38,38,39,39,40,40,41,41,42,42,43,43,44,44,45,45,47,47,48,48,49,49,51,51,52,52,57,57,58,58,59,59,60,60,67,67,69,69,70,70,73,73,74,74,75,75,76,76,84,84,85,85,86,86,87,87,88,88,95,95,102,102,103,103,104,104,106,106,111,111],"right_children":[2,4,6,8,10,12,14,16,18,20,22,24,26,28,30,-1,32,34,36,38,40,42,-1,44,46,48,50,52,-1,-1,-1,-1,-1,-1,-1,-1,54,56,58,60,62,64,66,68,70,72,-1,74,76,78,-1,80,82,-1,-1,-1,-1,84,86,88,90,-1,-1,-1,-1,-1,-1,92,-1,94,96,-1,-1,98,100,102,104,-1,-1,-1,-1,-1,-1,-1,106,108,110,112,114,-1,-1,-1,-1,-1,-1,116,-1,-1,-1,-1,-1,-1,118,120,122,-1,124,-1,-1,-1,-1,126,-1,-1,-1,-1,-1,-1,-1,-1,-1,-1,-1,-1,-1,-1,-1],"split_conditions":[2.224167E2,1.9178966E2,2.7013757E2,1.6023102E2,3.1E1,2.7112195E2,1.4E1,-1.4E1,4E0,2.1461353E2,4.2857143E-1,0E0,2E1,2.996575E2,2.757467E2,-2.9356446E0,6.363636E-1,8.888889E-1,1.33E2,-2E1,2.3E1,2.155E2,1.0868359E0,2.4E2,1.1322842E-1,-2.9E1,1E1,-3.5E1,2.1787813E0,1.6673315E0,2.6751256E0,-2.0943964E0,-1.0814849E0,-1.9018124E0,-1.213816E0,-3.8304695E-1,1.67E2,2.11E2,2E2,5E0,1.1E1,3.8E1,5.6338027E-2,-5E0,-1.4E1,2.2773032E2,4.4763748E-2,2.79E2,2.5624988E2,2.22E2,1.6751655E0,5.064935E-1,-1.5E1,-1.3243259E0,-8.1732446E-1,-7.7407825E-1,-1.5056509E0,9E0,0E0,5E0,-1.1E1,-4.478719E-2,5.754332E-1,-1.7246942E-1,9.476944E-2,1.30222E-1,2.949444E-1,2E1,-0E0,6E0,2.38E2,3.0590144E-1,5.8628964E-1,2.67E2,-5.4E1,2.555E2,3E0,6.184497E-1,1.2248206E0,3.2444778E-1,8.3446157E-1,9.7601175E-1,1.4957815E0,-1.1007918E0,1.84E2,2.21E2,2.03E2,2.18E2,1.9E2,-8.526861E-1,-4.0411675E-1,-3.027471E-1,-1.2842436E-1,7.5723475E-4,-1.7229566E-1,-2.5E1,3.541473E-1,-2.9577604E-1,8.670876E-2,1.6361604E-2,7.6157093E-1,9.3612716E-2,-1.4E1,2.55E2,3.8666666E-1,-8.418432E-1,1.9E1,-7.1579343E-1,-3.057607E-1,-3.6898908E-1,-1.039871E-1,6.4705884E-1,-4.9161112E-1,7.781406E-2,-2.0514296E-1,-7.2550565E-2,1.9814458E-1,2.8668886E-1,6.188042E-1,3.1560093E-1,8.226026E-1,6.0846204E-1,1.2678726E0,-5.6108576E-1,-1.914801E-1,-2.3736897E-1,-4.515085E-2],"split_indices":[9,9,9,9,22,21,22,22,22,9,18,22,22,9,9,0,17,18,14,23,24,6,0,1,20,23,23,24,0,0,0,0,0,0,0,0,1,3,4,0,23,22,18,22,23,9,0,4,9,1,0,17,23,0,0,0,0,23,23,23,22,0,0,0,0,0,0,8,0,7,4,0,0,4,23,6,23,0,0,0,0,0,0,0,4,4,1,16,14,0,0,0,0,0,0,22,0,0,0,0,0,0,23,4,19,0,23,0,0,0,0,17,0,0,0,0,0,0,0,0,0,0,0,0,0,0,0],"split_type":[0,0,0,0,0,0,0,0,0,0,0,0,0,0,0,0,0,0,0,0,0,0,0,0,0,0,0,0,0,0,0,0,0,0,0,0,0,0,0,0,0,0,0,0,0,0,0,0,0,0,0,0,0,0,0,0,0,0,0,0,0,0,0,0,0,0,0,0,0,0,0,0,0,0,0,0,0,0,0,0,0,0,0,0,0,0,0,0,0,0,0,0,0,0,0,0,0,0,0,0,0,0,0,0,0,0,0,0,0,0,0,0,0,0,0,0,0,0,0,0,0,0,0,0,0,0,0],"sum_hessian":[1.5046024E3,7.812393E2,7.233631E2,3.3759412E2,4.4364523E2,4.6047202E2,2.6289105E2,9.070891E1,2.4688522E2,3.9175253E2,5.1892673E1,1.478767E2,3.1259534E2,1.7060883E2,9.2282234E1,2.97721E1,6.0936806E1,1.3909248E2,1.0779275E2,2.5414032E2,1.3761223E2,4.276167E1,9.131002E0,9.626425E1,5.1612442E1,2.1862473E2,9.3970604E1,1.4565256E2,2.495627E1,2.9323595E1,6.295864E1,5.1590702E1,9.346105E0,1.1576343E2,2.3329046E1,9.558182E0,9.8234566E1,6.0741806E1,1.9339851E2,1.1620779E2,2.1404442E1,2.5704428E1,1.7057243E1,3.502851E1,6.1235744E1,4.017819E1,1.1434255E1,4.9542767E1,1.6908195E2,4.3647633E1,5.0322968E1,2.0216227E1,1.25436325E2,6.0044163E1,3.81904E1,2.009334E1,4.0648464E1,1.0606848E2,8.7330025E1,7.560333E1,4.0604454E1,1.0414122E1,1.0990321E1,1.3282658E1,1.242177E1,8.68863E0,8.368613E0,2.4810562E1,1.0217949E1,1.6857534E1,4.437821E1,1.8916597E1,2.1261591E1,2.1866528E1,2.7676239E1,4.4759434E1,1.24322525E2,1.0896389E1,3.2751244E1,8.913001E0,1.1303225E1,2.7661015E1,9.7775314E1,5.021112E1,5.585736E1,5.2088207E1,3.5241817E1,4.8029152E1,2.7574183E1,1.8624075E1,2.1980381E1,1.6731554E1,8.079007E0,8.089448E0,8.768086E0,2.8321117E1,1.605709E1,1.0138452E1,1.1728076E1,1.0482065E1,1.7194174E1,1.2591463E1,3.2167973E1,7.772789E1,4.6594635E1,2.7036543E1,2.8820818E1,4.2962357E1,9.125854E0,1.8765795E1,1.6476025E1,2.126265E1,2.6766502E1,1.524455E1,1.2329633E1,9.136995E0,1.9184122E1,1.1703865E1,2.0464106E1,9.44747E0,6.828042E1,1.2092819E1,3.4501816E1,2.0721083E1,8.099735E0,1.0376884E1,1.0885765E1],"tree_param":{"num_deleted":"0","num_feature":"25","num_nodes":"127","size_leaf_vector":"1"}},{"base_weights":[-2.962422E-1,-1.3600571E1,1.9867456E1,-2.5984795E1,-4.459517E0,1.3815021E1,3.131667E1,-3.1194632E1,-2.0130655E1,-7.969781E0,6.4596515E0,7.1464634E0,1.9503515E1,2.709149E1,2.992095E0,-2.4097009E0,-2.6078217E1,-2.4970232E1,-1.45195055E1,-1.2708288E1,-3.6516056E0,1.3021071E0,1.1847115E1,-6.188227E-1,9.723448E0,1.4905002E1,2.3719637E1,2.2641884E1,2.090686E0,-2.7974545E1,-1.0275408E0,-2.7116604E1,-4.043288E-1,-1.6168287E1,-6.3785267E-1,-1.5139965E1,-8.960703E0,-1.6744087E0,-8.835492E0,-2.2316978E0,4.5677323E0,6.802226E0,1.52771225E1,-6.477881E-1,3.4352512E0,8.161486E-2,1.0686072E1,7.0318394E0,1.6343596E1,9.228876E-1,2.5921972E1,8.276574E-1,2.546621E1,-1.7611706E0,-9.80605E-1,-1.7434669E0,-1.113342E0,-1.0418248E0,-5.014097E-1,-1.6450144E1,-3.7350753E-1,-1.1626767E1,-5.5408206E0,-8.779279E0,2.2226456E-1,-7.681794E-1,-5.318753E0,-5.321839E-1,1.7199692E0,6.808516E-2,5.7035656E0,5.8308408E-2,5.343569E-1,9.832564E0,1.3205807E0,1.4167957E0,4.5996976E-1,8.11611E0,8.3627355E-1,1.5794691E-1,6.479986E-1,9.535298E0,1.0894917E0,1.1241972E0,1.7677228E0,1.0632067E0,1.7262228E0,-5.7129186E-1,-1.0693278E0,-8.243716E-1,-4.237791E-1,-3.8937947E-1,-9.650648E-2,-1.0329717E1,-2.434713E-1,-1.4569696E0,3.2615938E0,-4.1991323E-1,1.2400744E-2,1.8762673E-1,-2.4596243E-3,1.7199267E-1,4.451569E-1,2.8494254E-1,7.179485E-1,1.9443436E-1,-5.7094265E-3,9.6838355E-2,8.872539E0,2.8851816E-1,7.2250646E-1,-7.609882E-1,-3.4831804E-1,-3.8283534E0,1.9474435E-1,-3.300324E-2,4.6627707E0,3.777934E-1,6.1121213E-1,-3.2962245E-1,-1.1485356E-2,-1.6211656E0,2.3081036E0,1.7347552E-1,3.4622708E-1,-1.4959955E-1,-3.430716E-2,4.9696495E-3,2.1925633E-1],"categories":[],"categories_nodes":[],"categories_segments":[],"categories_sizes":[],"default_left":[0,0,0,0,0,0,0,0,0,0,0,0,0,0,0,0,0,0,0,0,0,0,0,0,0,0,0,0,0,0,0,0,0,0,0,0,0,0,0,0,0,0,0,0,0,0,0,0,0,0,0,0,0,0,0,0,0,0,0,0,0,0,0,0,0,0,0,0,0,0,0,0,0,0,0,0,0,0,0,0,0,0,0,0,0,0,0,0,0,0,0,0,0,0,0,0,0,0,0,0,0,0,0,0,0,0,0,0,0,0,0,0,0,0,0,0,0,0,0,0,0,0,0,0,0,0,0,0,0],"id":13,"left_children":[1,3,5,7,9,11,13,15,17,19,21,23,25,27,-1,-1,29,31,33,35,37,39,41,43,45,47,49,51,-1,53,-1,55,-1,57,-1,59,61,63,65,67,69,71,73,-1,75,-1,77,79,81,-1,83,-1,85,-1,-1,-1,-1,-1,-1,87,-1,89,91,93,95,-1,97,-1,99,-1,101,-1,-1,103,-1,105,-1,107,-1,-1,-1,109,-1,-1,-1,-1,-1,-1,-1,-1,-1,-1,-1,111,-1,113,115,-1,-1,-1,-1,-1,-1,-1,-1,-1,-1,-1,117,-1,-1,-1,-1,119,121,-1,123,-1,-1,-1,-1,125,127,-1,-1,-1,-1,-1,-1],"loss_changes":[4.1184312E5,1.0439556E5,4.1169844E4,1.03439375E4,2.064589E4,1.4950508E4,1.277575E4,6.48075E3,4.271047E3,8.185045E3,3.6096797E3,3.820791E3,3.2791328E3,3.937086E3,0E0,0E0,1.0861406E3,3.4175078E3,1.6647461E2,1.3984336E3,2.1722349E3,8.3621375E2,8.3214355E2,2.138782E3,1.1072734E3,9.466406E2,9.774844E2,2.0621484E3,0E0,3.7985938E2,0E0,1.58515625E1,0E0,1.7238379E2,0E0,1.0529316E3,5.7603955E2,2.1610024E3,6.3241943E2,9.6390094E2,1.2584625E2,3.4208557E2,7.40749E2,0E0,2.8476834E2,0E0,7.5332324E2,2.7590686E2,6.3702344E2,0E0,6.352617E2,0E0,8.608789E2,0E0,0E0,0E0,0E0,0E0,0E0,4.4263672E2,0E0,1.5904395E2,1.1855505E2,1.3442871E2,6.68487E2,0E0,3.321255E2,0E0,6.1343018E1,0E0,7.252136E1,0E0,0E0,1.0876514E2,0E0,8.033768E1,0E0,3.3738916E2,0E0,0E0,0E0,1.2716284E2,0E0,0E0,0E0,0E0,0E0,0E0,0E0,0E0,0E0,0E0,0E0,5.384424E1,0E0,3.342616E2,2.5741574E2,0E0,0E0,0E0,0E0,0E0,0E0,0E0,0E0,0E0,0E0,0E0,5.693506E1,0E0,0E0,0E0,0E0,2.0326688E2,2.094418E2,0E0,2.0161987E1,0E0,0E0,0E0,0E0,2.1417442E1,7.209311E1,0E0,0E0,0E0,0E0,0E0,0E0],"parents":[2147483647,0,0,1,1,2,2,3,3,4,4,5,5,6,6,7,7,8,8,9,9,10,10,11,11,12,12,13,13,16,16,17,17,18,18,19,19,20,20,21,21,22,22,23,23,24,24,25,25,26,26,27,27,29,29,31,31,33,33,35,35,36,36,37,37,38,38,39,39,40,40,41,41,42,42,44,44,46,